<?xml version="1.0"?>
<opencv_storage>
<opencv_ml_svm>
  <format>3</format>
  <svmType>C_SVC</svmType>
  <kernel>
    <type>RBF</type>
    <gamma>5.0625000000000009e-01</gamma></kernel>
  <C>1.0000000000000001e-01</C>
  <term_criteria><epsilon>9.9999999999999995e-07</epsilon>
    <iterations>500</iterations></term_criteria>
  <var_count>512</var_count>
  <class_count>2</class_count>
  <class_labels type_id="opencv-matrix">
    <rows>2</rows>
    <cols>1</cols>
    <dt>i</dt>
    <data>
      0 1</data></class_labels>
  <sv_total>1000</sv_total>
  <support_vectors>
    <_>
      0. 0. 0. 0. 0. 0. 0. 0. 0. 0. 0. 0. 3.33333351e-02 0. 0. 0. 0.
      3.33333351e-02 0. 0. 0. 0. 0. 0. 0. 0. 0. 0. 0. 0. 3.33333351e-02
      0. 0. 3.33333351e-02 0. 0. 0. 0. 0. 0. 0. 0. 0. 0. 0. 0. 0. 0. 0.
      0. 0. 0. 0. 0. 0. 0. 0. 0. 0. 0. 0. 0. 0. 0. 0. 0. 0. 0. 0. 0. 0.
      0. 0. 0. 0. 3.33333351e-02 0. 0. 0. 0. 0. 0. 0. 0. 0. 0. 0. 0. 0.
      0. 0. 0. 0. 0. 0. 0. 0. 0. 0. 0. 0. 0. 0. 0. 0. 0. 0. 0. 0. 0. 0.
      0. 0. 0. 0. 0. 0. 0. 0. 3.33333351e-02 0. 0. 0. 0. 0. 0.
      3.33333351e-02 0. 3.33333351e-02 0. 0. 0. 0. 0. 0. 0. 0. 0. 0. 0.
      0. 0. 0. 0. 0. 0. 0. 0. 0. 0. 0. 0. 0. 3.33333351e-02 0. 0. 0. 0.
      0. 0. 0. 0. 0. 0. 0. 0. 0. 0. 0. 0. 0. 0. 0. 0. 0. 0. 0. 0. 0. 0.
      0. 0. 0. 0. 0. 0. 0. 0. 0. 3.33333351e-02 0. 0. 0. 0. 0. 0. 0.
      3.33333351e-02 0. 0. 0. 0. 0. 0. 0. 3.33333351e-02 0. 0. 0. 0. 0.
      0. 0. 0. 0. 0. 0. 0. 3.33333351e-02 0. 0. 0. 3.33333351e-02 0. 0.
      0. 0. 0. 0. 0. 0. 0. 0. 0. 0. 0. 0. 0. 0. 0. 0. 0. 0.
      3.33333351e-02 0. 0. 0. 0. 0. 0. 0. 0. 0. 0. 0. 0. 0. 0. 0. 0. 0.
      0. 0. 0. 0. 0. 0. 0. 0. 0. 0. 0. 0. 0. 0. 0. 0. 0. 0. 0. 0. 0. 0.
      0. 0. 0. 0. 0. 0. 0. 0. 0. 0. 0. 0. 3.33333351e-02 0.
      3.33333351e-02 0. 0. 0. 0. 0. 0. 0. 0. 0. 0. 3.33333351e-02 0.
      3.33333351e-02 0. 0. 0. 0. 0. 0. 0. 3.33333351e-02 0. 0. 0. 0. 0.
      0. 0. 0. 0. 0. 0. 0. 0. 0. 0. 3.33333351e-02 0. 0. 0. 0. 0. 0. 0.
      0. 0. 0. 0. 0. 0. 0. 0. 0. 0. 0. 0. 0. 0. 0. 0. 0. 0. 0. 0. 0. 0.
      0. 0. 0. 0. 0. 0. 3.33333351e-02 0. 6.66666701e-02 0. 0. 0. 0. 0.
      0. 0. 0. 0. 0. 0. 0. 0. 0. 0. 0. 0. 0. 0. 0. 0. 0. 0. 0. 0. 0. 0.
      0. 0. 0. 0. 0. 0. 0. 0. 3.33333351e-02 0. 0. 3.33333351e-02 0. 0.
      0. 0. 0. 0. 0. 0. 0. 3.33333351e-02 0. 0. 0. 0. 0. 0. 0. 0.
      3.33333351e-02 0. 0. 0. 0. 0. 0. 0. 0. 0. 0. 0. 0. 0. 0. 0. 0. 0.
      0. 0. 0. 0. 0. 0. 0. 0. 0. 0. 0. 0. 0. 0. 3.33333351e-02 0. 0. 0.
      0. 0. 0. 0. 0. 0. 0. 0. 0. 0. 0. 0. 0. 0. 0. 0. 0. 0. 0. 0. 0. 0.
      0. 0. 0. 0. 0. 0. 0. 0. 0. 0. 0. 0. 0. 0. 0. 0. 0. 0. 0. 0. 0. 0.
      3.33333351e-02 0.</_>
    <_>
      0. 0. 5.12820520e-02 0. 0. 0. 0. 0. 0. 0. 0. 0. 0. 0. 0.
      5.12820520e-02 0. 0. 0. 0. 0. 0. 0. 0. 2.56410260e-02
      5.12820520e-02 0. 2.56410260e-02 0. 0. 0. 0. 0. 0. 0. 0. 0.
      2.56410260e-02 0. 2.56410260e-02 0. 0. 0. 0. 0. 0. 0. 0. 0. 0. 0.
      0. 2.56410260e-02 0. 0. 0. 0. 0. 0. 0. 0. 0. 0. 0. 0. 0. 0. 0. 0.
      0. 0. 0. 0. 0. 0. 0. 0. 0. 0. 0. 0. 2.56410260e-02 0. 0. 0. 0. 0.
      0. 0. 0. 0. 0. 0. 0. 0. 0. 0. 0. 7.69230798e-02 0. 0. 0. 0. 0. 0.
      0. 0. 0. 0. 0. 0. 2.56410260e-02 0. 0. 0. 0. 0. 0. 0.
      2.56410260e-02 0. 2.56410260e-02 0. 0. 0. 0. 5.12820520e-02 0. 0.
      0. 0. 0. 0. 0. 0. 0. 0. 0. 0. 0. 0. 0. 0. 0. 0. 0. 0. 0. 0. 0. 0.
      0. 0. 0. 0. 0. 0. 0. 0. 0. 0. 0. 2.56410260e-02 0. 0. 0. 0. 0. 0.
      0. 0. 0. 0. 0. 0. 0. 0. 0. 0. 0. 0. 0. 2.56410260e-02 0. 0.
      2.56410260e-02 0. 2.56410260e-02 0. 2.56410260e-02 0. 0. 0. 0. 0.
      0. 0. 0. 0. 0. 0. 2.56410260e-02 2.56410260e-02 2.56410260e-02 0.
      0. 0. 0. 0. 0. 0. 0. 0. 0. 0. 0. 0. 0. 2.56410260e-02 0. 0. 0. 0.
      0. 0. 2.56410260e-02 0. 0. 0. 0. 0. 0. 0. 0. 0. 0. 0. 0. 0. 0. 0.
      0. 0. 0. 0. 0. 0. 0. 0. 0. 0. 0. 0. 0. 0. 0. 0. 0. 0. 0. 0. 0. 0.
      0. 0. 0. 0. 0. 0. 0. 0. 0. 0. 0. 0. 0. 0. 0. 0. 0. 0. 0. 0. 0. 0.
      0. 0. 0. 0. 0. 0. 0. 0. 0. 0. 0. 0. 2.56410260e-02 0. 0. 0. 0.
      2.56410260e-02 0. 0. 0. 0. 0. 0. 0. 0. 0. 0. 0. 0. 0. 0. 0. 0. 0.
      0. 0. 0. 0. 0. 0. 0. 0. 0. 0. 0. 0. 0. 0. 0. 0. 0. 0. 0. 0. 0. 0.
      0. 0. 0. 2.56410260e-02 2.56410260e-02 0. 0. 0. 0. 0.
      2.56410260e-02 0. 0. 0. 0. 0. 0. 0. 0. 0. 2.56410260e-02 0. 0. 0.
      0. 0. 0. 0. 0. 0. 0. 0. 0. 0. 0. 0. 0. 0. 0. 0. 0. 0. 0. 0. 0. 0.
      0. 0. 0. 0. 0. 0. 0. 0. 0. 0. 0. 0. 0. 0. 0. 0. 0. 0. 0. 0.
      2.56410260e-02 0. 0. 0. 0. 0. 0. 0. 0. 0. 0. 0. 0. 0. 0. 0. 0. 0.
      0. 0. 0. 0. 0. 0. 0. 0. 0. 0. 0. 0. 2.56410260e-02 0. 0. 0. 0. 0.
      0. 0. 0. 0. 0. 0. 0. 0. 0. 0. 0. 0. 0. 0. 0. 0. 0. 0. 0. 0. 0. 0.
      0. 0. 0. 0. 0. 0. 0. 0. 0. 0. 0. 0. 0. 0. 0. 0. 0. 0. 0. 0. 0. 0.
      0. 0. 0. 0. 0. 0. 0. 0. 0. 0. 0. 0. 0. 0. 0. 0. 0. 0. 0. 0. 0. 0.
      0. 2.56410260e-02</_>
    <_>
      0. 0. 0. 4.91803288e-02 0. 0. 0. 0. 1.63934417e-02 0. 0. 0. 0. 0.
      1.63934417e-02 1.63934417e-02 0. 0. 0. 0. 0. 1.63934417e-02 0. 0.
      0. 0. 0. 1.63934417e-02 0. 0. 0. 0. 1.63934417e-02 0. 0. 0. 0.
      1.63934417e-02 0. 1.63934417e-02 0. 0. 0. 0. 0. 1.63934417e-02 0.
      0. 0. 0. 0. 0. 0. 0. 0. 0. 0. 0. 0. 0. 0. 0. 0. 0. 0. 0.
      3.27868834e-02 0. 0. 0. 0. 0. 0. 0. 0. 0. 0. 0. 0. 0. 0.
      3.27868834e-02 0. 0. 0. 0. 0. 0. 1.63934417e-02 0. 0. 0. 0. 0. 0.
      0. 0. 0. 1.63934417e-02 0. 0. 0. 0. 0. 0. 0. 1.63934417e-02 0. 0.
      0. 0. 0. 0. 0. 0. 0. 0. 0. 0. 0. 0. 0. 0. 1.63934417e-02 0. 0.
      1.63934417e-02 0. 0. 1.63934417e-02 0. 0. 0. 0. 0. 0. 0. 0. 0. 0.
      0. 0. 0. 0. 0. 0. 0. 1.63934417e-02 0. 0. 0. 0. 0. 0. 0.
      1.63934417e-02 0. 0. 0. 0. 0. 0. 0. 0. 0. 0. 0. 0. 0. 0. 0. 0. 0.
      0. 0. 0. 0. 1.63934417e-02 0. 0. 0. 0. 0. 0. 0. 1.63934417e-02
      1.63934417e-02 0. 0. 0. 0. 1.63934417e-02 0. 0. 0. 0. 0. 0.
      1.63934417e-02 0. 0. 0. 0. 0. 0. 0. 0. 0. 0. 0. 0. 0. 0. 0. 0. 0.
      1.63934417e-02 0. 0. 0. 0. 1.63934417e-02 0. 0. 0. 0. 0. 0. 0.
      1.63934417e-02 0. 0. 0. 0. 0. 0. 0. 0. 0. 0. 0. 0. 0. 0. 0. 0. 0.
      0. 1.63934417e-02 0. 0. 0. 0. 0. 0. 0. 0. 0. 0. 0. 0.
      1.63934417e-02 0. 0. 0. 0. 0. 0. 0. 1.63934417e-02 0. 0. 0. 0. 0.
      0. 0. 0. 0. 0. 0. 0. 0. 1.63934417e-02 0. 0. 0. 0. 0. 0. 0. 0. 0.
      1.63934417e-02 0. 0. 0. 1.63934417e-02 0. 0. 0. 0. 1.63934417e-02
      1.63934417e-02 0. 0. 0. 0. 0. 0. 0. 0. 0. 0. 0. 0. 0. 0. 0. 0. 0.
      0. 0. 0. 0. 1.63934417e-02 0. 0. 1.63934417e-02 0. 0. 0. 0. 0. 0.
      0. 0. 0. 0. 0. 0. 0. 0. 0. 0. 0. 0. 0. 0. 0. 0. 0. 0. 0. 0. 0. 0.
      0. 0. 0. 0. 0. 1.63934417e-02 0. 0. 0. 0. 0. 0. 1.63934417e-02 0.
      0. 0. 0. 0. 0. 1.63934417e-02 0. 0. 0. 0. 0. 0. 0. 0. 0. 0. 0. 0.
      0. 0. 0. 0. 1.63934417e-02 0. 1.63934417e-02 0. 0. 0. 0. 0. 0. 0.
      0. 0. 0. 1.63934417e-02 0. 0. 0. 0. 1.63934417e-02 0.
      1.63934417e-02 0. 0. 0. 0. 0. 0. 0. 0. 0. 0. 1.63934417e-02 0. 0.
      0. 0. 0. 1.63934417e-02 0. 0. 0. 0. 0. 0. 0. 0. 0. 0. 0. 0.
      1.63934417e-02 0. 0. 0. 0. 0. 0. 0. 0. 0. 0. 0. 3.27868834e-02 0.
      1.63934417e-02 0. 0. 3.27868834e-02 0. 0. 0. 0. 0. 0. 0. 0. 0. 0.
      0. 0. 0. 0. 0. 0. 0. 0. 0. 0. 0. 0. 0. 0. 1.63934417e-02 0. 0. 0.
      0. 0. 0. 0. 0. 0. 0. 0. 0. 0. 0. 1.63934417e-02 0. 0. 0. 0. 0. 0.
      0. 1.63934417e-02 0. 0. 0.</_>
    <_>
      0. 0. 0. 0. 0. 0. 0. 0. 0. 0. 0. 0. 0. 0. 0. 0. 0. 0. 0. 0. 0. 0.
      0. 0. 0. 0. 0. 0. 0. 0. 0. 0. 0. 0. 0. 0. 0. 0. 0. 0. 0. 0. 0. 0.
      0. 0. 0. 0. 0. 0. 0. 0. 0. 0. 0. 0. 0. 0. 0. 5.40540554e-02 0. 0.
      0. 0. 0. 0. 0. 0. 5.40540554e-02 0. 0. 0. 0. 0. 0. 0. 0. 0. 0. 0.
      0. 0. 0. 0. 0. 0. 0. 0. 0. 0. 2.70270277e-02 0. 0. 5.40540554e-02
      0. 0. 0. 0. 0. 0. 0. 0. 0. 2.70270277e-02 0. 0. 0. 0. 0. 0. 0. 0.
      0. 2.70270277e-02 0. 0. 0. 0. 0. 0. 0. 0. 0. 0. 0. 0. 0. 0. 0. 0.
      0. 0. 0. 0. 0. 0. 0. 0. 0. 0. 0. 0. 0. 0. 0. 2.70270277e-02 0. 0.
      0. 0. 0. 0. 2.70270277e-02 0. 0. 0. 0. 0. 0. 0. 0. 0. 0. 0. 0. 0.
      2.70270277e-02 0. 0. 0. 0. 0. 0. 0. 0. 0. 0. 0. 0. 0. 0. 0. 0. 0.
      0. 0. 0. 0. 0. 0. 0. 0. 0. 0. 0. 0. 0. 0. 0. 0. 0. 0. 0. 0. 0. 0.
      0. 0. 0. 0. 0. 0. 0. 0. 0. 0. 0. 0. 0. 0. 0. 0. 2.70270277e-02 0.
      0. 0. 0. 0. 0. 0. 0. 0. 0. 0. 0. 0. 0. 2.70270277e-02 0. 0. 0. 0.
      0. 2.70270277e-02 0. 0. 0. 0. 0. 2.70270277e-02 0. 0. 0. 0.
      2.70270277e-02 0. 0. 0. 0. 0. 0. 0. 0. 0. 0. 0. 0. 0. 0. 0. 0. 0.
      2.70270277e-02 0. 0. 0. 2.70270277e-02 0. 0. 0. 0. 0. 0. 0. 0. 0.
      0. 0. 0. 0. 0. 0. 0. 0. 0. 0. 0. 0. 0. 0. 0. 0. 0. 0.
      2.70270277e-02 0. 0. 2.70270277e-02 0. 0. 0. 0. 0. 0. 0. 0. 0. 0.
      0. 0. 0. 0. 0. 0. 0. 0. 0. 0. 0. 0. 0. 0. 0. 0. 0. 0. 0.
      2.70270277e-02 0. 0. 0. 0. 0. 0. 0. 0. 0. 0. 0. 0. 0. 0. 0. 0. 0.
      0. 0. 0. 0. 0. 0. 2.70270277e-02 2.70270277e-02 0. 0. 0. 0. 0. 0.
      0. 0. 0. 0. 0. 0. 0. 0. 2.70270277e-02 0. 0. 0. 0. 0. 0.
      2.70270277e-02 0. 0. 0. 0. 0. 0. 0. 0. 0. 0. 0. 0. 0. 0. 0. 0. 0.
      0. 0. 0. 0. 0. 0. 0. 0. 0. 0. 0. 0. 0. 0. 0. 0. 0. 0. 0. 0. 0. 0.
      0. 0. 0. 0. 0. 0. 2.70270277e-02 0. 0. 0. 2.70270277e-02 0. 0. 0.
      0. 0. 0. 0. 0. 0. 0. 0. 0. 0. 0. 0. 0. 0. 0. 0. 0. 0. 0. 0. 0. 0.
      0. 0. 0. 0. 0. 0. 0. 0. 0. 0. 0. 0. 0. 2.70270277e-02 0. 0. 0. 0.
      0. 0. 0. 0. 0. 0. 0. 2.70270277e-02 0. 0. 0. 2.70270277e-02
      2.70270277e-02 0. 0. 0. 0. 0. 0. 0. 0. 0. 0. 0. 8.10810775e-02
      2.70270277e-02 0. 0. 0. 0. 0. 0. 2.70270277e-02 0.</_>
    <_>
      0. 0. 0. 0. 2.38095243e-02 0. 2.38095243e-02 0. 0. 0. 0. 0. 0. 0.
      0. 0. 0. 0. 0. 0. 0. 0. 0. 2.38095243e-02 0. 0. 0. 2.38095243e-02
      0. 0. 0. 0. 0. 0. 2.38095243e-02 0. 0. 0. 0. 0. 0. 0. 0. 0. 0. 0.
      0. 0. 0. 0. 0. 0. 2.38095243e-02 0. 0. 0. 0. 0. 0. 0. 0. 0. 0. 0.
      0. 0. 0. 0. 0. 0. 0. 0. 0. 0. 0. 0. 2.38095243e-02 0. 0. 0. 0. 0.
      0. 0. 0. 2.38095243e-02 0. 0. 0. 0. 0. 0. 0. 0. 0. 2.38095243e-02
      0. 0. 2.38095243e-02 0. 0. 0. 0. 0. 0. 0. 0. 0. 0. 0. 0. 0. 0. 0.
      0. 0. 0. 2.38095243e-02 0. 0. 0. 0. 2.38095243e-02 0.
      2.38095243e-02 2.38095243e-02 0. 0. 0. 2.38095243e-02 0. 0. 0. 0.
      0. 0. 0. 0. 0. 0. 0. 0. 0. 0. 0. 0. 0. 0. 0. 0. 0. 0. 0. 0. 0. 0.
      0. 0. 0. 0. 0. 0. 0. 0. 0. 0. 2.38095243e-02 0. 0. 0. 0. 0. 0. 0.
      0. 0. 0. 0. 0. 0. 0. 0. 0. 0. 0. 0. 0. 0. 0. 0. 0. 0. 0. 0. 0. 0.
      0. 0. 0. 0. 0. 0. 0. 0. 0. 0. 0. 0. 0. 0. 2.38095243e-02 0. 0. 0.
      0. 0. 0. 0. 0. 0. 0. 0. 0. 0. 0. 0. 0. 0. 0. 0. 0. 0. 0. 0. 0. 0.
      0. 0. 0. 0. 0. 0. 0. 0. 0. 0. 0. 0. 0. 0. 0. 0. 0. 0. 0. 0. 0. 0.
      0. 0. 0. 0. 0. 0. 0. 4.76190485e-02 0. 0. 0. 0. 0. 2.38095243e-02
      0. 0. 0. 0. 0. 0. 0. 0. 0. 0. 0. 0. 0. 0. 0. 0. 0. 0.
      2.38095243e-02 0. 0. 2.38095243e-02 0. 0. 0. 2.38095243e-02 0. 0.
      0. 0. 0. 0. 0. 2.38095243e-02 0. 0. 2.38095243e-02 2.38095243e-02
      2.38095243e-02 0. 0. 0. 0. 0. 0. 2.38095243e-02 2.38095243e-02 0.
      0. 0. 0. 2.38095243e-02 0. 0. 0. 0. 2.38095243e-02 0. 0.
      2.38095243e-02 0. 0. 0. 0. 0. 0. 0. 0. 0. 0. 0. 0. 0. 0. 0. 0. 0.
      0. 0. 0. 0. 0. 0. 0. 2.38095243e-02 0. 0. 0. 0. 0. 0. 0. 0. 0. 0.
      0. 0. 0. 0. 0. 0. 0. 0. 0. 0. 0. 0. 0. 0. 0. 0. 0. 0. 0. 0. 0. 0.
      0. 0. 2.38095243e-02 0. 0. 0. 0. 0. 0. 0. 0. 0. 0. 0. 0. 0. 0. 0.
      0. 0. 0. 0. 0. 0. 0. 0. 0. 0. 0. 0. 0. 0. 0. 0. 0. 0. 0. 0. 0. 0.
      0. 0. 0. 0. 0. 0. 0. 2.38095243e-02 0. 0. 0. 2.38095243e-02 0. 0.
      0. 0. 2.38095243e-02 0. 0. 0. 0. 0. 0. 0. 2.38095243e-02 0. 0. 0.
      0. 2.38095243e-02 0. 0. 0. 0. 0. 0. 0. 0. 0. 0. 0. 0. 0. 0. 0. 0.
      0. 0. 0. 0. 0. 0. 0. 0. 0. 0. 2.38095243e-02 0. 0. 0. 0. 0.
      2.38095243e-02 0. 0. 0. 0. 0. 0. 0. 0. 0. 0. 0. 0. 0. 0. 0. 0. 0.
      0. 2.38095243e-02 0.</_>
    <_>
      0. 0. 0. 0. 0. 3.12500000e-02 0. 0. 0. 0. 0. 0. 0. 0. 0. 0. 0. 0.
      0. 0. 3.12500000e-02 0. 0. 0. 0. 0. 0. 0. 0. 0. 0. 0.
      3.12500000e-02 0. 0. 0. 0. 0. 0. 0. 0. 0. 0. 0. 0. 0. 0. 0. 0. 0.
      0. 0. 0. 0. 0. 0. 0. 0. 0. 0. 0. 0. 0. 3.12500000e-02 0. 0. 0. 0.
      3.12500000e-02 0. 3.12500000e-02 0. 0. 0. 3.12500000e-02 0. 0. 0.
      0. 0. 0. 0. 0. 0. 0. 6.25000000e-02 0. 0. 0. 0. 0. 0. 0. 0. 0. 0.
      0. 0. 0. 0. 0. 0. 0. 0. 0. 0. 0. 0. 0. 0. 0. 0. 0. 0. 0. 0.
      3.12500000e-02 0. 0. 3.12500000e-02 0. 0. 0. 0. 0. 0. 0. 0. 0. 0.
      0. 0. 0. 0. 0. 0. 0. 0. 0. 0. 0. 0. 0. 0. 0. 0. 0. 0. 0. 0. 0. 0.
      0. 0. 0. 0. 0. 0. 0. 0. 0. 0. 0. 0. 0. 0. 0. 0. 0. 0. 0. 0. 0. 0.
      0. 0. 0. 0. 0. 0. 0. 0. 0. 0. 0. 0. 0. 0. 0. 0. 0. 0. 0. 0. 0. 0.
      0. 0. 0. 0. 0. 0. 0. 0. 0. 0. 0. 0. 0. 0. 3.12500000e-02 0. 0. 0.
      0. 0. 0. 0. 0. 0. 0. 0. 3.12500000e-02 0. 0. 0. 0. 0. 0. 0. 0. 0.
      0. 0. 0. 0. 0. 0. 0. 0. 0. 0. 0. 3.12500000e-02 3.12500000e-02 0.
      0. 0. 0. 0. 0. 0. 0. 0. 0. 0. 0. 0. 0. 0. 0. 0. 0. 0. 0.
      3.12500000e-02 0. 0. 0. 0. 0. 0. 0. 0. 0. 0. 0. 0. 0. 0. 0. 0. 0.
      0. 0. 0. 0. 0. 0. 0. 0. 0. 0. 0. 0. 0. 0. 0. 0. 0. 0. 0. 0. 0.
      3.12500000e-02 0. 0. 0. 3.12500000e-02 0. 3.12500000e-02 0. 0. 0.
      0. 0. 0. 6.25000000e-02 0. 0. 0. 0. 0. 0. 0. 0. 0. 0. 0. 0. 0. 0.
      0. 0. 0. 0. 0. 0. 0. 0. 0. 0. 0. 0. 0. 0. 0. 0. 0. 0. 0. 0. 0. 0.
      0. 0. 3.12500000e-02 0. 0. 0. 0. 0. 0. 0. 0. 0. 0. 0. 0. 0. 0. 0.
      0. 0. 0. 0. 0. 0. 0. 0. 0. 0. 0. 0. 0. 0. 0. 0. 0. 3.12500000e-02
      0. 0. 0. 0. 0. 0. 0. 0. 0. 0. 0. 0. 0. 0. 0. 0. 0. 0. 0. 0. 0. 0.
      0. 0. 0. 0. 0. 0. 0. 0. 0. 0. 0. 0. 0. 0. 0. 0. 0. 0. 0. 0. 0. 0.
      0. 0. 0. 0. 0. 3.12500000e-02 3.12500000e-02 3.12500000e-02
      3.12500000e-02 0. 0. 0. 0. 0. 0. 0. 0. 0. 0. 0. 0. 0. 0. 0. 0. 0.
      0. 0. 0. 0. 0. 0. 0. 3.12500000e-02 0. 6.25000000e-02 0. 0. 0. 0.
      0. 0. 0. 0. 0. 0. 0. 0. 0. 0. 0. 6.25000000e-02 0. 0. 0. 0. 0. 0.
      0. 0. 0. 0. 0. 0. 0. 0. 0. 0. 0. 0. 0. 0. 0. 0. 0. 0. 0. 0.</_>
    <_>
      0. 0. 0. 0. 0. 0. 0. 0. 0. 0. 0. 1.69491526e-02 0. 0. 0. 0. 0. 0.
      0. 0. 0. 0. 0. 0. 1.69491526e-02 0. 0. 0. 0. 0. 0. 0. 0. 0. 0.
      1.69491526e-02 0. 0. 0. 0. 0. 0. 1.69491526e-02 0. 0. 0. 0. 0. 0.
      0. 0. 1.69491526e-02 0. 0. 0. 0. 0. 0. 0. 1.69491526e-02 0. 0.
      1.69491526e-02 0. 0. 0. 0. 0. 1.69491526e-02 0. 0. 0.
      1.69491526e-02 0. 0. 1.69491526e-02 0. 0. 0. 0. 0. 0. 0. 0. 0. 0.
      0. 0. 0. 0. 1.69491526e-02 0. 0. 1.69491526e-02 0. 0. 0. 0. 0. 0.
      0. 0. 0. 0. 0. 0. 0. 0. 0. 0. 0. 0. 0. 1.69491526e-02 0. 0. 0. 0.
      0. 0. 0. 0. 0. 0. 0. 0. 0. 0. 0. 0. 0. 0. 0. 0. 1.69491526e-02 0.
      1.69491526e-02 0. 0. 0. 0. 0. 0. 0. 0. 0. 0. 0. 0. 0. 0. 0. 0. 0.
      0. 0. 0. 0. 0. 0. 0. 0. 0. 0. 0. 0. 3.38983051e-02 0. 0. 0. 0. 0.
      0. 0. 0. 0. 0. 1.69491526e-02 0. 0. 0. 0. 0. 0. 0. 1.69491526e-02
      0. 1.69491526e-02 0. 0. 0. 0. 0. 0. 0. 0. 0. 0. 0. 1.69491526e-02
      0. 1.69491526e-02 0. 0. 0. 0. 0. 1.69491526e-02 0. 0. 0. 0. 0. 0.
      0. 0. 0. 0. 0. 0. 0. 0. 0. 0. 0. 0. 0. 0. 0. 0. 0. 0. 0. 0. 0. 0.
      0. 1.69491526e-02 0. 0. 0. 0. 0. 0. 0. 0. 0. 0. 0. 0. 0. 0. 0. 0.
      0. 0. 0. 0. 0. 0. 0. 0. 0. 0. 1.69491526e-02 0. 0. 0. 0. 0. 0. 0.
      0. 0. 0. 0. 1.69491526e-02 0. 0. 0. 0. 1.69491526e-02 0. 0. 0. 0.
      0. 0. 0. 0. 0. 0. 0. 0. 0. 0. 0. 0. 0. 0. 0. 0. 0. 0. 0. 0. 0.
      1.69491526e-02 0. 0. 1.69491526e-02 0. 1.69491526e-02 0. 0. 0. 0.
      0. 1.69491526e-02 0. 0. 0. 0. 0. 1.69491526e-02 0. 0. 0. 0. 0. 0.
      0. 0. 0. 0. 0. 0. 1.69491526e-02 0. 0. 0. 0. 0. 0. 0. 0. 0. 0. 0.
      0. 0. 0. 0. 1.69491526e-02 0. 0. 0. 0. 0. 0. 0. 0. 1.69491526e-02
      0. 0. 0. 1.69491526e-02 0. 0. 0. 0. 0. 0. 0. 0. 0. 0.
      1.69491526e-02 0. 0. 0. 0. 0. 0. 3.38983051e-02 0. 0. 0. 0.
      1.69491526e-02 0. 0. 0. 0. 0. 0. 0. 0. 0. 0. 0. 0. 0. 0. 0. 0. 0.
      0. 0. 0. 0. 0. 0. 0. 0. 1.69491526e-02 0. 1.69491526e-02 0. 0. 0.
      0. 0. 0. 0. 0. 0. 0. 1.69491526e-02 0. 3.38983051e-02 0. 0.
      1.69491526e-02 1.69491526e-02 0. 0. 0. 0. 0. 0. 0. 0. 0. 0. 0. 0.
      1.69491526e-02 0. 0. 0. 0. 0. 0. 0. 0. 0. 0. 1.69491526e-02 0. 0.
      0. 0. 0. 0. 0. 0. 0. 0. 0. 0. 0. 0. 1.69491526e-02 0. 0. 0. 0.
      1.69491526e-02 0. 0. 0. 1.69491526e-02 1.69491526e-02 0. 0. 0. 0.
      0. 1.69491526e-02 0. 0. 0. 0. 0. 0. 0. 1.69491526e-02 0. 0. 0. 0.
      1.69491526e-02 0. 0. 0. 0. 3.38983051e-02 0. 0. 1.69491526e-02 0.</_>
    <_>
      0. 0. 0. 9.99999978e-03 0. 0. 9.99999978e-03 0. 0. 0.
      1.99999996e-02 0. 9.99999978e-03 0. 0. 0. 0. 0. 0. 0. 0. 0. 0. 0.
      0. 0. 0. 0. 0. 0. 0. 0. 0. 0. 2.99999993e-02 0. 0. 9.99999978e-03
      9.99999978e-03 0. 0. 0. 0. 9.99999978e-03 0. 0. 0. 3.99999991e-02
      0. 0. 0. 0. 0. 0. 0. 0. 9.99999978e-03 0. 0. 0. 0. 0. 0.
      9.99999978e-03 0. 0. 9.99999978e-03 0. 0. 0. 0. 0. 0. 0. 0. 0. 0.
      0. 0. 0. 0. 0. 0. 9.99999978e-03 9.99999978e-03 0. 0. 0.
      2.99999993e-02 0. 0. 0. 0. 0. 0. 0. 9.99999978e-03 0. 0. 0. 0. 0.
      9.99999978e-03 0. 0. 0. 0. 0. 0. 0. 0. 0. 0. 0. 0. 0. 0.
      9.99999978e-03 0. 0. 0. 0. 0. 0. 0. 0. 0. 0. 0. 0. 0. 0.
      1.99999996e-02 0. 0. 0. 0. 0. 0. 0. 0. 0. 0. 0. 0. 9.99999978e-03
      1.99999996e-02 9.99999978e-03 0. 0. 0. 0. 0. 0. 0. 1.99999996e-02
      0. 0. 0. 0. 0. 0. 0. 0. 0. 0. 0. 0. 0. 0. 0. 0. 0. 0. 0. 0. 0.
      9.99999978e-03 9.99999978e-03 0. 0. 0. 0. 0. 0. 0. 0.
      9.99999978e-03 0. 0. 0. 9.99999978e-03 0. 0. 0. 0. 0. 0. 0. 0. 0.
      0. 0. 0. 0. 0. 0. 0. 9.99999978e-03 9.99999978e-03 0. 0. 0. 0. 0.
      0. 0. 0. 9.99999978e-03 0. 9.99999978e-03 0. 1.99999996e-02 0. 0.
      9.99999978e-03 0. 0. 0. 1.99999996e-02 0. 0. 0. 0. 9.99999978e-03
      0. 0. 0. 0. 0. 0. 0. 0. 0. 0. 0. 0. 0. 0. 0. 9.99999978e-03 0. 0.
      0. 0. 0. 0. 0. 0. 0. 0. 0. 0. 0. 0. 0. 0. 0. 0. 0. 0.
      9.99999978e-03 9.99999978e-03 9.99999978e-03 0. 0. 0. 0.
      9.99999978e-03 0. 0. 0. 0. 9.99999978e-03 0. 0. 9.99999978e-03 0.
      0. 0. 0. 0. 0. 0. 0. 0. 0. 9.99999978e-03 0. 0. 0. 0. 0. 0. 0. 0.
      0. 0. 9.99999978e-03 0. 0. 0. 0. 0. 0. 9.99999978e-03 0. 0. 0. 0.
      0. 0. 0. 0. 0. 0. 0. 0. 0. 9.99999978e-03 0. 1.99999996e-02 0. 0.
      0. 0. 0. 0. 0. 0. 0. 0. 0. 0. 0. 0. 0. 0. 9.99999978e-03 0. 0. 0.
      0. 0. 0. 9.99999978e-03 0. 0. 0. 0. 0. 0. 0. 0. 0. 0. 0. 0. 0. 0.
      0. 0. 0. 9.99999978e-03 0. 0. 0. 0. 0. 0. 9.99999978e-03 0. 0. 0.
      0. 0. 0. 0. 9.99999978e-03 9.99999978e-03 0. 9.99999978e-03 0. 0.
      0. 9.99999978e-03 9.99999978e-03 0. 0. 0. 0. 0. 0. 0. 0. 0. 0. 0.
      0. 0. 0. 9.99999978e-03 0. 0. 9.99999978e-03 0. 0. 0. 0. 0. 0. 0.
      0. 9.99999978e-03 3.99999991e-02 0. 0. 9.99999978e-03 0. 0. 0. 0.
      0. 0. 0. 9.99999978e-03 1.99999996e-02 0. 0. 0. 0. 0. 0. 0. 0. 0.
      0. 0. 0. 0. 0. 9.99999978e-03 0. 2.99999993e-02 0. 0. 0. 0.
      9.99999978e-03 0. 0. 9.99999978e-03 0. 0. 9.99999978e-03 0.
      2.99999993e-02 0. 0. 0. 0. 0. 9.99999978e-03 0. 0. 0. 0.
      1.99999996e-02 0. 9.99999978e-03 0. 0. 0. 0. 0. 0. 9.99999978e-03
      9.99999978e-03 0. 0. 0. 0. 0. 0. 0. 0. 0. 0. 0. 9.99999978e-03 0.
      0. 0. 0. 0. 0. 0. 0. 0. 1.99999996e-02 0. 0.</_>
    <_>
      0. 1.56250000e-02 0. 1.56250000e-02 0. 0. 0. 0. 1.56250000e-02
      1.56250000e-02 0. 1.56250000e-02 0. 0. 0. 0. 0. 0. 0. 0. 0.
      1.56250000e-02 0. 0. 0. 0. 0. 0. 0. 0. 0. 0. 0. 0. 0. 0. 0.
      1.56250000e-02 0. 0. 0. 1.56250000e-02 0. 0. 0. 0. 0.
      3.12500000e-02 0. 0. 0. 0. 0. 0. 0. 0. 0. 0. 0. 0. 0. 0. 0. 0. 0.
      0. 0. 0. 0. 0. 0. 0. 0. 0. 0. 0. 0. 0. 0. 0. 0. 0. 0. 0.
      3.12500000e-02 0. 0. 0. 3.12500000e-02 0. 0. 0. 0. 0. 0. 0. 0. 0.
      0. 0. 0. 0. 0. 0. 0. 0. 0. 0. 1.56250000e-02 0. 0. 0. 0. 0. 0. 0.
      0. 0. 0. 0. 0. 0. 0. 0. 0. 0. 0. 0. 0. 0. 0. 0. 0. 0. 0. 0. 0. 0.
      0. 0. 0. 0. 0. 0. 0. 0. 1.56250000e-02 0. 0. 0. 1.56250000e-02 0.
      0. 0. 1.56250000e-02 0. 0. 0. 0. 0. 0. 1.56250000e-02 0. 0. 0. 0.
      0. 0. 0. 0. 0. 0. 0. 0. 0. 1.56250000e-02 0. 0. 1.56250000e-02 0.
      0. 0. 3.12500000e-02 1.56250000e-02 0. 0. 1.56250000e-02 0.
      1.56250000e-02 0. 0. 0. 0. 0. 0. 0. 0. 0. 0. 0. 0. 0. 0. 0. 0. 0.
      0. 0. 0. 0. 0. 0. 0. 0. 0. 0. 1.56250000e-02 1.56250000e-02 0.
      1.56250000e-02 1.56250000e-02 0. 0. 1.56250000e-02 0.
      4.68750000e-02 0. 0. 0. 0. 0. 0. 0. 0. 0. 0. 0. 0. 1.56250000e-02
      1.56250000e-02 0. 0. 0. 0. 0. 0. 0. 0. 0. 0. 0. 0. 0. 0. 0. 0. 0.
      0. 0. 0. 0. 0. 0. 0. 0. 0. 0. 0. 1.56250000e-02 0. 0. 0. 0. 0. 0.
      0. 0. 0. 0. 0. 0. 0. 0. 0. 0. 0. 0. 0. 0. 0. 0. 0. 0. 0. 0. 0. 0.
      0. 0. 0. 0. 1.56250000e-02 0. 0. 1.56250000e-02 0. 0. 0. 0. 0. 0.
      0. 0. 0. 0. 0. 0. 0. 0. 0. 0. 0. 0. 0. 0. 0. 0. 0. 0. 0. 0. 0. 0.
      0. 0. 0. 0. 0. 0. 1.56250000e-02 0. 0. 0. 0. 0. 0. 1.56250000e-02
      0. 0. 0. 0. 0. 0. 0. 0. 0. 0. 0. 0. 1.56250000e-02 0. 0. 0. 0. 0.
      0. 0. 0. 0. 0. 0. 0. 0. 0. 0. 0. 0. 0. 0. 0. 0. 0. 0. 0. 0. 0. 0.
      0. 1.56250000e-02 0. 0. 0. 0. 1.56250000e-02 0. 0. 0. 0. 0. 0. 0.
      0. 0. 0. 0. 0. 0. 0. 0. 0. 0. 0. 0. 0. 1.56250000e-02 0. 0. 0. 0.
      0. 0. 0. 0. 0. 6.25000000e-02 0. 0. 0. 0. 1.56250000e-02 0. 0. 0.
      1.56250000e-02 0. 0. 0. 0. 0. 0. 0. 0. 0. 0. 0. 0. 0. 0. 0. 0. 0.
      0. 0. 3.12500000e-02 0. 0. 0. 0. 0. 0. 3.12500000e-02
      3.12500000e-02 0. 0. 0. 0. 0. 0. 0. 0. 0. 0. 1.56250000e-02 0. 0.
      0. 0. 1.56250000e-02 0. 0. 0. 0. 0. 0. 3.12500000e-02 0. 0. 0. 0.
      0. 0. 0. 0. 1.56250000e-02 0. 0. 0. 0. 0. 3.12500000e-02 0. 0. 0.
      0. 0. 0. 0. 0. 0. 0. 0. 0.</_>
    <_>
      0. 0. 0. 0. 0. 1.42857144e-02 0. 0. 0. 0. 0. 0. 0. 0. 0. 0. 0. 0.
      0. 0. 0. 0. 0. 0. 0. 0. 0. 0. 0. 1.42857144e-02 1.42857144e-02 0.
      2.85714287e-02 0. 0. 0. 0. 0. 0. 0. 0. 0. 0. 0. 1.42857144e-02 0.
      0. 0. 0. 0. 0. 0. 0. 0. 0. 0. 0. 1.42857144e-02 0. 0. 0. 0.
      2.85714287e-02 0. 0. 0. 0. 0. 0. 0. 0. 0. 0. 0. 1.42857144e-02 0.
      0. 0. 0. 0. 0. 0. 0. 0. 0. 0. 0. 0. 0. 1.42857144e-02
      2.85714287e-02 0. 0. 0. 0. 0. 0. 0. 0. 0. 0. 0. 0. 0. 0. 0. 0. 0.
      0. 0. 0. 0. 0. 1.42857144e-02 0. 0. 1.42857144e-02 0. 0. 0. 0. 0.
      0. 0. 0. 1.42857144e-02 0. 0. 0. 0. 0. 0. 0. 0. 0. 0. 0. 0. 0. 0.
      0. 1.42857144e-02 0. 0. 2.85714287e-02 0. 0. 0. 0. 2.85714287e-02
      1.42857144e-02 0. 0. 0. 0. 0. 0. 0. 0. 0. 0. 0. 0. 0. 0. 0. 0. 0.
      0. 0. 0. 0. 0. 0. 1.42857144e-02 0. 0. 0. 0. 0. 0. 0. 0. 0. 0. 0.
      0. 0. 0. 0. 0. 0. 0. 0. 0. 0. 0. 0. 0. 0. 0. 0. 0. 0. 0.
      1.42857144e-02 0. 0. 0. 0. 0. 0. 0. 0. 0. 0. 0. 0. 0. 0. 0. 0. 0.
      1.42857144e-02 0. 0. 0. 0. 0. 0. 0. 0. 0. 0. 0. 0. 0. 0. 0. 0. 0.
      0. 0. 0. 0. 1.42857144e-02 0. 0. 0. 0. 0. 0. 0. 0. 0. 0. 0. 0. 0.
      1.42857144e-02 1.42857144e-02 0. 0. 0. 0. 0. 0. 0. 0. 0. 0. 0. 0.
      0. 0. 0. 0. 0. 0. 0. 0. 0. 0. 0. 0. 0. 1.42857144e-02 0. 0. 0. 0.
      0. 0. 0. 0. 1.42857144e-02 0. 0. 0. 0. 0. 0. 0. 0. 0. 0. 0. 0. 0.
      0. 0. 0. 0. 0. 0. 0. 0. 0. 1.42857144e-02 0. 0. 0. 0. 0. 0. 0. 0.
      0. 0. 0. 0. 0. 0. 0. 2.85714287e-02 0. 0. 0. 0. 1.42857144e-02 0.
      0. 0. 0. 0. 0. 0. 0. 0. 0. 0. 0. 0. 0. 0. 0. 0. 0. 0. 0. 0.
      1.42857144e-02 0. 1.42857144e-02 0. 0. 1.42857144e-02 0. 0. 0.
      1.42857144e-02 0. 0. 0. 0. 0. 0. 0. 0. 0. 0. 0. 0. 0. 0. 0. 0. 0.
      0. 1.42857144e-02 0. 1.42857144e-02 0. 1.42857144e-02 0. 0. 0.
      1.42857144e-02 1.42857144e-02 0. 0. 0. 0. 0. 0. 0. 1.42857144e-02
      0. 1.42857144e-02 0. 1.42857144e-02 1.42857144e-02 0.
      4.28571440e-02 0. 0. 1.42857144e-02 0. 2.85714287e-02 0. 0. 0. 0.
      0. 2.85714287e-02 0. 0. 2.85714287e-02 0. 0. 0. 0. 0. 0. 0. 0. 0.
      0. 0. 0. 0. 1.42857144e-02 0. 0. 0. 0. 0. 0. 0. 0. 0. 0. 0.
      1.42857144e-02 0. 0. 0. 0. 2.85714287e-02 1.42857144e-02 0. 0. 0.
      0. 0. 0. 0. 0. 0. 2.85714287e-02 0. 0. 0. 0. 0. 1.42857144e-02 0.
      0. 1.42857144e-02 0. 0. 0. 0. 0. 0. 0. 0. 0. 0. 0. 0. 0. 0.
      1.42857144e-02 0. 1.42857144e-02 0. 0. 0. 0. 0. 0. 0. 0. 0. 0. 0.
      1.42857144e-02 1.42857144e-02 0. 0. 0.</_>
    <_>
      0. 1.72413792e-02 0. 0. 0. 0. 0. 0. 0. 0. 0. 0. 0. 0. 0. 0. 0. 0.
      0. 0. 0. 0. 0. 0. 0. 0. 0. 0. 0. 0. 0. 0. 0. 0. 0. 0. 0. 0. 0.
      1.72413792e-02 0. 0. 0. 0. 0. 0. 0. 0. 0. 0. 0. 0. 0. 0. 0. 0. 0.
      1.72413792e-02 0. 0. 0. 0. 0. 0. 1.72413792e-02 0. 0. 0. 0. 0.
      3.44827585e-02 0. 0. 0. 3.44827585e-02 3.44827585e-02 0. 0. 0. 0.
      0. 0. 0. 1.72413792e-02 0. 0. 1.72413792e-02 1.72413792e-02 0. 0.
      0. 0. 0. 0. 0. 0. 0. 0. 0. 0. 0. 0. 0. 0. 1.72413792e-02 0. 0.
      1.72413792e-02 0. 1.72413792e-02 1.72413792e-02 0. 0.
      1.72413792e-02 0. 0. 0. 0. 0. 1.72413792e-02 0. 0. 0.
      1.72413792e-02 0. 0. 0. 0. 0. 0. 0. 1.72413792e-02 0. 0. 0. 0. 0.
      0. 0. 0. 0. 1.72413792e-02 0. 0. 0. 0. 0. 1.72413792e-02
      1.72413792e-02 0. 0. 0. 0. 0. 0. 0. 0. 0. 0. 0. 0. 1.72413792e-02
      0. 0. 0. 0. 0. 0. 0. 1.72413792e-02 0. 0. 0. 0. 0. 1.72413792e-02
      0. 0. 0. 0. 0. 0. 0. 0. 0. 0. 1.72413792e-02 0. 0. 0. 0. 0. 0. 0.
      0. 0. 0. 0. 1.72413792e-02 0. 0. 0. 0. 0. 0. 0. 0. 0. 0. 0. 0. 0.
      0. 0. 0. 0. 0. 0. 0. 0. 0. 0. 0. 0. 0. 0. 0. 1.72413792e-02 0. 0.
      0. 0. 0. 1.72413792e-02 0. 0. 0. 0. 0. 0. 0. 0. 0. 0. 0. 0. 0.
      1.72413792e-02 0. 0. 0. 1.72413792e-02 0. 0. 0. 0. 1.72413792e-02
      0. 0. 0. 0. 0. 0. 0. 0. 1.72413792e-02 0. 0. 0. 0. 0. 0. 0. 0. 0.
      0. 0. 0. 0. 0. 0. 0. 0. 0. 0. 0. 0. 0. 0. 0. 0. 0. 0. 0. 0. 0. 0.
      1.72413792e-02 0. 0. 0. 0. 1.72413792e-02 0. 0. 0. 0.
      1.72413792e-02 0. 0. 1.72413792e-02 0. 0. 0. 1.72413792e-02 0. 0.
      0. 0. 0. 0. 0. 0. 0. 0. 0. 1.72413792e-02 3.44827585e-02 0. 0. 0.
      0. 1.72413792e-02 0. 0. 0. 0. 0. 1.72413792e-02 0. 0. 0. 0. 0. 0.
      0. 0. 0. 0. 0. 0. 0. 0. 0. 0. 0. 0. 0. 0. 1.72413792e-02 0. 0. 0.
      0. 0. 0. 0. 0. 0. 0. 0. 0. 0. 0. 0. 0. 1.72413792e-02 0. 0. 0. 0.
      0. 0. 0. 0. 0. 0. 0. 0. 0. 0. 1.72413792e-02 0. 0. 0. 0. 0. 0. 0.
      0. 0. 0. 0. 0. 0. 0. 0. 0. 0. 1.72413792e-02 0. 0. 1.72413792e-02
      0. 0. 0. 0. 0. 0. 1.72413792e-02 0. 0. 0. 0. 1.72413792e-02 0. 0.
      0. 0. 0. 0. 0. 0. 1.72413792e-02 0. 0. 0. 0. 0. 0. 0. 0. 0. 0. 0.
      0. 0. 0. 0. 1.72413792e-02 0. 0. 1.72413792e-02 0. 0. 0. 0. 0. 0.
      0. 0. 0. 0. 0. 0. 0. 0. 0. 0. 0. 0. 0. 0. 0. 0. 0. 0. 0. 0. 0.
      1.72413792e-02 0. 0. 0. 0. 0. 0. 0. 0. 0. 1.72413792e-02 0. 0. 0.
      0. 0. 0. 0. 0. 0. 0. 0. 0. 0. 0. 0. 0. 0. 0. 0. 1.72413792e-02 0.</_>
    <_>
      0. 1.75438598e-02 0. 0. 0. 0. 0. 0. 0. 0. 1.75438598e-02 0. 0. 0.
      0. 0. 0. 0. 0. 0. 0. 0. 0. 0. 0. 0. 1.75438598e-02 0. 0.
      1.75438598e-02 0. 0. 0. 0. 0. 0. 1.75438598e-02 0. 0. 0. 0. 0. 0.
      0. 0. 0. 0. 0. 0. 0. 0. 0. 1.75438598e-02 0. 0. 0. 0. 0. 0. 0. 0.
      0. 0. 0. 0. 0. 0. 0. 1.75438598e-02 0. 3.50877196e-02 0. 0. 0.
      3.50877196e-02 5.26315793e-02 0. 0. 0. 0. 0. 0. 0. 1.75438598e-02
      0. 0. 0. 1.75438598e-02 0. 0. 1.75438598e-02 1.75438598e-02 0. 0.
      0. 0. 0. 0. 1.75438598e-02 0. 0. 0. 0. 0. 1.75438598e-02 0. 0. 0.
      0. 1.75438598e-02 3.50877196e-02 0. 0. 1.75438598e-02 0. 0. 0. 0.
      0. 1.75438598e-02 0. 0. 0. 1.75438598e-02 0. 0. 0. 0. 0. 0. 0. 0.
      0. 0. 0. 0. 0. 0. 0. 0. 0. 1.75438598e-02 0. 0. 0. 0. 0. 0. 0. 0.
      0. 0. 0. 0. 1.75438598e-02 0. 0. 0. 0. 0. 0. 0. 0. 0. 0. 0.
      1.75438598e-02 0. 0. 1.75438598e-02 0. 0. 0. 0. 0. 1.75438598e-02
      0. 0. 0. 0. 0. 0. 0. 0. 0. 0. 0. 1.75438598e-02 0. 0. 0. 0. 0. 0.
      0. 0. 0. 0. 0. 0. 0. 0. 0. 0. 0. 0. 0. 0. 0. 0. 0. 0. 0. 0. 0. 0.
      0. 0. 0. 0. 0. 0. 0. 0. 0. 0. 0. 1.75438598e-02 0. 0. 0. 0. 0. 0.
      0. 0. 0. 0. 0. 0. 0. 0. 0. 0. 0. 0. 0. 1.75438598e-02 0. 0. 0. 0.
      0. 0. 0. 0. 0. 0. 0. 0. 0. 0. 0. 1.75438598e-02 0. 0. 0. 0. 0. 0.
      0. 0. 0. 0. 0. 0. 0. 0. 0. 0. 0. 0. 0. 0. 0. 0. 0. 1.75438598e-02
      0. 0. 0. 0. 0. 0. 0. 0. 0. 0. 0. 0. 0. 0. 0. 0. 1.75438598e-02 0.
      0. 1.75438598e-02 0. 0. 0. 0. 0. 0. 1.75438598e-02 0. 0.
      1.75438598e-02 0. 0. 0. 0. 0. 0. 0. 0. 0. 0. 0. 0. 0. 0. 0. 0. 0.
      0. 0. 0. 1.75438598e-02 0. 0. 0. 0. 1.75438598e-02 0. 0. 0.
      1.75438598e-02 0. 0. 0. 0. 0. 0. 1.75438598e-02 0. 0. 0. 0. 0. 0.
      0. 0. 1.75438598e-02 0. 0. 0. 0. 0. 0. 0. 0. 0. 0. 0. 0.
      1.75438598e-02 0. 0. 0. 0. 0. 1.75438598e-02 0. 0. 0. 0. 0. 0. 0.
      0. 1.75438598e-02 0. 0. 0. 0. 0. 0. 0. 0. 0. 0. 0. 0. 0. 0. 0. 0.
      0. 0. 0. 0. 3.50877196e-02 0. 0. 0. 0. 0. 0. 0. 0. 0. 0. 0. 0. 0.
      1.75438598e-02 0. 0. 0. 1.75438598e-02 0. 0. 0. 0. 0. 0. 0. 0. 0.
      0. 0. 0. 0. 0. 0. 0. 0. 0. 0. 0. 0. 1.75438598e-02 0. 0. 0. 0. 0.
      0. 0. 0. 0. 0. 0. 0. 0. 0. 0. 0. 0. 0. 0. 0. 0. 0. 0. 0. 0. 0. 0.
      1.75438598e-02 0. 0. 0. 0. 0. 1.75438598e-02 0. 0. 0. 0. 0. 0. 0.
      0. 0. 0. 0. 0. 1.75438598e-02 0. 0. 1.75438598e-02 0. 0. 0. 0. 0.
      0. 0. 0. 0.</_>
    <_>
      0. 0. 0. 0. 0. 0. 0. 0. 0. 0. 0. 0. 0. 0. 0. 1.51515156e-02 0. 0.
      0. 0. 3.03030312e-02 0. 1.51515156e-02 0. 0. 0. 3.03030312e-02 0.
      1.51515156e-02 0. 0. 1.51515156e-02 1.51515156e-02 0.
      1.51515156e-02 3.03030312e-02 0. 0. 0. 0. 0. 0. 1.51515156e-02 0.
      0. 0. 0. 0. 0. 0. 0. 1.51515156e-02 0. 0. 0. 0. 0. 0. 0. 0.
      1.51515156e-02 0. 0. 0. 0. 0. 1.51515156e-02 0. 1.51515156e-02 0.
      0. 0. 0. 0. 0. 1.51515156e-02 0. 1.51515156e-02 0. 0.
      1.51515156e-02 0. 0. 0. 0. 0. 0. 0. 0. 0. 0. 0. 0. 1.51515156e-02
      0. 0. 0. 0. 0. 0. 0. 0. 0. 0. 0. 0. 0. 0. 0. 0. 0. 0. 0. 0. 0. 0.
      1.51515156e-02 0. 0. 0. 0. 0. 0. 0. 0. 0. 0. 0. 0. 0. 0. 0. 0. 0.
      0. 0. 0. 0. 0. 1.51515156e-02 0. 1.51515156e-02 0. 0. 0. 0. 0.
      1.51515156e-02 0. 0. 0. 0. 0. 0. 0. 0. 0. 0. 0. 0. 0. 0. 0. 0. 0.
      0. 0. 0. 0. 0. 0. 0. 0. 0. 0. 0. 0. 0. 1.51515156e-02 0. 0. 0.
      1.51515156e-02 0. 0. 1.51515156e-02 0. 0. 0. 0. 0. 0. 0.
      1.51515156e-02 0. 0. 0. 0. 0. 0. 0. 0. 0. 0. 0. 0. 0. 0. 0. 0. 0.
      0. 0. 0. 0. 0. 0. 0. 1.51515156e-02 0. 0. 1.51515156e-02 0. 0. 0.
      0. 0. 0. 0. 0. 0. 0. 0. 1.51515156e-02 0. 0. 1.51515156e-02 0.
      1.51515156e-02 0. 0. 0. 0. 0. 0. 1.51515156e-02 0. 0. 0. 0. 0. 0.
      0. 0. 0. 0. 0. 0. 0. 0. 0. 1.51515156e-02 0. 0. 0. 0. 0. 0. 0. 0.
      1.51515156e-02 1.51515156e-02 0. 0. 1.51515156e-02 0.
      1.51515156e-02 0. 0. 0. 0. 0. 0. 0. 0. 0. 0. 0. 0. 1.51515156e-02
      0. 0. 1.51515156e-02 0. 0. 1.51515156e-02 0. 0. 0. 0. 0. 0. 0. 0.
      1.51515156e-02 0. 0. 0. 0. 0. 3.03030312e-02 0. 0. 0. 0. 0. 0. 0.
      0. 0. 0. 0. 0. 0. 0. 0. 0. 0. 0. 0. 0. 0. 0. 0. 0. 0. 0. 0. 0. 0.
      0. 0. 0. 0. 0. 0. 0. 0. 0. 0. 0. 0. 0. 0. 0. 0. 0. 0. 0. 0. 0. 0.
      0. 0. 0. 0. 0. 0. 0. 0. 0. 1.51515156e-02 0. 0. 0. 0. 0. 0. 0. 0.
      0. 0. 1.51515156e-02 0. 0. 0. 0. 0. 0. 0. 0. 0. 1.51515156e-02
      1.51515156e-02 0. 0. 0. 0. 3.03030312e-02 0. 0. 0. 0. 0. 0. 0. 0.
      0. 0. 0. 1.51515156e-02 0. 0. 0. 3.03030312e-02 0. 0. 0. 0. 0. 0.
      1.51515156e-02 0. 0. 1.51515156e-02 0. 0. 0. 0. 0. 0. 0. 0. 0. 0.
      0. 1.51515156e-02 0. 0. 0. 0. 0. 0. 0. 0. 3.03030312e-02 0. 0. 0.
      0. 0. 0. 0. 0. 0. 3.03030312e-02 0. 0. 0. 0. 0. 0. 0. 0. 0. 0. 0.
      0. 0. 0. 0. 0. 0. 0. 0. 1.51515156e-02 0. 0. 0. 0. 0. 0. 0. 0. 0.
      0. 0. 0. 0. 0. 0. 1.51515156e-02 0. 0. 0. 0. 1.51515156e-02 0. 0.
      0. 0. 0. 0. 0. 0. 0. 0. 0. 0. 1.51515156e-02 0. 0.</_>
    <_>
      0. 0. 0. 0. 0. 0. 0. 0. 0. 0. 0. 0. 0. 0. 0. 0. 0. 0. 0. 0. 0. 0.
      0. 0. 0. 1.63934417e-02 0. 0. 0. 0. 0. 0. 0. 3.27868834e-02 0. 0.
      0. 0. 1.63934417e-02 0. 0. 0. 0. 0. 0. 0. 0. 0. 0. 0. 0. 0. 0. 0.
      0. 1.63934417e-02 0. 0. 1.63934417e-02 1.63934417e-02 0. 0. 0. 0.
      0. 0. 0. 1.63934417e-02 0. 0. 0. 0. 0. 0. 0. 0. 0. 1.63934417e-02
      0. 0. 0. 0. 0. 0. 0. 0. 1.63934417e-02 0. 0. 0. 0. 0. 0. 0. 0. 0.
      0. 0. 0. 0. 0. 0. 0. 0. 0. 1.63934417e-02 0. 0. 1.63934417e-02 0.
      0. 0. 0. 0. 0. 0. 0. 0. 0. 0. 0. 0. 0. 0. 1.63934417e-02 0. 0. 0.
      0. 0. 0. 0. 0. 0. 0. 1.63934417e-02 0. 0. 0. 0. 0. 0. 0. 0. 0. 0.
      0. 0. 0. 0. 0. 0. 0. 0. 0. 0. 0. 0. 0. 0. 0. 1.63934417e-02 0. 0.
      0. 0. 0. 0. 0. 1.63934417e-02 0. 0. 0. 0. 0. 0. 0. 0.
      1.63934417e-02 0. 0. 0. 0. 0. 0. 0. 0. 0. 0. 1.63934417e-02 0. 0.
      0. 0. 0. 0. 0. 0. 0. 3.27868834e-02 0. 0. 0. 0. 0. 0. 0. 0. 0. 0.
      0. 0. 3.27868834e-02 0. 0. 0. 0. 0. 0. 0. 0. 0. 0. 0. 0. 0. 0. 0.
      0. 0. 0. 0. 0. 0. 0. 0. 3.27868834e-02 0. 0. 0. 1.63934417e-02 0.
      1.63934417e-02 0. 0. 0. 0. 0. 0. 0. 0. 0. 0. 0. 0. 0. 0. 0.
      1.63934417e-02 4.91803288e-02 0. 0. 0. 0. 0. 0. 0. 0. 0. 0.
      1.63934417e-02 0. 0. 0. 0. 0. 0. 0. 0. 0. 0. 0. 0. 0.
      1.63934417e-02 0. 0. 0. 0. 1.63934417e-02 0. 1.63934417e-02 0. 0.
      0. 0. 0. 0. 0. 0. 1.63934417e-02 0. 0. 0. 0. 1.63934417e-02
      1.63934417e-02 0. 0. 0. 0. 0. 0. 0. 0. 0. 1.63934417e-02 0.
      1.63934417e-02 0. 0. 0. 0. 0. 0. 0. 3.27868834e-02 0. 0. 0.
      1.63934417e-02 0. 1.63934417e-02 1.63934417e-02 0. 1.63934417e-02
      0. 0. 0. 0. 0. 0. 0. 0. 1.63934417e-02 0. 0. 0. 0. 0. 0.
      1.63934417e-02 0. 0. 0. 0. 0. 0. 0. 0. 0. 1.63934417e-02 0. 0. 0.
      0. 0. 0. 0. 0. 0. 0. 0. 0. 0. 1.63934417e-02 0. 0. 1.63934417e-02
      0. 0. 1.63934417e-02 0. 0. 0. 0. 0. 0. 0. 0. 0. 0. 0.
      1.63934417e-02 0. 0. 0. 0. 0. 0. 0. 0. 0. 0. 0. 0. 0. 0. 0. 0. 0.
      0. 0. 0. 1.63934417e-02 0. 0. 0. 0. 0. 0. 0. 0. 0. 0. 0. 0. 0. 0.
      0. 0. 0. 0. 0. 0. 0. 0. 0. 0. 0. 0. 0. 0. 0. 0. 0. 1.63934417e-02
      0. 0. 0. 0. 0. 0. 0. 1.63934417e-02 0. 0. 0. 0. 0. 0. 0. 0. 0. 0.
      0. 0. 0. 0. 0. 0. 0. 0. 0. 0. 0. 1.63934417e-02 0. 0. 0. 0. 0. 0.
      0. 0. 0. 0. 0. 0. 0. 0. 0. 0. 0. 0. 0. 0. 1.63934417e-02 0. 0. 0.
      0. 0. 0. 0. 1.63934417e-02 0. 0. 1.63934417e-02 1.63934417e-02
      1.63934417e-02 0.</_>
    <_>
      0. 0. 9.99999978e-03 9.99999978e-03 0. 0. 5.99999987e-02 0.
      2.99999993e-02 0. 0. 0. 0. 0. 0. 0. 0. 0. 0. 0. 0. 9.99999978e-03
      0. 0. 0. 0. 0. 0. 0. 9.99999978e-03 0. 0. 9.99999978e-03 0.
      9.99999978e-03 0. 0. 0. 0. 0. 0. 0. 0. 0. 0. 0. 0. 0. 0. 0. 0. 0.
      0. 0. 0. 0. 0. 0. 0. 0. 0. 0. 0. 9.99999978e-03 0. 0. 0. 0. 0. 0.
      0. 0. 0. 0. 0. 0. 0. 0. 0. 0. 9.99999978e-03 0. 0. 0. 0. 0. 0. 0.
      0. 0. 0. 0. 0. 0. 0. 0. 0. 0. 0. 0. 0. 9.99999978e-03 0. 0. 0. 0.
      0. 0. 0. 9.99999978e-03 9.99999978e-03 0. 0. 1.99999996e-02
      9.99999978e-03 0. 0. 9.99999978e-03 0. 0. 9.99999978e-03 0. 0.
      9.99999978e-03 0. 0. 0. 0. 0. 0. 0. 0. 0. 0. 0. 0. 0. 0. 0. 0. 0.
      0. 0. 0. 0. 1.99999996e-02 0. 0. 0. 0. 0. 0. 9.99999978e-03 0. 0.
      0. 0. 9.99999978e-03 1.99999996e-02 0. 0. 0. 0. 0. 0. 0.
      9.99999978e-03 0. 0. 0. 0. 0. 0. 0. 0. 0. 0. 9.99999978e-03 0. 0.
      0. 0. 9.99999978e-03 9.99999978e-03 0. 0. 0. 0. 0. 0. 0. 0. 0. 0.
      0. 0. 0. 0. 0. 9.99999978e-03 9.99999978e-03 0. 0. 9.99999978e-03
      2.99999993e-02 0. 0. 9.99999978e-03 0. 0. 0. 0. 0. 0. 0. 0. 0. 0.
      0. 0. 0. 9.99999978e-03 9.99999978e-03 0. 0. 0. 0. 0. 0. 0. 0. 0.
      0. 0. 0. 0. 9.99999978e-03 0. 0. 0. 9.99999978e-03 0.
      9.99999978e-03 9.99999978e-03 0. 9.99999978e-03 0. 0. 0. 0. 0. 0.
      0. 0. 0. 0. 0. 0. 0. 0. 1.99999996e-02 0. 1.99999996e-02 0. 0.
      9.99999978e-03 0. 0. 0. 0. 0. 0. 0. 0. 9.99999978e-03 0.
      9.99999978e-03 0. 9.99999978e-03 0. 0. 0. 0. 0. 9.99999978e-03
      9.99999978e-03 0. 0. 0. 0. 0. 0. 0. 0. 0. 0. 9.99999978e-03 0. 0.
      9.99999978e-03 0. 0. 0. 0. 0. 0. 9.99999978e-03 9.99999978e-03 0.
      0. 0. 0. 9.99999978e-03 0. 0. 9.99999978e-03 0. 0. 0. 0. 0. 0. 0.
      0. 0. 0. 0. 0. 0. 0. 0. 0. 0. 0. 0. 0. 0. 0. 0. 0. 0. 0. 0.
      9.99999978e-03 9.99999978e-03 0. 9.99999978e-03 0. 0. 0. 0. 0. 0.
      0. 0. 9.99999978e-03 0. 0. 0. 0. 0. 0. 0. 0. 0. 0. 9.99999978e-03
      0. 0. 0. 9.99999978e-03 0. 9.99999978e-03 0. 0. 0. 0. 0.
      9.99999978e-03 0. 0. 0. 0. 0. 0. 0. 0. 0. 0. 0. 0. 9.99999978e-03
      0. 0. 0. 0. 0. 0. 0. 9.99999978e-03 1.99999996e-02 0.
      9.99999978e-03 0. 0. 0. 0. 0. 0. 0. 0. 1.99999996e-02 0.
      3.99999991e-02 1.99999996e-02 9.99999978e-03 0. 0. 9.99999978e-03
      0. 0. 9.99999978e-03 0. 0. 0. 0. 9.99999978e-03 9.99999978e-03 0.
      0. 9.99999978e-03 0. 0. 0. 0. 0. 0. 9.99999978e-03 0. 0. 0. 0. 0.
      0. 0. 0. 0. 0. 0. 0. 0. 0. 0. 0. 9.99999978e-03 0. 0. 0. 0. 0. 0.
      0. 0. 0. 0. 0. 0. 9.99999978e-03 0. 0. 0. 0. 0. 0. 0. 0. 0.
      1.99999996e-02 0. 0. 0. 0. 0. 0. 9.99999978e-03 0. 0. 0. 0. 0. 0.
      0. 0. 0. 0. 0. 0. 0. 9.99999978e-03 0. 0. 0. 0. 0. 0. 0. 0. 0. 0.
      0. 0. 0.</_>
    <_>
      0. 0. 0. 0. 0. 0. 3.33333351e-02 0. 0. 0. 0. 0. 0. 0. 0. 0. 0. 0.
      0. 0. 0. 0. 3.33333351e-02 0. 0. 0. 0. 0. 0. 0. 0. 0. 0. 0. 0. 0.
      0. 0. 0. 0. 0. 0. 0. 0. 0. 0. 0. 0. 0. 0. 0. 3.33333351e-02 0. 0.
      0. 0. 0. 0. 0. 0. 0. 0. 0. 0. 0. 0. 0. 0. 0. 0. 0. 0. 0. 0.
      3.33333351e-02 0. 0. 0. 0. 0. 0. 0. 0. 0. 0. 0. 0. 0. 0. 0. 0. 0.
      0. 0. 3.33333351e-02 0. 0. 0. 0. 3.33333351e-02 0. 0. 0. 0. 0. 0.
      0. 0. 0. 0. 0. 0. 0. 0. 0. 0. 0. 0. 0. 0. 0. 0. 0. 0. 0. 0. 0. 0.
      0. 0. 0. 0. 0. 0. 0. 0. 0. 0. 0. 0. 0. 0. 0. 0. 0. 0. 0. 0. 0. 0.
      3.33333351e-02 0. 0. 0. 0. 0. 0. 0. 0. 0. 0. 0. 0. 0. 0. 0. 0. 0.
      0. 0. 0. 0. 0. 0. 0. 0. 0. 0. 0. 0. 0. 0. 0. 0. 3.33333351e-02 0.
      0. 0. 0. 0. 0. 3.33333351e-02 0. 0. 0. 0. 0. 0. 0. 0. 0. 0. 0. 0.
      0. 0. 0. 0. 0. 0. 0. 0. 0. 0. 0. 0. 0. 0. 0. 0. 0. 0. 0. 0. 0. 0.
      0. 0. 0. 0. 0. 0. 0. 0. 0. 3.33333351e-02 3.33333351e-02 0. 0. 0.
      0. 0. 0. 0. 0. 0. 0. 0. 0. 0. 0. 0. 0. 0. 0. 0. 0. 0. 0. 0. 0. 0.
      0. 0. 0. 0. 0. 0. 3.33333351e-02 0. 0. 0. 0. 0. 0. 0. 0. 0. 0. 0.
      0. 0. 0. 0. 0. 0. 0. 0. 0. 0. 0. 0. 0. 0. 0. 0. 0. 0. 0.
      3.33333351e-02 0. 0. 0. 0. 0. 0. 0. 0. 0. 0. 0. 0. 0. 0. 0. 0. 0.
      0. 0. 0. 0. 0. 0. 0. 0. 0. 0. 0. 0. 0. 0. 0. 0. 0. 0. 0. 0. 0. 0.
      0. 0. 0. 0. 0. 3.33333351e-02 0. 0. 0. 0. 0. 0. 0. 0. 0. 0. 0. 0.
      0. 0. 0. 0. 0. 0. 3.33333351e-02 0. 0. 0. 0. 0. 0. 0. 0. 0. 0. 0.
      3.33333351e-02 0. 0. 0. 0. 0. 0. 3.33333351e-02 0. 0.
      3.33333351e-02 0. 0. 3.33333351e-02 0. 0. 0. 0. 0. 0.
      3.33333351e-02 3.33333351e-02 0. 0. 0. 0. 0. 0. 0. 0. 0. 0. 0.
      3.33333351e-02 0. 0. 0. 3.33333351e-02 0. 0. 0. 0. 0. 0. 0. 0.
      1.33333340e-01 0. 0. 0. 0. 0. 0. 0. 3.33333351e-02 0. 0. 0. 0. 0.
      0. 0. 0. 0. 0. 0. 0. 0. 3.33333351e-02 0. 0. 0. 0. 0. 0. 0. 0. 0.
      0. 0. 0. 0. 0. 0. 0. 0. 0. 0. 0. 0. 0. 0. 0. 0. 0. 0. 0. 0. 0. 0.
      0. 0. 0. 0. 0. 0. 0. 0. 0. 0. 0. 0. 0. 0. 0. 0. 0. 0. 0. 0. 0. 0.
      0. 0. 0. 0. 3.33333351e-02 0. 0. 0. 0. 0. 0. 0. 0. 0. 0.</_>
    <_>
      4.54545468e-02 0. 0. 0. 0. 0. 0. 0. 0. 0. 0. 0. 0. 0. 0. 0. 0. 0.
      0. 0. 0. 0. 0. 0. 0. 0. 0. 0. 0. 0. 0. 0. 0. 4.54545468e-02 0. 0.
      0. 0. 0. 0. 0. 0. 0. 0. 0. 0. 0. 0. 0. 0. 0. 0. 0. 0. 0. 0. 0. 0.
      0. 0. 0. 0. 0. 0. 0. 0. 0. 0. 0. 0. 4.54545468e-02 0. 0. 0. 0. 0.
      0. 0. 0. 0. 0. 0. 0. 0. 0. 0. 0. 0. 4.54545468e-02 0.
      4.54545468e-02 0. 0. 0. 0. 0. 0. 0. 0. 0. 0. 0. 0. 4.54545468e-02
      0. 0. 0. 0. 0. 0. 0. 0. 0. 0. 0. 0. 0. 0. 0. 0. 0. 0. 0. 0. 0. 0.
      0. 0. 0. 0. 0. 0. 0. 0. 0. 0. 0. 0. 0. 0. 4.54545468e-02 0. 0. 0.
      0. 0. 4.54545468e-02 0. 0. 4.54545468e-02 0. 0. 0. 0. 0. 0. 0. 0.
      0. 0. 0. 0. 4.54545468e-02 0. 0. 0. 0. 0. 0. 0. 0. 0. 0. 0. 0. 0.
      0. 0. 0. 0. 0. 0. 0. 0. 0. 0. 0. 0. 0. 0. 0. 0. 0. 0. 0. 0. 0. 0.
      0. 0. 0. 0. 0. 0. 0. 0. 0. 0. 0. 0. 0. 0. 0. 0. 0. 0. 0. 0. 0. 0.
      0. 0. 0. 0. 0. 0. 0. 0. 0. 0. 0. 0. 0. 0. 0. 0. 0. 0. 0. 0.
      4.54545468e-02 0. 0. 0. 0. 0. 0. 0. 0. 0. 0. 0. 0. 0. 0. 0. 0. 0.
      0. 0. 0. 0. 0. 0. 0. 0. 0. 0. 0. 0. 0. 0. 0. 0. 0. 0. 0. 0. 0. 0.
      0. 0. 0. 0. 4.54545468e-02 0. 0. 0. 4.54545468e-02 0. 0. 0. 0. 0.
      0. 0. 0. 0. 0. 0. 4.54545468e-02 0. 0. 0. 0. 0. 4.54545468e-02 0.
      0. 0. 0. 0. 0. 0. 0. 0. 0. 0. 0. 0. 0. 0. 0. 0. 0. 0. 0. 0. 0. 0.
      0. 0. 0. 0. 0. 0. 0. 4.54545468e-02 0. 0. 0. 0. 0. 0. 0. 0. 0. 0.
      0. 0. 0. 0. 0. 0. 0. 0. 0. 0. 0. 0. 0. 0. 0. 0. 0. 0. 0. 0. 0. 0.
      4.54545468e-02 0. 0. 0. 0. 0. 0. 0. 0. 0. 0. 0. 0. 4.54545468e-02
      0. 0. 0. 0. 0. 0. 0. 0. 0. 0. 0. 0. 0. 0. 0. 0. 0. 0. 0. 0. 0. 0.
      0. 0. 0. 0. 0. 0. 0. 0. 0. 0. 0. 0. 0. 0. 0. 0. 0. 0. 0. 0. 0. 0.
      0. 0. 0. 0. 0. 0. 0. 0. 0. 0. 0. 0. 0. 0. 0. 0. 0. 0. 0. 0. 0. 0.
      0. 0. 0. 0. 0. 0. 0. 0. 0. 0. 0. 0. 0. 0. 0. 0. 0. 0. 0. 0. 0. 0.
      0. 0. 0. 0. 0. 0. 0. 0. 0. 0. 0. 0. 9.09090936e-02 0. 0. 0. 0. 0.
      0. 0. 0. 0. 4.54545468e-02 0. 0. 0. 4.54545468e-02 0. 0. 0. 0. 0.
      0. 0. 0. 0. 0. 0. 0. 0.</_>
    <_>
      0. 0. 0. 0. 0. 0. 0. 0. 0. 0. 0. 0. 1.33333340e-01 0. 0. 0. 0. 0.
      0. 0. 0. 0. 0. 0. 0. 0. 0. 6.66666701e-02 0. 6.66666701e-02 0. 0.
      0. 0. 0. 0. 0. 0. 0. 0. 0. 0. 0. 0. 0. 0. 0. 0. 0. 0. 0. 0. 0. 0.
      0. 0. 0. 0. 0. 0. 0. 0. 0. 0. 0. 0. 0. 0. 0. 0. 0. 0. 0. 0. 0.
      6.66666701e-02 0. 0. 0. 0. 0. 0. 0. 0. 0. 0. 0. 0. 0. 0. 0. 0. 0.
      0. 0. 0. 0. 0. 0. 0. 0. 0. 0. 0. 0. 0. 0. 0. 0. 0. 0. 0. 0. 0. 0.
      0. 0. 0. 0. 0. 0. 0. 0. 0. 0. 0. 0. 0. 0. 0. 0. 0. 0. 0. 0. 0. 0.
      0. 0. 0. 0. 0. 0. 0. 0. 0. 0. 0. 0. 0. 0. 0. 0. 0. 0. 0. 0. 0. 0.
      0. 0. 0. 0. 0. 0. 0. 0. 0. 0. 6.66666701e-02 0. 0. 0. 0. 0. 0. 0.
      0. 0. 0. 0. 0. 0. 0. 0. 0. 0. 0. 0. 0. 0. 0. 0. 0. 0. 0. 0. 0. 0.
      0. 0. 0. 0. 0. 0. 0. 0. 0. 0. 0. 0. 0. 0. 0. 0. 0. 0. 0. 0. 0. 0.
      0. 0. 0. 0. 0. 0. 0. 0. 0. 0. 0. 0. 0. 0. 0. 0. 0. 0. 0. 0. 0. 0.
      0. 0. 0. 0. 0. 0. 0. 0. 0. 0. 0. 0. 0. 0. 0. 0. 0. 0. 0. 0. 0. 0.
      0. 0. 0. 0. 0. 0. 0. 0. 0. 0. 0. 0. 0. 0. 0. 0. 0. 0. 0. 0. 0. 0.
      0. 0. 0. 0. 0. 0. 0. 0. 0. 0. 0. 0. 0. 0. 0. 0. 0. 0. 0. 0. 0. 0.
      0. 0. 0. 0. 0. 0. 0. 0. 0. 6.66666701e-02 0. 0. 0. 0. 0. 0. 0. 0.
      0. 0. 0. 6.66666701e-02 0. 0. 0. 6.66666701e-02 0. 0. 0. 0. 0. 0.
      0. 0. 0. 0. 0. 0. 0. 0. 0. 0. 0. 0. 0. 0. 0. 0. 0. 0. 0. 0.
      6.66666701e-02 0. 0. 0. 6.66666701e-02 0. 0. 0. 0. 0. 0. 0. 0. 0.
      0. 0. 0. 0. 0. 0. 0. 0. 0. 0. 0. 0. 0. 0. 0. 0. 0. 0. 0. 0. 0. 0.
      6.66666701e-02 0. 0. 0. 0. 0. 0. 0. 0. 0. 0. 0. 0. 0. 0. 0. 0. 0.
      0. 0. 0. 0. 0. 0. 0. 0. 0. 0. 0. 0. 0. 0. 0. 0. 0. 0. 0. 0. 0. 0.
      0. 0. 0. 0. 0. 0. 0. 0. 0. 0. 0. 0. 0. 0. 0. 0. 0. 0. 0.
      6.66666701e-02 0. 0. 0. 0. 0. 0. 0. 6.66666701e-02 0. 0. 0. 0. 0.
      0. 0. 0. 0. 0. 0. 0. 0. 0. 0. 0. 0. 0. 0. 0. 0. 0. 0. 0. 0. 0. 0.
      0. 0. 0. 0. 0. 6.66666701e-02 0. 0. 0. 0. 0. 0. 0. 0. 0. 0. 0. 0.
      0. 0.</_>
    <_>
      0. 0. 0. 0. 0. 0. 1.66666672e-01 0. 0. 0. 0. 0. 0. 0. 0. 0. 0. 0.
      0. 0. 0. 0. 0. 0. 0. 0. 0. 0. 0. 0. 0. 0. 0. 0. 0. 0. 0. 0. 0. 0.
      0. 0. 0. 0. 0. 0. 0. 0. 0. 0. 0. 0. 0. 0. 0. 0. 0. 4.16666679e-02
      0. 0. 0. 0. 0. 0. 0. 0. 0. 0. 4.16666679e-02 0. 0. 0. 0. 0. 0. 0.
      0. 0. 0. 0. 0. 0. 0. 0. 0. 0. 0. 0. 0. 0. 0. 0. 0. 0.
      4.16666679e-02 0. 0. 0. 0. 0. 0. 0. 0. 0. 0. 0. 0. 0. 0. 0. 0. 0.
      0. 0. 0. 0. 0. 0. 0. 0. 0. 0. 0. 0. 0. 4.16666679e-02 0. 0. 0. 0.
      0. 0. 0. 0. 0. 0. 0. 0. 0. 0. 0. 0. 0. 0. 0. 0. 0. 0. 0. 0. 0. 0.
      0. 0. 0. 0. 0. 0. 0. 0. 0. 0. 0. 0. 0. 0. 0. 0. 0. 0. 0. 0.
      4.16666679e-02 0. 0. 0. 0. 0. 0. 0. 0. 0. 0. 0. 0. 0. 0. 0. 0. 0.
      0. 0. 0. 0. 0. 0. 0. 0. 0. 0. 0. 0. 0. 0. 0. 0. 0. 0. 0. 0. 0. 0.
      0. 0. 0. 0. 0. 0. 0. 0. 0. 0. 0. 0. 0. 0. 0. 0. 0. 0. 0. 0. 0. 0.
      0. 0. 0. 0. 4.16666679e-02 0. 0. 0. 0. 0. 0. 0. 0. 0. 0.
      4.16666679e-02 0. 0. 0. 0. 0. 0. 0. 0. 0. 0. 8.33333358e-02 0. 0.
      0. 0. 0. 0. 0. 0. 0. 0. 0. 0. 0. 0. 0. 0. 0. 0. 0. 0. 0. 0. 0. 0.
      0. 0. 0. 0. 0. 0. 0. 0. 0. 0. 0. 0. 0. 0. 0. 0. 0. 0. 0. 0. 0. 0.
      0. 0. 0. 0. 0. 0. 0. 0. 0. 0. 0. 0. 0. 0. 0. 0. 0. 0. 0. 0. 0. 0.
      0. 0. 0. 0. 0. 0. 0. 0. 0. 0. 0. 0. 0. 0. 0. 0. 0. 0. 0. 0. 0. 0.
      0. 0. 0. 0. 0. 0. 0. 0. 0. 0. 0. 0. 0. 0. 0. 0. 0. 0. 0. 0. 0. 0.
      0. 0. 0. 0. 0. 0. 0. 0. 0. 0. 0. 0. 0. 0. 0. 0. 4.16666679e-02 0.
      0. 0. 0. 0. 0. 4.16666679e-02 0. 0. 0. 0. 0. 0. 0. 0. 0. 0. 0. 0.
      0. 0. 0. 0. 1.66666672e-01 0. 0. 0. 0. 0. 0. 0. 0. 0. 0. 0. 0. 0.
      0. 0. 0. 0. 0. 0. 0. 0. 4.16666679e-02 0. 0. 0. 0. 0.
      4.16666679e-02 0. 0. 0. 0. 4.16666679e-02 0. 0. 0. 0. 0. 0. 0. 0.
      0. 0. 0. 0. 0. 0. 0. 0. 0. 0. 0. 0. 0. 0. 0. 0. 0. 0.
      4.16666679e-02 0. 0. 0. 0. 0. 0. 0. 0. 0. 0. 0. 0. 0. 0. 0. 0. 0.
      0. 0. 0. 0. 0. 0. 0. 0. 0. 0. 0. 0. 0. 0. 0. 0. 0. 4.16666679e-02
      0. 0. 0.</_>
    <_>
      0. 0. 0. 0. 0. 0. 0. 0. 0. 0. 0. 3.84615399e-02 3.84615399e-02 0.
      0. 0. 0. 0. 0. 0. 0. 0. 0. 0. 0. 0. 0. 0. 0. 0. 0. 0. 0. 0. 0. 0.
      0. 0. 0. 0. 0. 0. 0. 0. 0. 0. 0. 0. 0. 0. 0. 7.69230798e-02 0. 0.
      0. 0. 0. 0. 0. 0. 0. 0. 3.84615399e-02 0. 0. 0. 0. 0. 0. 0. 0. 0.
      0. 0. 0. 0. 0. 0. 0. 0. 0. 0. 0. 0. 0. 0. 0. 0. 0. 0. 0. 0. 0. 0.
      3.84615399e-02 0. 0. 0. 0. 0. 0. 3.84615399e-02 0. 0. 0. 0.
      3.84615399e-02 0. 0. 0. 0. 0. 0. 3.84615399e-02 0. 0. 0. 0. 0. 0.
      0. 0. 0. 0. 0. 0. 0. 0. 3.84615399e-02 0. 0. 0. 0. 0. 0. 0. 0. 0.
      0. 0. 0. 0. 0. 0. 0. 0. 0. 0. 0. 0. 0. 0. 0. 0. 0. 0. 0. 0. 0. 0.
      0. 0. 0. 0. 0. 0. 0. 0. 0. 0. 3.84615399e-02 0. 3.84615399e-02 0.
      0. 0. 0. 0. 0. 0. 0. 0. 0. 0. 0. 0. 0. 0. 0. 0. 0. 0. 0. 0. 0. 0.
      0. 0. 0. 0. 3.84615399e-02 0. 0. 0. 0. 0. 0. 0. 0. 0. 0. 0. 0. 0.
      0. 0. 0. 0. 0. 0. 0. 0. 0. 0. 0. 0. 0. 0. 0. 0. 0. 0. 0. 0. 0. 0.
      0. 0. 3.84615399e-02 0. 0. 0. 0. 0. 3.84615399e-02 0. 0. 0. 0. 0.
      0. 0. 0. 0. 0. 0. 0. 0. 0. 0. 3.84615399e-02 0. 0. 0. 0. 0.
      3.84615399e-02 0. 0. 0. 0. 0. 0. 0. 3.84615399e-02 0. 0. 0. 0. 0.
      0. 0. 0. 0. 0. 0. 0. 0. 0. 0. 0. 0. 0. 0. 0. 0. 0. 0. 0. 0. 0. 0.
      0. 0. 0. 0. 0. 0. 0. 0. 0. 0. 0. 0. 0. 0. 0. 0. 0. 0. 0. 0. 0. 0.
      0. 0. 0. 0. 0. 0. 0. 0. 0. 0. 0. 0. 0. 0. 3.84615399e-02 0. 0. 0.
      0. 0. 0. 0. 0. 0. 0. 0. 0. 0. 0. 0. 0. 0. 0. 0. 0. 0. 0. 0. 0. 0.
      0. 0. 0. 0. 0. 0. 0. 0. 0. 0. 0. 0. 0. 0. 0. 0. 0. 0. 0. 0. 0. 0.
      0. 0. 0. 0. 0. 0. 3.84615399e-02 0. 0. 0. 0. 0. 0. 0. 0. 0. 0. 0.
      0. 0. 0. 0. 3.84615399e-02 0. 0. 0. 0. 0. 0. 0. 0. 0. 0. 0. 0. 0.
      0. 0. 0. 0. 0. 0. 0. 0. 0. 0. 0. 0. 0. 0. 0. 0. 3.84615399e-02 0.
      0. 0. 0. 0. 0. 0. 0. 0. 0. 0. 0. 0. 0. 3.84615399e-02 0. 0. 0. 0.
      3.84615399e-02 0. 0. 0. 0. 0. 0. 0. 0. 0. 0. 0. 0. 0. 0. 0. 0. 0.
      3.84615399e-02 0. 0. 0. 0. 0. 0. 0. 0. 0. 0. 0. 0. 0. 0. 0. 0. 0.
      0. 0. 0. 0. 0. 0. 0. 0. 0. 0. 0. 0. 0. 3.84615399e-02 0. 0. 0. 0.</_>
    <_>
      0. 0. 0. 0. 0. 0. 1.25000000e-01 0. 0. 0. 0. 0. 0. 0. 0. 0. 0. 0.
      0. 0. 0. 0. 0. 0. 0. 0. 0. 0. 0. 0. 0. 0. 0. 0. 0. 0. 0. 0. 0. 0.
      0. 0. 0. 0. 0. 0. 0. 0. 0. 0. 0. 3.12500000e-02 0. 0. 0. 0. 0. 0.
      0. 0. 0. 0. 0. 0. 0. 0. 0. 0. 6.25000000e-02 0. 0. 0. 0. 0.
      3.12500000e-02 3.12500000e-02 0. 0. 0. 0. 0. 0. 0. 0. 0. 0. 0. 0.
      0. 0. 0. 0. 0. 0. 0. 0. 0. 0. 0. 0. 0. 0. 0. 0. 0. 0. 0. 0. 0. 0.
      3.12500000e-02 0. 0. 0. 0. 0. 0. 0. 0. 0. 0. 0. 0. 0. 0. 0. 0. 0.
      0. 0. 0. 0. 0. 0. 0. 0. 0. 0. 0. 0. 0. 0. 0. 0. 3.12500000e-02 0.
      0. 0. 0. 0. 0. 0. 0. 0. 0. 0. 0. 0. 0. 0. 0. 0. 0. 0. 0. 0.
      3.12500000e-02 0. 0. 0. 0. 0. 0. 0. 0. 0. 0. 0. 0. 0. 0. 0. 0. 0.
      0. 0. 3.12500000e-02 0. 0. 0. 0. 0. 0. 0. 0. 0. 0. 0. 0. 0. 0. 0.
      0. 0. 0. 0. 3.12500000e-02 0. 0. 0. 0. 0. 0. 0. 0. 0. 0. 0. 0. 0.
      0. 0. 0. 0. 0. 0. 3.12500000e-02 0. 0. 0. 0. 0. 0. 0. 0. 0. 0. 0.
      0. 0. 0. 0. 0. 0. 0. 0. 0. 0. 0. 0. 0. 0. 0. 0. 0. 0. 0. 0. 0. 0.
      0. 0. 0. 0. 0. 0. 0. 0. 0. 0. 0. 3.12500000e-02 0. 0. 0. 0. 0. 0.
      0. 0. 0. 0. 0. 0. 0. 0. 0. 0. 0. 0. 0. 0. 0. 0. 0. 0. 0. 0. 0. 0.
      0. 3.12500000e-02 0. 0. 0. 0. 0. 0. 0. 0. 3.12500000e-02 0. 0. 0.
      0. 0. 0. 0. 0. 0. 0. 0. 0. 0. 3.12500000e-02 0. 0. 0. 0.
      3.12500000e-02 0. 0. 3.12500000e-02 0. 0. 0. 0. 0. 0. 0. 0. 0.
      3.12500000e-02 0. 0. 0. 0. 0. 0. 0. 0. 0. 0. 0. 0. 0. 0. 0. 0. 0.
      0. 0. 0. 3.12500000e-02 0. 0. 0. 0. 0. 0. 0. 0. 0. 0. 0. 0. 0.
      3.12500000e-02 0. 0. 0. 0. 0. 0. 0. 0. 0. 0. 0. 0. 0. 0.
      3.12500000e-02 0. 0. 0. 0. 0. 0. 0. 0. 0. 0. 0. 0. 0. 0. 0.
      3.12500000e-02 0. 0. 0. 0. 3.12500000e-02 0. 3.12500000e-02 0. 0.
      3.12500000e-02 0. 0. 0. 0. 0. 0. 0. 0. 0. 0. 0. 0. 0. 0. 0. 0. 0.
      0. 0. 0. 0. 0. 0. 0. 0. 0. 0. 0. 0. 0. 0. 0. 0. 0. 0. 0. 0. 0. 0.
      0. 0. 0. 0. 0. 0. 0. 0. 0. 0. 0. 0. 0. 0. 0. 0. 0. 0. 0. 0. 0. 0.
      0. 0. 0. 0. 3.12500000e-02 0. 0. 0. 0. 0. 0. 0. 0. 0. 0. 0. 0. 0.
      0. 0. 0. 0. 6.25000000e-02 0. 0. 0. 0. 0. 0. 0. 0. 0.</_>
    <_>
      0. 0. 0. 0. 0. 0. 0. 0. 0. 0. 0. 0. 0. 0. 0. 0. 0. 0. 0. 0. 0. 0.
      0. 0. 0. 0. 0. 0. 0. 0. 0. 0. 0. 0. 0. 0. 0. 0. 0. 0. 0. 0. 0. 0.
      0. 0. 0. 0. 0. 3.57142873e-02 0. 0. 0. 0. 0. 0. 0. 0. 0. 0. 0. 0.
      0. 0. 0. 0. 0. 0. 0. 0. 0. 0. 0. 0. 0. 7.14285746e-02 0. 0. 0. 0.
      0. 0. 0. 0. 0. 3.57142873e-02 0. 0. 3.57142873e-02 0. 0. 0. 0. 0.
      0. 0. 0. 0. 0. 0. 0. 0. 0. 0. 0. 0. 0. 0. 0. 0. 0. 0. 0. 0. 0. 0.
      0. 0. 0. 0. 0. 0. 0. 0. 0. 3.57142873e-02 0. 0. 0. 0. 0. 0. 0. 0.
      0. 0. 0. 0. 0. 0. 0. 0. 0. 0. 0. 0. 0. 0. 0. 0. 0. 0. 0. 0.
      3.57142873e-02 0. 0. 0. 0. 0. 0. 0. 0. 0. 0. 0. 0. 0. 0. 0. 0. 0.
      0. 0. 0. 0. 0. 0. 0. 0. 0. 0. 0. 0. 0. 0. 0. 0. 0. 0. 0. 0. 0. 0.
      0. 0. 0. 0. 0. 0. 0. 0. 0. 0. 0. 0. 0. 0. 0. 0. 0. 0. 0. 0. 0. 0.
      0. 0. 0. 0. 0. 0. 0. 0. 0. 0. 0. 0. 0. 0. 0. 0. 0. 0. 0. 0. 0. 0.
      0. 3.57142873e-02 0. 0. 0. 0. 0. 0. 0. 0. 0. 0. 0. 0. 0. 0. 0. 0.
      0. 0. 0. 0. 0. 0. 0. 0. 0. 3.57142873e-02 0. 0. 0. 0. 0. 0. 0. 0.
      0. 0. 0. 0. 0. 0. 0. 0. 0. 0. 0. 0. 0. 0. 0. 0. 0. 0. 0. 0. 0. 0.
      0. 0. 0. 0. 0. 0. 0. 0. 0. 0. 0. 0. 0. 0. 0. 3.57142873e-02 0. 0.
      0. 0. 0. 3.57142873e-02 0. 0. 0. 3.57142873e-02 0. 0. 0. 0. 0. 0.
      0. 0. 0. 0. 0. 0. 0. 0. 0. 3.57142873e-02 0. 0. 0. 0. 0. 0. 0. 0.
      0. 3.57142873e-02 3.57142873e-02 7.14285746e-02 0. 0. 0. 0. 0. 0.
      0. 0. 0. 0. 0. 0. 0. 0. 0. 0. 3.57142873e-02 0. 0. 0. 0. 0. 0. 0.
      0. 0. 0. 0. 0. 0. 0. 0. 0. 0. 0. 0. 0. 0. 0. 3.57142873e-02 0. 0.
      0. 0. 0. 0. 0. 0. 0. 0. 0. 0. 0. 0. 0. 0. 0. 0. 0. 0. 0. 0. 0.
      3.57142873e-02 0. 0. 0. 0. 0. 0. 0. 0. 0. 0. 0. 0. 0. 0. 0. 0. 0.
      0. 0. 0. 3.57142873e-02 0. 0. 0. 3.57142873e-02 0. 0.
      3.57142873e-02 0. 0. 0. 0. 0. 0. 0. 0. 0. 0. 0. 0. 0. 0. 0. 0. 0.
      0. 0. 0. 0. 0. 0. 0. 0. 0. 3.57142873e-02 0. 0. 3.57142873e-02 0.
      0. 0. 0. 0. 0. 0. 3.57142873e-02 0. 0. 0. 0. 0. 0. 0. 0. 0. 0. 0.
      0. 0. 0. 0. 3.57142873e-02 0. 3.57142873e-02 0. 0. 0. 0. 0. 0. 0.
      0. 0. 0. 0. 0. 0. 0.</_>
    <_>
      0. 0. 0. 0. 0. 0. 0. 0. 0. 0. 0. 0. 0. 0. 0. 5.26315793e-02 0. 0.
      0. 0. 5.26315793e-02 0. 0. 0. 0. 0. 0. 5.26315793e-02 0. 0. 0. 0.
      0. 0. 0. 0. 0. 0. 0. 0. 0. 0. 0. 0. 0. 0. 5.26315793e-02 0. 0. 0.
      0. 0. 0. 0. 0. 0. 0. 0. 0. 0. 0. 0. 0. 0. 5.26315793e-02 0. 0. 0.
      0. 0. 0. 0. 0. 0. 0. 0. 0. 0. 0. 0. 0. 0. 5.26315793e-02 0. 0. 0.
      0. 0. 0. 0. 0. 0. 0. 0. 0. 0. 0. 0. 0. 0. 0. 0. 0. 0. 0. 0. 0. 0.
      0. 0. 0. 0. 0. 0. 0. 0. 0. 0. 5.26315793e-02 0. 0. 0. 0.
      5.26315793e-02 0. 0. 0. 0. 0. 0. 0. 0. 0. 0. 0. 0. 0. 0. 0. 0. 0.
      0. 0. 0. 0. 0. 0. 0. 0. 0. 0. 0. 0. 0. 0. 0. 0. 0. 0. 0. 0. 0. 0.
      0. 0. 0. 0. 0. 0. 0. 0. 0. 0. 0. 0. 0. 0. 0. 0. 0. 0. 0. 0. 0. 0.
      0. 0. 0. 0. 0. 0. 0. 0. 0. 0. 0. 0. 0. 0. 0. 0. 0. 0. 0. 0. 0. 0.
      0. 0. 0. 0. 0. 0. 0. 0. 0. 0. 0. 0. 0. 0. 0. 0. 0. 0. 0. 0. 0. 0.
      0. 0. 0. 0. 0. 0. 0. 0. 0. 0. 0. 0. 0. 0. 0. 0. 0. 0. 0. 0. 0. 0.
      0. 0. 0. 0. 0. 0. 0. 0. 0. 0. 0. 0. 0. 0. 0. 0. 0. 0. 0.
      5.26315793e-02 0. 0. 0. 0. 0. 0. 0. 0. 0. 0. 0. 0. 0. 0. 0. 0. 0.
      5.26315793e-02 0. 0. 0. 0. 0. 0. 0. 0. 0. 0. 0. 0. 0. 0. 0. 0. 0.
      5.26315793e-02 0. 0. 0. 0. 0. 0. 0. 0. 0. 0. 0. 0. 0. 0. 0. 0. 0.
      0. 0. 0. 0. 5.26315793e-02 0. 0. 0. 0. 0. 0. 0. 0. 0. 0. 0. 0. 0.
      0. 0. 0. 0. 0. 5.26315793e-02 0. 0. 0. 0. 0. 0. 0. 0. 0. 0. 0. 0.
      0. 0. 0. 0. 0. 0. 0. 0. 0. 0. 1.05263159e-01 0. 0. 0. 0. 0. 0. 0.
      5.26315793e-02 0. 0. 0. 0. 0. 0. 0. 0. 0. 0. 0. 0. 0. 0. 0. 0. 0.
      0. 0. 0. 0. 0. 0. 0. 0. 0. 0. 0. 0. 0. 0. 0. 0. 0. 0. 0. 0. 0. 0.
      0. 0. 0. 5.26315793e-02 5.26315793e-02 0. 0. 0. 0. 0. 0. 0. 0. 0.
      0. 0. 0. 0. 0. 0. 0. 0. 0. 0. 0. 0. 0. 0. 0. 0. 0. 0. 0. 0. 0. 0.
      5.26315793e-02 0. 0. 0. 0. 0. 0. 0. 0. 0. 0. 0. 0. 0. 0. 0. 0. 0.
      0. 0. 0. 0. 0. 0. 0. 0. 0. 0. 0. 0. 0. 0. 0. 0. 0. 0. 0. 0. 0. 0.
      0. 0. 0. 0. 0. 0. 0. 0. 0. 0. 0. 0. 0. 0. 0. 0. 0. 0.</_>
    <_>
      0. 0. 0. 0. 0. 0. 5.81395365e-02 0. 0. 0. 0. 0. 0. 0.
      1.16279069e-02 1.16279069e-02 0. 0. 2.32558139e-02 0. 0.
      1.16279069e-02 0. 0. 0. 1.16279069e-02 0. 1.16279069e-02 0. 0. 0.
      0. 1.16279069e-02 0. 0. 0. 1.16279069e-02 0. 0. 0. 0. 0. 0. 0. 0.
      0. 0. 0. 0. 0. 1.16279069e-02 0. 1.16279069e-02 0. 0. 0. 0. 0.
      3.48837227e-02 0. 0. 2.32558139e-02 1.16279069e-02 0. 0. 0. 0. 0.
      2.32558139e-02 0. 0. 0. 0. 1.16279069e-02 0. 0. 0. 0. 0. 0.
      1.16279069e-02 0. 0. 0. 0. 0. 0. 0. 0. 1.16279069e-02 0. 0. 0.
      1.16279069e-02 0. 0. 1.16279069e-02 0. 0. 0. 0. 0. 0.
      1.16279069e-02 0. 0. 0. 0. 0. 0. 0. 0. 0. 1.16279069e-02 0.
      1.16279069e-02 0. 0. 0. 1.16279069e-02 0. 0. 0. 1.16279069e-02 0.
      0. 0. 0. 0. 0. 0. 0. 0. 0. 0. 0. 0. 0. 0. 1.16279069e-02 0. 0.
      1.16279069e-02 0. 0. 0. 0. 0. 1.16279069e-02 0. 0. 0. 0. 0. 0.
      1.16279069e-02 0. 0. 0. 0. 0. 0. 0. 0. 0. 0. 1.16279069e-02 0. 0.
      0. 2.32558139e-02 0. 1.16279069e-02 0. 0. 0. 0. 0. 1.16279069e-02
      0. 0. 0. 0. 0. 0. 0. 0. 0. 0. 0. 0. 0. 0. 0. 1.16279069e-02 0.
      1.16279069e-02 0. 1.16279069e-02 0. 0. 0. 0. 0. 0. 0. 0. 0.
      1.16279069e-02 0. 0. 0. 1.16279069e-02 0. 0. 0. 3.48837227e-02 0.
      0. 0. 1.16279069e-02 0. 0. 0. 0. 0. 0. 0. 0. 0. 0. 0. 0. 0. 0. 0.
      0. 0. 0. 0. 0. 0. 0. 0. 1.16279069e-02 0. 0. 0. 0. 0. 0. 0. 0. 0.
      0. 0. 0. 0. 0. 0. 0. 1.16279069e-02 0. 0. 0. 0. 0. 1.16279069e-02
      0. 2.32558139e-02 0. 0. 0. 1.16279069e-02 0. 0. 1.16279069e-02 0.
      0. 0. 0. 0. 1.16279069e-02 0. 0. 0. 0. 0. 0. 0. 0. 0. 0. 0. 0. 0.
      1.16279069e-02 0. 0. 0. 0. 0. 0. 0. 1.16279069e-02 0. 0. 0. 0. 0.
      0. 0. 0. 1.16279069e-02 0. 0. 0. 0. 0. 1.16279069e-02 0.
      1.16279069e-02 0. 0. 0. 0. 0. 0. 0. 0. 0. 0. 0. 1.16279069e-02
      1.16279069e-02 0. 0. 0. 0. 0. 0. 0. 1.16279069e-02 0. 0. 0.
      1.16279069e-02 0. 0. 0. 0. 0. 0. 0. 0. 0. 0. 0. 0. 1.16279069e-02
      0. 0. 0. 0. 0. 0. 0. 0. 0. 1.16279069e-02 0. 0. 0. 0. 0. 0. 0. 0.
      0. 0. 0. 0. 0. 0. 0. 0. 0. 0. 0. 0. 0. 0. 0. 1.16279069e-02 0. 0.
      0. 0. 0. 0. 0. 0. 1.16279069e-02 0. 0. 0. 1.16279069e-02 0. 0.
      1.16279069e-02 0. 0. 0. 0. 0. 0. 1.16279069e-02 0. 0. 0. 0. 0. 0.
      0. 2.32558139e-02 0. 0. 0. 0. 0. 0. 0. 2.32558139e-02 0. 0. 0. 0.
      0. 0. 1.16279069e-02 0. 0. 0. 0. 0. 0. 1.16279069e-02 0. 0. 0. 0.
      0. 0. 0. 0. 0. 0. 0. 0. 0. 0. 0. 1.16279069e-02 0. 0.
      1.16279069e-02 0. 0. 0. 0. 0. 0. 0. 1.16279069e-02 0. 0. 0. 0.
      1.16279069e-02 0. 0. 0. 0. 0. 0. 0. 0. 0. 0. 0. 0. 0. 0. 0. 0. 0.
      0. 0. 0. 0. 0. 0. 0. 0. 0. 0. 0. 0. 0. 0. 0. 0.</_>
    <_>
      0. 0. 0. 0. 0. 0. 0. 0. 0. 0. 0. 0. 0. 0. 0. 0. 0. 0. 0. 0. 0. 0.
      0. 0. 0. 0. 0. 0. 0. 0. 0. 0. 0. 0. 0. 0. 0. 0. 0. 0. 0. 0. 0. 0.
      0. 0. 0. 0. 0. 0. 0. 0. 0. 0. 3.33333351e-02 0. 0. 0. 0. 0. 0. 0.
      0. 0. 0. 0. 0. 0. 0. 0. 0. 0. 0. 0. 0. 0. 0. 0. 0. 0. 0. 0. 0. 0.
      0. 0. 0. 0. 0. 0. 0. 0. 0. 0. 0. 0. 0. 0. 0. 0. 0. 3.33333351e-02
      0. 0. 0. 0. 0. 0. 0. 3.33333351e-02 0. 0. 0. 0. 0. 3.33333351e-02
      0. 0. 0. 0. 0. 0. 0. 0. 0. 0. 0. 0. 0. 0. 0. 3.33333351e-02 0. 0.
      0. 0. 0. 0. 0. 0. 0. 0. 0. 6.66666701e-02 0. 0. 0. 0. 0.
      3.33333351e-02 0. 0. 0. 0. 0. 0. 0. 0. 0. 0. 0. 0. 3.33333351e-02
      0. 0. 0. 6.66666701e-02 0. 0. 0. 1.00000001e-01 0. 0. 0. 0. 0. 0.
      0. 0. 0. 0. 0. 0. 0. 0. 0. 0. 0. 0. 0. 3.33333351e-02 0. 0. 0. 0.
      0. 0. 0. 0. 0. 0. 0. 0. 0. 0. 0. 0. 0. 0. 0. 0. 0. 0. 0. 0. 0. 0.
      0. 0. 0. 0. 0. 0. 0. 0. 0. 0. 0. 0. 0. 0. 0. 0. 0. 0. 0. 0. 0. 0.
      0. 3.33333351e-02 0. 0. 0. 0. 0. 0. 0. 0. 0. 0. 0. 0. 0.
      3.33333351e-02 0. 0. 0. 3.33333351e-02 0. 0. 0. 3.33333351e-02 0.
      0. 0. 0. 0. 0. 0. 0. 0. 0. 0. 0. 0. 0. 0. 0. 0. 0. 0. 0. 0. 0. 0.
      0. 0. 0. 0. 0. 0. 0. 0. 0. 0. 0. 0. 0. 0. 0. 0. 0. 0. 0. 0. 0.
      3.33333351e-02 0. 0. 3.33333351e-02 0. 0. 0. 0. 0. 0. 0. 0. 0. 0.
      0. 0. 0. 0. 0. 0. 0. 0. 0. 0. 0. 0. 0. 0. 0. 0. 3.33333351e-02 0.
      0. 0. 0. 3.33333351e-02 0. 0. 0. 0. 0. 0. 0. 0. 0. 0. 0. 0. 0. 0.
      0. 0. 0. 0. 0. 0. 0. 0. 0. 3.33333351e-02 0. 0. 0. 0. 0. 0. 0. 0.
      0. 0. 0. 0. 0. 0. 0. 0. 0. 0. 0. 0. 0. 0. 0. 0. 0. 0. 0. 0. 0. 0.
      0. 0. 0. 0. 0. 0. 0. 0. 0. 0. 0. 0. 0. 0. 0. 0. 3.33333351e-02 0.
      0. 0. 0. 0. 0. 0. 0. 0. 0. 0. 0. 0. 0. 0. 0. 0. 0. 0. 0. 0. 0. 0.
      0. 3.33333351e-02 0. 0. 0. 0. 0. 0. 0. 0. 0. 0. 0. 0. 0. 0. 0. 0.
      0. 0. 0. 0. 3.33333351e-02 0. 0. 0. 0. 0. 0. 0. 3.33333351e-02 0.
      0. 0. 0. 0. 0. 0. 0. 0. 0. 0. 0. 0. 0. 0. 0. 0. 3.33333351e-02 0.
      0. 0. 0. 0. 0. 0. 3.33333351e-02 0. 0. 0. 0. 0. 0. 0. 0. 0. 0. 0.
      0. 0. 0. 0. 0. 0. 0.</_>
    <_>
      0. 0. 0. 0. 0. 0. 0. 0. 0. 0. 0. 0. 0. 0. 2.77777780e-02 0. 0. 0.
      0. 2.77777780e-02 0. 0. 0. 0. 0. 0. 0. 0. 0. 0. 0. 0.
      2.77777780e-02 2.77777780e-02 0. 0. 0. 0. 0. 2.77777780e-02 0. 0.
      0. 0. 0. 0. 5.55555560e-02 0. 0. 0. 0. 0. 0. 0. 0. 0. 0. 0. 0. 0.
      0. 0. 2.77777780e-02 0. 0. 0. 0. 0. 0. 0. 0. 0. 0. 0. 0. 0.
      5.55555560e-02 0. 0. 0. 0. 0. 0. 0. 0. 2.77777780e-02 0. 0. 0. 0.
      2.77777780e-02 0. 0. 0. 0. 0. 0. 0. 0. 0. 0. 0. 0. 0. 0. 0. 0. 0.
      0. 0. 0. 0. 0. 0. 0. 0. 0. 0. 0. 0. 0. 0. 0. 0. 0. 2.77777780e-02
      0. 0. 0. 0. 0. 0. 0. 2.77777780e-02 0. 0. 0. 0. 0. 0. 0. 0. 0.
      2.77777780e-02 0. 0. 0. 0. 2.77777780e-02 0. 0. 0. 0. 0. 0. 0. 0.
      0. 0. 0. 0. 0. 0. 0. 0. 0. 0. 0. 0. 0. 0. 0. 0. 0. 0. 0. 0. 0. 0.
      0. 0. 0. 0. 0. 0. 0. 0. 0. 0. 2.77777780e-02 0. 0. 0. 0. 0. 0. 0.
      0. 0. 0. 0. 0. 0. 0. 0. 0. 0. 0. 0. 0. 0. 0. 0. 0. 0. 0. 0. 0. 0.
      0. 0. 0. 0. 0. 0. 0. 0. 0. 0. 0. 0. 0. 0. 0. 0. 0. 0. 0.
      2.77777780e-02 0. 0. 0. 0. 0. 0. 2.77777780e-02 0. 0. 0. 0. 0. 0.
      0. 0. 2.77777780e-02 0. 0. 0. 2.77777780e-02 0. 0. 0. 0. 0. 0. 0.
      0. 0. 0. 0. 0. 0. 0. 0. 2.77777780e-02 0. 0. 0. 0. 0. 0. 0. 0. 0.
      0. 0. 0. 0. 0. 0. 0. 0. 0. 0. 0. 0. 0. 0. 0. 0. 0. 0. 0. 0. 0. 0.
      0. 0. 0. 0. 0. 0. 0. 0. 0. 0. 0. 5.55555560e-02 0. 0. 0. 0. 0. 0.
      2.77777780e-02 0. 0. 0. 0. 0. 0. 0. 0. 0. 0. 0. 0. 0. 0. 0. 0.
      2.77777780e-02 0. 0. 0. 0. 0. 0. 0. 2.77777780e-02 0. 0. 0. 0. 0.
      0. 0. 0. 0. 0. 0. 0. 0. 0. 0. 0. 0. 0. 0. 0. 0. 0. 0. 0. 0. 0. 0.
      2.77777780e-02 0. 0. 0. 0. 0. 0. 0. 0. 0. 0. 0. 0. 0. 0. 0. 0. 0.
      0. 0. 0. 0. 0. 0. 0. 0. 0. 0. 0. 0. 0. 0. 0. 0. 0. 0.
      5.55555560e-02 0. 0. 0. 0. 0. 0. 0. 0. 0. 0. 0. 0. 0. 0. 0. 0. 0.
      0. 0. 0. 0. 0. 0. 0. 0. 0. 0. 2.77777780e-02 0. 5.55555560e-02 0.
      0. 0. 0. 0. 0. 0. 0. 0. 0. 0. 0. 0. 0. 0. 0. 0. 0. 0. 0.
      2.77777780e-02 0. 0. 0. 2.77777780e-02 0. 0. 0. 2.77777780e-02 0.
      0. 0. 0. 0. 0. 0. 0. 0. 0. 0. 0. 0. 0. 0. 0. 0. 0. 0. 0. 0. 0. 0.
      0. 0. 0. 0. 0. 0. 0. 0. 0. 0. 0. 0. 0. 0. 0. 0.</_>
    <_>
      0. 3.12500000e-02 0. 0. 0. 0. 0. 0. 0. 0. 0. 0. 0. 0. 0. 0. 0. 0.
      0. 0. 0. 0. 0. 0. 0. 0. 0. 0. 0. 0. 0. 0. 6.25000000e-02 0. 0. 0.
      0. 0. 0. 0. 0. 0. 0. 0. 0. 0. 0. 0. 0. 0. 0. 0. 0. 0. 0. 0. 0. 0.
      0. 3.12500000e-02 0. 0. 0. 0. 0. 0. 3.12500000e-02 0. 0. 0. 0. 0.
      0. 0. 0. 6.25000000e-02 0. 0. 0. 0. 0. 3.12500000e-02 0. 0. 0. 0.
      0. 0. 0. 0. 0. 0. 0. 0. 0. 0. 0. 0. 0. 0. 0. 3.12500000e-02 0. 0.
      0. 0. 0. 0. 0. 0. 0. 0. 0. 0. 0. 0. 0. 0. 0. 0. 0. 0. 0.
      3.12500000e-02 0. 0. 6.25000000e-02 0. 0. 0. 0. 0. 0. 0.
      3.12500000e-02 0. 0. 0. 0. 0. 3.12500000e-02 0. 0. 0. 0. 0. 0. 0.
      0. 0. 0. 0. 0. 0. 0. 0. 0. 0. 0. 0. 0. 0. 0. 0. 0. 0. 0. 0. 0. 0.
      0. 0. 0. 0. 0. 0. 0. 0. 0. 0. 0. 0. 0. 0. 0. 0. 0. 0. 0. 0. 0. 0.
      0. 0. 0. 0. 0. 0. 0. 0. 0. 0. 0. 0. 0. 0. 0. 0. 0. 0. 0. 0. 0. 0.
      0. 0. 0. 0. 0. 0. 0. 0. 3.12500000e-02 0. 0. 0. 3.12500000e-02 0.
      0. 0. 0. 0. 0. 0. 0. 0. 0. 0. 0. 0. 0. 0. 0. 0. 0. 0. 0. 0. 0. 0.
      0. 0. 0. 0. 0. 0. 0. 0. 0. 0. 0. 0. 0. 0. 0. 6.25000000e-02 0. 0.
      0. 0. 0. 0. 0. 0. 0. 0. 0. 0. 0. 0. 0. 0. 0. 0. 0. 0. 0. 0. 0. 0.
      0. 0. 0. 0. 0. 0. 0. 0. 0. 0. 0. 0. 0. 0. 0. 0. 0. 0.
      3.12500000e-02 0. 3.12500000e-02 0. 0. 0. 0. 0. 0. 0. 0. 0. 0. 0.
      0. 0. 0. 0. 0. 0. 0. 0. 0. 0. 0. 0. 0. 0. 0. 0. 0. 0. 0. 0. 0. 0.
      0. 0. 3.12500000e-02 0. 0. 0. 0. 0. 0. 0. 0. 0. 0. 0. 0. 0. 0. 0.
      0. 3.12500000e-02 0. 0. 0. 0. 0. 0. 0. 0. 0. 0. 6.25000000e-02 0.
      0. 3.12500000e-02 0. 0. 0. 0. 0. 0. 0. 0. 0. 0. 0. 0. 0. 0. 0. 0.
      0. 0. 0. 0. 0. 3.12500000e-02 0. 0. 0. 0. 0. 0. 0. 0. 0. 0. 0. 0.
      0. 0. 0. 0. 0. 0. 0. 0. 0. 0. 0. 3.12500000e-02 3.12500000e-02 0.
      0. 0. 0. 0. 3.12500000e-02 0. 0. 0. 0. 0. 0. 0. 0. 0. 0. 0. 0. 0.
      0. 0. 0. 0. 0. 0. 0. 0. 0. 0. 0. 0. 0. 0. 0. 0. 0. 0. 0. 0. 0. 0.
      0. 0. 3.12500000e-02 0. 0. 0. 0. 0. 0. 0. 3.12500000e-02 0. 0. 0.
      0. 0. 0. 0. 0. 0. 0. 0. 0. 0. 0. 0. 0. 0. 0. 0. 0. 0. 0. 0. 0. 0.
      3.12500000e-02 0. 0. 0. 0. 0. 0. 0. 0. 0.</_>
    <_>
      0. 0. 0. 0. 0. 0. 9.52380970e-02 0. 0. 0. 0. 4.76190485e-02 0. 0.
      0. 0. 0. 0. 0. 4.76190485e-02 0. 0. 0. 0. 0. 0. 0. 9.52380970e-02
      0. 0. 0. 0. 4.76190485e-02 0. 0. 0. 0. 0. 0. 0. 0. 0. 0. 0. 0. 0.
      0. 0. 0. 0. 0. 0. 0. 0. 0. 0. 0. 0. 0. 0. 0. 0. 0. 0. 0. 0. 0. 0.
      0. 0. 0. 0. 0. 0. 0. 0. 0. 0. 0. 0. 4.76190485e-02 0. 0. 0. 0. 0.
      0. 0. 0. 0. 0. 0. 0. 0. 0. 0. 0. 0. 0. 0. 0. 0. 0. 0. 0. 0. 0. 0.
      0. 0. 0. 0. 0. 0. 0. 0. 0. 0. 0. 0. 0. 0. 0. 0. 0. 0. 0. 0. 0.
      4.76190485e-02 0. 0. 0. 0. 0. 0. 0. 0. 0. 0. 0. 0. 0. 0. 0. 0. 0.
      0. 0. 0. 0. 0. 0. 0. 0. 0. 0. 0. 0. 0. 0. 0. 0. 0. 0. 0. 0. 0. 0.
      0. 0. 0. 0. 0. 0. 0. 0. 0. 0. 0. 0. 0. 0. 0. 0. 0. 0. 0. 0. 0. 0.
      0. 0. 0. 0. 0. 0. 0. 0. 0. 0. 0. 0. 0. 0. 0. 0. 0. 0. 0. 0. 0. 0.
      0. 0. 0. 0. 0. 0. 0. 0. 0. 0. 0. 0. 0. 0. 0. 0. 0. 0. 0. 0. 0. 0.
      0. 0. 0. 0. 4.76190485e-02 0. 0. 0. 0. 0. 4.76190485e-02 0. 0. 0.
      0. 0. 0. 0. 0. 0. 0. 0. 0. 0. 0. 0. 0. 0. 0. 0. 0. 0. 0. 0. 0. 0.
      0. 0. 0. 0. 0. 0. 0. 0. 0. 0. 0. 0. 0. 0. 0. 0. 0. 0. 0. 0. 0. 0.
      0. 0. 0. 0. 0. 0. 0. 0. 0. 0. 0. 0. 0. 0. 0. 0. 0. 0. 0. 0. 0. 0.
      0. 0. 4.76190485e-02 0. 0. 0. 0. 0. 0. 0. 4.76190485e-02 0. 0. 0.
      0. 0. 0. 0. 0. 0. 0. 0. 0. 0. 0. 0. 0. 0. 0. 0. 0. 0.
      4.76190485e-02 0. 0. 4.76190485e-02 0. 0. 0. 0. 0. 0. 0. 0. 0. 0.
      0. 0. 0. 0. 0. 4.76190485e-02 4.76190485e-02 0. 0. 0. 0. 0. 0. 0.
      0. 0. 0. 0. 0. 0. 0. 0. 0. 0. 0. 0. 0. 0. 0. 0. 0. 0. 0. 0. 0. 0.
      0. 0. 0. 0. 0. 0. 0. 0. 0. 0. 0. 0. 0. 0. 4.76190485e-02 0. 0. 0.
      0. 0. 0. 0. 0. 0. 0. 0. 0. 0. 0. 0. 0. 0. 0. 0. 0. 0. 0. 0. 0. 0.
      0. 4.76190485e-02 0. 0. 0. 0. 0. 0. 0. 0. 0. 0. 0. 0. 0. 0. 0. 0.
      0. 0. 0. 0. 0. 0. 0. 0. 0. 0. 4.76190485e-02 0. 0. 0. 0. 0. 0. 0.
      0. 0. 0. 0. 0. 4.76190485e-02 0. 0. 0. 0. 0. 0. 0. 0. 0. 0. 0. 0.
      0. 0. 0. 0. 0. 0. 0. 0. 0. 0. 0. 0. 0. 0. 0. 0. 0. 0. 0. 0. 0.</_>
    <_>
      0. 0. 0. 0. 0. 0. 0. 0. 0. 0. 0. 0. 0. 0. 0. 0. 0. 0. 0. 0.
      7.69230798e-02 0. 0. 0. 0. 0. 0. 0. 0. 0. 0. 0. 0. 0. 0. 0. 0. 0.
      0. 0. 0. 0. 0. 0. 0. 0. 0. 0. 0. 0. 0. 0. 0. 0. 0. 0. 0. 0. 0. 0.
      0. 0. 0. 0. 0. 0. 0. 0. 0. 0. 0. 0. 0. 3.84615399e-02 0. 0. 0. 0.
      0. 0. 7.69230798e-02 0. 0. 0. 3.84615399e-02 0. 0. 0. 0. 0. 0. 0.
      0. 0. 0. 0. 0. 0. 0. 0. 0. 0. 0. 0. 3.84615399e-02 3.84615399e-02
      0. 0. 0. 0. 0. 0. 0. 0. 0. 0. 0. 0. 0. 3.84615399e-02 0. 0. 0. 0.
      0. 0. 0. 0. 0. 0. 0. 0. 0. 0. 0. 0. 0. 0. 0. 0. 0. 0. 0. 0. 0. 0.
      0. 0. 0. 0. 0. 0. 3.84615399e-02 0. 0. 0. 0. 0. 0. 0. 0. 0. 0. 0.
      0. 0. 0. 0. 0. 0. 0. 0. 0. 0. 0. 0. 3.84615399e-02 0. 0. 0. 0. 0.
      0. 0. 0. 0. 0. 0. 0. 0. 0. 3.84615399e-02 0. 0. 0. 0. 0. 0.
      3.84615399e-02 0. 0. 0. 0. 0. 0. 0. 0. 0. 0. 0. 0. 0. 0. 0. 0. 0.
      0. 0. 0. 0. 0. 0. 0. 0. 0. 0. 0. 0. 0. 0. 0. 0. 0. 0. 0. 0. 0. 0.
      0. 0. 0. 0. 0. 0. 0. 0. 0. 0. 0. 0. 0. 0. 3.84615399e-02 0. 0. 0.
      0. 3.84615399e-02 0. 0. 0. 0. 0. 0. 0. 0. 0. 0. 0. 0. 0. 0.
      3.84615399e-02 0. 0. 0. 0. 3.84615399e-02 0. 0. 0. 0. 0. 0. 0. 0.
      0. 0. 0. 0. 0. 0. 0. 0. 0. 0. 0. 0. 0. 0. 0. 0. 0. 0. 0. 0. 0. 0.
      0. 0. 0. 0. 0. 0. 0. 3.84615399e-02 0. 0. 0. 0. 0. 0. 0. 0. 0. 0.
      0. 0. 0. 0. 0. 0. 3.84615399e-02 0. 0. 0. 0. 0. 0. 0. 0. 0. 0. 0.
      0. 0. 0. 0. 0. 0. 0. 0. 0. 0. 0. 0. 0. 0. 0. 0. 0. 0. 0. 0. 0. 0.
      0. 3.84615399e-02 0. 0. 0. 0. 0. 0. 0. 3.84615399e-02 0. 0. 0. 0.
      0. 0. 0. 0. 0. 0. 0. 0. 0. 0. 0. 0. 0. 0. 0. 0. 0. 0. 0. 0. 0. 0.
      0. 0. 0. 0. 0. 0. 0. 0. 0. 0. 0. 0. 0. 0. 0. 0. 0. 0. 0. 0. 0. 0.
      0. 0. 0. 0. 0. 3.84615399e-02 3.84615399e-02 0. 0. 0. 0. 0. 0. 0.
      0. 0. 0. 0. 0. 0. 0. 0. 0. 0. 0. 0. 0. 3.84615399e-02 0. 0. 0. 0.
      0. 0. 0. 0. 0. 0. 0. 0. 0. 0. 0. 0. 0. 0. 0. 0. 0. 3.84615399e-02
      0. 0. 0. 0. 0. 0. 0. 0. 0. 0. 0. 0. 0. 0. 0. 0. 0. 0. 0. 0.
      3.84615399e-02 0. 0. 0. 0. 0. 0. 0. 0. 0. 0. 0. 0. 0. 0. 0. 0. 0.</_>
    <_>
      0. 0. 0. 0. 0. 0. 0. 0. 0. 0. 0. 0. 0. 0. 0. 0. 0. 0. 0. 0. 0. 0.
      0. 0. 0. 0. 0. 0. 0. 0. 0. 0. 0. 0. 0. 0. 0. 0. 0. 0. 0. 0. 0. 0.
      0. 0. 0. 0. 0. 0. 0. 0. 2.50000004e-02 2.50000004e-02 0. 0. 0. 0.
      0. 0. 0. 0. 0. 0. 0. 0. 0. 0. 0. 0. 0. 0. 0. 0. 0. 0. 0. 0. 0. 0.
      0. 0. 0. 0. 0. 0. 0. 0. 0. 0. 0. 0. 0. 0. 0. 0. 0. 0. 0. 0. 0. 0.
      0. 0. 0. 0. 0. 0. 0. 0. 0. 0. 2.50000004e-02 0. 0. 0. 0.
      2.50000004e-02 0. 0. 0. 0. 0. 0. 0. 0. 0. 0. 0. 0. 0. 0. 0. 0. 0.
      0. 0. 0. 0. 0. 0. 0. 0. 0. 0. 2.50000004e-02 0. 2.50000004e-02 0.
      2.50000004e-02 0. 0. 0. 0. 1.00000001e-01 0. 0. 0. 0. 0. 0. 0. 0.
      0. 0. 0. 0. 0. 2.50000004e-02 0. 0. 0. 0. 0. 0. 0. 0. 0. 0. 0. 0.
      0. 2.50000004e-02 0. 0. 0. 0. 0. 0. 0. 0. 2.50000004e-02 0. 0. 0.
      0. 0. 0. 0. 0. 0. 0. 0. 0. 0. 0. 0. 0. 0. 0. 0. 0. 0. 0. 0. 0. 0.
      0. 0. 0. 0. 0. 0. 0. 0. 0. 0. 2.50000004e-02 0. 0. 0. 0. 0. 0. 0.
      0. 0. 0. 0. 0. 0. 0. 0. 0. 0. 0. 0. 0. 0. 0. 0. 0. 0. 0. 0. 0. 0.
      0. 0. 0. 0. 0. 0. 0. 0. 2.50000004e-02 0. 0. 0. 0. 0. 0. 0. 0. 0.
      0. 0. 0. 0. 0. 0. 0. 0. 0. 0. 0. 0. 0. 0. 0. 5.00000007e-02 0. 0.
      0. 0. 0. 2.50000004e-02 2.50000004e-02 0. 0. 0. 0. 0. 0. 0. 0. 0.
      0. 0. 0. 0. 0. 0. 0. 0. 0. 0. 0. 0. 0. 0. 0. 0. 0. 0. 0. 0. 0. 0.
      0. 0. 0. 0. 0. 0. 0. 0. 0. 0. 2.50000004e-02 0. 0. 0.
      2.50000004e-02 0. 0. 2.50000004e-02 0. 0. 0. 0. 0. 0. 0. 0.
      2.50000004e-02 0. 0. 0. 0. 0. 0. 0. 0. 0. 0. 0. 0. 0. 0. 0. 0. 0.
      0. 2.50000004e-02 0. 0. 0. 0. 0. 0. 0. 0. 0. 0. 0. 0. 0. 0. 0. 0.
      0. 0. 0. 0. 0. 5.00000007e-02 0. 0. 0. 0. 0. 0. 0. 0.
      2.50000004e-02 0. 0. 0. 0. 0. 0. 0. 0. 0. 0. 0. 0. 0. 0. 0. 0. 0.
      0. 2.50000004e-02 0. 0. 0. 0. 0. 0. 0. 2.50000004e-02 0. 0. 0. 0.
      0. 0. 0. 0. 5.00000007e-02 0. 0. 0. 0. 0. 0. 2.50000004e-02 0. 0.
      0. 0. 0. 0. 0. 0. 0. 2.50000004e-02 0. 0. 0. 0. 0. 0. 0. 0.
      2.50000004e-02 2.50000004e-02 0. 0. 0. 0. 0. 0. 0. 0. 0. 0. 0.
      5.00000007e-02 0. 0. 0. 0. 0. 0. 0. 0. 0. 0. 0. 0. 0. 0. 0. 0. 0.
      0. 0. 0. 0. 0. 0. 0. 0. 0. 2.50000004e-02 0. 2.50000004e-02 0. 0.</_>
    <_>
      0. 0. 0. 0. 2.38095243e-02 0. 0. 0. 0. 0. 0. 0. 0. 0.
      2.38095243e-02 0. 0. 0. 0. 0. 0. 0. 0. 0. 0. 0. 0. 0. 0. 0. 0. 0.
      0. 0. 0. 0. 0. 2.38095243e-02 2.38095243e-02 0. 0. 0. 0. 0. 0. 0.
      0. 0. 0. 0. 0. 0. 0. 0. 0. 0. 0. 0. 0. 0. 0. 2.38095243e-02 0. 0.
      0. 0. 2.38095243e-02 0. 0. 0. 0. 0. 0. 4.76190485e-02 0. 0.
      2.38095243e-02 0. 0. 0. 0. 0. 0. 0. 0. 0. 0. 0. 0. 0. 0. 0. 0.
      2.38095243e-02 0. 0. 0. 0. 0. 0. 0. 0. 0. 0. 0. 0. 0.
      2.38095243e-02 0. 0. 0. 0. 0. 0. 0. 0. 0. 0. 0. 0. 0. 0. 0. 0. 0.
      0. 0. 2.38095243e-02 2.38095243e-02 0. 0. 0. 0. 0. 0. 0. 0. 0. 0.
      0. 0. 0. 0. 0. 0. 0. 0. 0. 0. 0. 0. 0. 0. 0. 0. 0. 0. 0.
      2.38095243e-02 0. 0. 0. 0. 0. 0. 0. 0. 0. 0. 0. 0. 0. 0.
      2.38095243e-02 0. 0. 0. 0. 0. 0. 0. 0. 2.38095243e-02
      2.38095243e-02 0. 0. 0. 0. 0. 0. 0. 0. 0. 0. 0. 0. 2.38095243e-02
      0. 0. 0. 0. 0. 0. 0. 2.38095243e-02 0. 0. 0. 0. 0. 2.38095243e-02
      0. 0. 0. 0. 0. 0. 0. 0. 0. 0. 0. 0. 0. 0. 0. 0. 0. 0. 0. 0. 0. 0.
      0. 0. 2.38095243e-02 0. 0. 0. 0. 0. 2.38095243e-02 0. 0. 0. 0. 0.
      0. 0. 0. 0. 0. 0. 0. 0. 0. 0. 0. 0. 0. 0. 0. 0. 0. 0. 0. 0. 0. 0.
      0. 0. 0. 0. 0. 0. 0. 0. 0. 2.38095243e-02 0. 0. 0. 0.
      9.52380970e-02 0. 0. 0. 0. 0. 0. 0. 0. 0. 0. 0. 0. 0. 0. 0. 0. 0.
      0. 0. 0. 0. 0. 0. 0. 0. 0. 0. 0. 0. 0. 0. 0. 0. 0. 0.
      2.38095243e-02 0. 0. 0. 2.38095243e-02 0. 0. 0. 0. 0. 0. 0. 0. 0.
      0. 0. 2.38095243e-02 0. 0. 0. 0. 0. 0. 0. 0. 0. 0. 0. 0. 0. 0. 0.
      0. 0. 0. 0. 0. 0. 0. 0. 0. 0. 0. 0. 0. 0. 0. 0. 0. 0. 0. 0. 0. 0.
      0. 0. 0. 0. 0. 0. 0. 0. 0. 0. 0. 0. 0. 0. 0. 0. 0. 0. 0. 0. 0. 0.
      0. 0. 0. 0. 0. 0. 0. 0. 0. 0. 0. 0. 0. 0. 0. 0. 0. 2.38095243e-02
      0. 0. 0. 0. 0. 0. 0. 0. 0. 0. 0. 0. 0. 0. 0. 0. 0. 0. 0. 0. 0. 0.
      2.38095243e-02 0. 0. 0. 0. 0. 0. 0. 0. 0. 0. 0. 0. 0. 0. 0.
      2.38095243e-02 0. 0. 0. 2.38095243e-02 0. 0. 0. 0. 0. 0. 0. 0. 0.
      0. 0. 2.38095243e-02 2.38095243e-02 2.38095243e-02 4.76190485e-02
      0. 0. 0. 0. 0. 0. 0. 0. 0. 0. 0. 0. 2.38095243e-02 0. 0. 0. 0. 0.
      0. 0. 0. 0. 0. 0. 0. 0. 0. 0. 0. 0. 0. 0. 0. 0. 2.38095243e-02 0.
      0. 2.38095243e-02 0. 0. 0.</_>
    <_>
      0. 0. 0. 0. 0. 0. 0. 1.88679248e-02 0. 0. 0. 0. 0. 0. 0. 0. 0. 0.
      0. 0. 0. 1.88679248e-02 1.88679248e-02 0. 0. 0. 0. 0. 0. 0. 0. 0.
      0. 0. 0. 0. 0. 0. 0. 0. 0. 0. 0. 0. 0. 0. 1.88679248e-02 0. 0. 0.
      0. 0. 0. 0. 0. 0. 0. 0. 0. 0. 1.88679248e-02 0. 0. 0. 0.
      7.54716992e-02 0. 0. 0. 0. 0. 1.88679248e-02 0. 0. 0. 0. 0. 0. 0.
      0. 0. 0. 0. 0. 0. 0. 0. 0. 0. 0. 0. 0. 0. 0. 0. 1.88679248e-02 0.
      0. 0. 0. 0. 0. 0. 0. 0. 0. 1.88679248e-02 0. 0. 1.88679248e-02 0.
      0. 0. 1.88679248e-02 0. 0. 0. 0. 0. 0. 0. 0. 0. 0. 0. 0. 0. 0. 0.
      1.88679248e-02 0. 0. 0. 0. 0. 0. 0. 0. 0. 0. 0. 1.88679248e-02
      1.88679248e-02 0. 0. 0. 0. 0. 0. 0. 0. 0. 0. 0. 0. 0. 0. 0. 0. 0.
      0. 1.88679248e-02 1.88679248e-02 0. 0. 0. 0. 0. 0. 0. 0. 0. 0. 0.
      0. 0. 0. 0. 0. 0. 0. 1.88679248e-02 0. 0. 0. 0. 0. 0. 0. 0. 0. 0.
      0. 3.77358496e-02 0. 0. 0. 1.88679248e-02 0. 0. 0. 0. 0. 0. 0. 0.
      0. 0. 0. 0. 0. 0. 0. 0. 0. 0. 0. 0. 0. 0. 0. 0. 0. 0.
      1.88679248e-02 0. 0. 0. 1.88679248e-02 0. 0. 0. 0. 0.
      1.88679248e-02 0. 1.88679248e-02 0. 0. 0. 3.77358496e-02
      1.88679248e-02 1.88679248e-02 0. 0. 0. 0. 0. 0. 1.88679248e-02 0.
      0. 0. 0. 0. 0. 0. 0. 0. 0. 0. 0. 0. 0. 0. 0. 0. 0. 0. 0. 0. 0. 0.
      0. 0. 0. 0. 0. 0. 0. 0. 0. 0. 0. 0. 1.88679248e-02 0. 0. 0. 0. 0.
      0. 0. 0. 1.88679248e-02 0. 1.88679248e-02 0. 0. 0. 0. 0. 0. 0. 0.
      0. 0. 0. 0. 0. 0. 1.88679248e-02 0. 0. 0. 0. 0. 0. 1.88679248e-02
      0. 0. 0. 0. 0. 0. 0. 0. 0. 0. 0. 0. 0. 0. 0. 0. 1.88679248e-02 0.
      0. 0. 0. 0. 0. 0. 0. 0. 0. 0. 0. 1.88679248e-02 0. 0. 0. 0.
      1.88679248e-02 0. 0. 0. 0. 0. 0. 0. 0. 0. 0. 0. 0. 0. 0. 0. 0.
      5.66037744e-02 0. 0. 0. 0. 0. 0. 0. 1.88679248e-02 0. 0. 0. 0. 0.
      0. 0. 0. 0. 0. 0. 0. 0. 0. 1.88679248e-02 0. 0. 0. 0. 0.
      1.88679248e-02 0. 0. 0. 0. 0. 1.88679248e-02 0. 0. 0. 0. 0. 0. 0.
      0. 0. 0. 0. 0. 0. 0. 0. 0. 0. 0. 0. 0. 0. 0. 0. 0. 0. 0. 0. 0. 0.
      0. 0. 0. 0. 0. 0. 0. 0. 0. 0. 0. 0. 0. 0. 0. 0. 0. 0. 0. 0. 0. 0.
      0. 0. 0. 0. 1.88679248e-02 0. 0. 0. 0. 0. 0. 0. 0. 0.
      1.88679248e-02 0. 0. 0. 0. 1.88679248e-02 0. 0. 0. 0. 0. 0. 0. 0.
      0. 0. 0. 0. 1.88679248e-02 0. 0. 1.88679248e-02 0. 1.88679248e-02
      0. 0. 0. 0. 0. 0. 0. 0. 0. 0. 0. 0. 0. 0. 0. 0. 0.</_>
    <_>
      0. 0. 0. 0. 0. 0. 0. 0. 1.40845068e-02 0. 0. 1.40845068e-02 0. 0.
      1.40845068e-02 1.40845068e-02 0. 0. 0. 0. 0. 0. 0. 0. 0. 0. 0.
      1.40845068e-02 0. 0. 0. 0. 1.40845068e-02 0. 0. 0. 0. 0. 0. 0. 0.
      0. 0. 0. 0. 0. 0. 0. 0. 0. 0. 0. 0. 1.40845068e-02 0. 0. 0. 0. 0.
      1.40845068e-02 0. 0. 0. 0. 1.40845068e-02 0. 0. 0. 0. 0. 0.
      1.40845068e-02 0. 0. 1.40845068e-02 0. 1.40845068e-02 0. 0. 0.
      1.40845068e-02 0. 0. 0. 0. 0. 0. 0. 0. 0. 0. 1.40845068e-02 0. 0.
      0. 0. 0. 0. 0. 0. 0. 0. 0. 0. 0. 0. 0. 1.40845068e-02 0. 0. 0. 0.
      0. 0. 0. 0. 0. 0. 2.81690136e-02 0. 0. 0. 0. 0. 0. 0. 0. 0. 0. 0.
      0. 0. 0. 0. 0. 0. 0. 0. 0. 0. 0. 1.40845068e-02 0. 0. 0. 0. 0. 0.
      0. 0. 0. 0. 0. 0. 0. 0. 0. 0. 0. 0. 0. 0. 1.40845068e-02
      1.40845068e-02 1.40845068e-02 0. 0. 0. 0. 0. 0. 0. 0. 0. 0. 0. 0.
      0. 0. 0. 0. 0. 0. 0. 0. 0. 0. 0. 0. 0. 0. 0. 0. 0. 0. 0. 0.
      1.40845068e-02 1.40845068e-02 0. 0. 0. 0. 0. 1.40845068e-02 0. 0.
      1.40845068e-02 0. 0. 0. 0. 0. 0. 0. 0. 0. 0. 0. 0. 1.40845068e-02
      0. 0. 0. 0. 0. 0. 0. 0. 0. 0. 0. 0. 0. 0. 0. 0. 0. 0. 0.
      1.40845068e-02 0. 0. 0. 0. 1.40845068e-02 0. 1.40845068e-02
      1.40845068e-02 1.40845068e-02 0. 0. 0. 0. 0. 0. 1.40845068e-02
      1.40845068e-02 0. 0. 0. 0. 0. 0. 0. 0. 0. 0. 0. 0. 0. 0. 0. 0. 0.
      0. 0. 0. 1.40845068e-02 0. 0. 0. 0. 0. 1.40845068e-02
      1.40845068e-02 0. 0. 0. 0. 1.40845068e-02 1.40845068e-02
      1.40845068e-02 0. 0. 1.40845068e-02 0. 0. 0. 0. 4.22535203e-02 0.
      0. 0. 0. 0. 0. 0. 0. 0. 0. 0. 0. 0. 0. 0. 0. 0. 0. 0. 0. 0. 0.
      1.40845068e-02 0. 0. 0. 0. 0. 0. 0. 0. 0. 0. 0. 0. 0. 0. 0. 0. 0.
      0. 0. 0. 0. 1.40845068e-02 0. 0. 1.40845068e-02 0. 0. 0. 0. 0. 0.
      0. 0. 0. 0. 0. 0. 0. 0. 0. 0. 0. 1.40845068e-02 0. 0. 0. 0.
      2.81690136e-02 0. 0. 0. 0. 0. 0. 0. 0. 0. 2.81690136e-02 0. 0. 0.
      0. 0. 0. 0. 0. 0. 0. 0. 4.22535203e-02 0. 0. 0. 0. 0. 0. 0. 0. 0.
      1.40845068e-02 0. 0. 0. 1.40845068e-02 0. 0. 1.40845068e-02 0. 0.
      0. 0. 0. 0. 0. 0. 0. 0. 0. 0. 0. 0. 0. 4.22535203e-02
      1.40845068e-02 0. 1.40845068e-02 0. 0. 1.40845068e-02 0. 0. 0. 0.
      0. 0. 0. 0. 0. 1.40845068e-02 0. 0. 0. 0. 0. 0. 0. 0. 0.
      1.40845068e-02 0. 0. 0. 0. 0. 0. 0. 0. 0. 0. 0. 0. 0. 0.
      1.40845068e-02 0. 0. 0. 0. 0. 0. 0. 0. 0. 0. 0. 0. 0. 0. 0. 0. 0.
      1.40845068e-02 0. 0. 0. 0. 1.40845068e-02 0. 0. 0. 0. 0. 0. 0. 0.
      0. 0. 0. 0. 1.40845068e-02 0. 1.40845068e-02 0. 1.40845068e-02 0.
      0. 0. 0.</_>
    <_>
      0. 0. 0. 0. 0. 0. 0. 0. 0. 0. 0. 0. 0. 0. 0. 0. 0. 0. 0.
      2.12765951e-02 0. 0. 0. 0. 0. 0. 0. 0. 0. 0. 0. 0. 0.
      2.12765951e-02 0. 0. 0. 0. 0. 0. 0. 0. 0. 0. 0. 0. 0. 0.
      2.12765951e-02 0. 0. 0. 0. 0. 2.12765951e-02 0. 0. 0. 0.
      2.12765951e-02 0. 0. 2.12765951e-02 0. 0. 2.12765951e-02 0. 0. 0.
      0. 0. 0. 0. 0. 0. 2.12765951e-02 2.12765951e-02 0. 0. 0. 0. 0. 0.
      0. 0. 0. 0. 0. 0. 0. 0. 0. 0. 0. 0. 0. 0. 0. 0. 0. 0. 0. 0. 0. 0.
      0. 0. 2.12765951e-02 0. 2.12765951e-02 0. 2.12765951e-02 0. 0. 0.
      0. 0. 8.51063803e-02 0. 0. 0. 0. 0. 0. 0. 0. 0. 0. 2.12765951e-02
      0. 0. 0. 0. 0. 0. 0. 0. 0. 0. 0. 0. 2.12765951e-02 0. 0. 0. 0. 0.
      0. 0. 0. 0. 2.12765951e-02 0. 0. 0. 0. 0. 0. 0. 0. 0. 0.
      2.12765951e-02 0. 0. 2.12765951e-02 0. 2.12765951e-02 0. 0. 0. 0.
      0. 0. 0. 0. 0. 0. 2.12765951e-02 0. 0. 0. 0. 0. 0. 0. 0. 0.
      2.12765951e-02 0. 0. 0. 0. 0. 0. 0. 0. 0. 0. 2.12765951e-02 0. 0.
      0. 0. 0. 0. 0. 0. 0. 0. 0. 0. 0. 0. 0. 0. 0. 0. 0. 0. 0. 0. 0. 0.
      0. 0. 0. 0. 0. 0. 0. 0. 0. 0. 0. 0. 0. 0. 0. 0. 0. 0. 0. 0. 0. 0.
      0. 0. 0. 0. 0. 0. 0. 0. 0. 0. 0. 0. 0. 0. 4.25531901e-02 0. 0. 0.
      0. 0. 0. 0. 0. 0. 0. 0. 0. 0. 0. 0. 0. 0. 0. 0. 0. 0. 0.
      4.25531901e-02 0. 0. 0. 0. 0. 0. 0. 0. 0. 0. 0. 0. 0. 0. 0. 0. 0.
      0. 2.12765951e-02 0. 0. 0. 0. 0. 0. 0. 0. 0. 0. 0. 0. 0. 0. 0. 0.
      0. 0. 0. 0. 0. 0. 0. 0. 0. 0. 0. 0. 0. 0. 0. 0. 0. 0. 0. 0. 0. 0.
      0. 0. 0. 0. 0. 0. 0. 0. 0. 0. 0. 0. 0. 0. 0. 0. 0. 0. 0. 0. 0. 0.
      0. 0. 0. 2.12765951e-02 0. 0. 0. 2.12765951e-02 0. 0. 0. 0. 0. 0.
      0. 2.12765951e-02 0. 0. 0. 0. 0. 0. 0. 0. 2.12765951e-02 0. 0. 0.
      0. 0. 0. 0. 0. 0. 0. 0. 0. 0. 0. 0. 4.25531901e-02 0. 0. 0. 0. 0.
      0. 0. 0. 0. 8.51063803e-02 0. 0. 0. 0. 2.12765951e-02 0. 0.
      2.12765951e-02 0. 0. 0. 0. 0. 4.25531901e-02 0. 0. 0. 0. 0. 0. 0.
      0. 0. 0. 0. 0. 0. 0. 0. 0. 0. 0. 0. 0. 0. 0. 0. 0. 2.12765951e-02
      0. 0. 0. 0. 0. 0. 0. 0. 0. 0. 0. 2.12765951e-02 0. 0. 0. 0. 0. 0.
      0. 0. 0. 0. 0. 0. 0. 0. 0. 0. 0. 0. 2.12765951e-02 0. 0. 0. 0. 0.
      0. 0. 0. 0. 0. 0. 0. 0. 0. 0. 0. 0. 0. 0. 0. 0. 0. 0. 0. 0. 0. 0.
      0.</_>
    <_>
      0. 0. 0. 0. 0. 0. 0. 0. 0. 0. 0. 0. 2.38095243e-02 0.
      2.38095243e-02 0. 0. 0. 0. 0. 0. 0. 0. 0. 0. 0. 0. 2.38095243e-02
      0. 0. 0. 0. 2.38095243e-02 0. 0. 0. 0. 0. 0. 2.38095243e-02 0. 0.
      0. 0. 0. 0. 0. 0. 0. 0. 0. 0. 0. 2.38095243e-02 0. 0. 0. 0. 0. 0.
      0. 0. 0. 0. 0. 0. 0. 0. 0. 0. 0. 0. 0. 0. 0. 0. 2.38095243e-02 0.
      0. 0. 0. 0. 0. 0. 0. 0. 0. 0. 0. 0. 0. 0. 0. 0. 0. 0. 0. 0. 0. 0.
      0. 0. 0. 0. 0. 0. 0. 2.38095243e-02 0. 0. 0. 0. 0. 2.38095243e-02
      0. 0. 0. 0. 0. 0. 0. 0. 0. 0. 0. 0. 0. 0. 0. 0. 0. 0. 0. 0. 0. 0.
      0. 0. 0. 0. 0. 2.38095243e-02 0. 0. 0. 0. 0. 0. 0. 0. 0. 0. 0. 0.
      0. 0. 0. 0. 0. 0. 0. 0. 0. 0. 2.38095243e-02 0. 0. 0.
      2.38095243e-02 0. 0. 0. 0. 0. 0. 0. 0. 0. 0. 0. 0. 0. 0.
      2.38095243e-02 0. 0. 0. 0. 0. 0. 0. 0. 0. 0. 0. 0. 0. 0. 0. 0. 0.
      0. 0. 0. 0. 0. 0. 0. 0. 0. 0. 0. 0. 0. 0. 0. 0. 0. 0. 0. 0. 0. 0.
      0. 0. 0. 0. 0. 0. 0. 2.38095243e-02 0. 0. 0. 0. 0. 0. 0. 0. 0. 0.
      0. 0. 2.38095243e-02 0. 2.38095243e-02 0. 0. 0. 4.76190485e-02 0.
      2.38095243e-02 2.38095243e-02 0. 0. 0. 0. 0. 0. 0. 0. 0. 0. 0. 0.
      0. 0. 0. 0. 0. 0. 0. 0. 0. 0. 0. 0. 0. 0. 0. 0. 0. 0. 0. 0.
      2.38095243e-02 0. 0. 0. 0. 2.38095243e-02 2.38095243e-02 0. 0. 0.
      0. 0. 0. 0. 0. 2.38095243e-02 0. 0. 0. 0. 0. 0. 0. 0. 0. 0. 0. 0.
      0. 0. 0. 0. 0. 0. 0. 0. 0. 0. 0. 0. 0. 0. 0. 0. 0. 0. 0. 0. 0. 0.
      0. 0. 0. 2.38095243e-02 0. 0. 0. 0. 0. 0. 0. 0. 0. 2.38095243e-02
      0. 0. 0. 2.38095243e-02 0. 0. 0. 0. 0. 0. 0. 2.38095243e-02 0. 0.
      0. 0. 0. 2.38095243e-02 0. 0. 0. 0. 0. 2.38095243e-02 0. 0. 0. 0.
      0. 0. 0. 0. 4.76190485e-02 0. 0. 0. 0. 0. 0. 0. 0. 0. 0. 0. 0. 0.
      0. 0. 0. 0. 0. 0. 0. 0. 2.38095243e-02 0. 0. 0. 0. 0. 0.
      2.38095243e-02 0. 0. 0. 0. 0. 0. 0. 0. 0. 0. 0. 0. 0. 0. 0. 0.
      2.38095243e-02 0. 0. 0. 0. 0. 0. 0. 0. 0. 0. 0. 0. 0.
      2.38095243e-02 0. 0. 4.76190485e-02 0. 0. 0. 0. 0. 0. 0.
      2.38095243e-02 0. 0. 0. 0. 0. 0. 0. 0. 0. 0. 0. 0. 0. 0. 0. 0. 0.
      0. 0. 0. 0. 0. 0. 0. 0. 0. 0. 0. 0. 0. 0. 0. 2.38095243e-02 0. 0.
      0. 0. 0. 0. 0. 0. 0. 0. 0. 0. 0. 0. 0. 0. 0. 0. 0. 0. 0.
      2.38095243e-02 0. 0. 2.38095243e-02 0.</_>
    <_>
      0. 0. 0. 0. 0. 0. 2.63157897e-02 0. 0. 0. 0. 0. 0. 0. 0. 0. 0. 0.
      0. 0. 0. 0. 0. 0. 0. 0. 0. 0. 0. 2.63157897e-02 0. 0. 0. 0. 0.
      2.63157897e-02 0. 0. 0. 0. 0. 0. 0. 0. 0. 0. 0. 0. 0. 0. 0.
      2.63157897e-02 0. 0. 0. 0. 0. 0. 0. 5.26315793e-02 0. 0. 0. 0. 0.
      0. 0. 0. 5.26315793e-02 0. 0. 0. 0. 0. 0. 2.63157897e-02 0. 0. 0.
      0. 0. 0. 0. 0. 0. 0. 2.63157897e-02 0. 0. 0. 0. 0. 0.
      2.63157897e-02 0. 0. 0. 0. 0. 0. 0. 0. 0. 0. 0. 0. 0. 0. 0. 0. 0.
      0. 0. 0. 0. 0. 0. 0. 0. 0. 0. 0. 2.63157897e-02 0. 0. 0. 0. 0. 0.
      0. 0. 0. 0. 0. 0. 0. 0. 0. 0. 0. 0. 0. 0. 0. 0. 0. 0. 0. 0. 0. 0.
      0. 2.63157897e-02 0. 0. 0. 0. 0. 0. 0. 0. 0. 0. 0. 0. 0. 0. 0. 0.
      0. 2.63157897e-02 0. 0. 0. 0. 0. 0. 0. 0. 0. 0. 0. 0. 0. 0. 0. 0.
      0. 0. 0. 0. 0. 0. 0. 0. 0. 0. 0. 0. 0. 0. 0. 0. 0. 0. 0. 0. 0. 0.
      0. 0. 0. 0. 0. 0. 0. 2.63157897e-02 0. 0. 0. 0. 0. 0. 0. 0. 0. 0.
      0. 2.63157897e-02 0. 0. 0. 0. 0. 0. 0. 0. 0. 0. 0. 0. 0. 0. 0. 0.
      0. 0. 0. 0. 0. 0. 0. 0. 0. 2.63157897e-02 0. 0. 0. 0. 0. 0. 0. 0.
      0. 0. 2.63157897e-02 0. 0. 0. 0. 0. 5.26315793e-02 0. 0. 0. 0. 0.
      0. 0. 2.63157897e-02 0. 0. 0. 0. 0. 0. 0. 2.63157897e-02 0. 0. 0.
      0. 0. 0. 0. 0. 0. 2.63157897e-02 0. 0. 0. 0. 0. 0. 2.63157897e-02
      0. 0. 0. 0. 0. 5.26315793e-02 0. 0. 0. 0. 0. 0. 0. 0. 0. 0. 0. 0.
      0. 0. 0. 0. 0. 0. 0. 0. 0. 0. 0. 0. 0. 0. 0. 0. 0. 2.63157897e-02
      0. 0. 0. 0. 0. 0. 0. 0. 0. 0. 0. 0. 0. 0. 0. 2.63157897e-02 0. 0.
      0. 0. 0. 0. 0. 0. 0. 0. 2.63157897e-02 0. 0. 0. 0. 0. 0. 0. 0. 0.
      0. 0. 0. 0. 0. 0. 0. 0. 0. 0. 0. 0. 0. 0. 0. 0. 0. 0. 0. 0. 0. 0.
      0. 0. 0. 0. 0. 0. 0. 0. 0. 0. 0. 0. 5.26315793e-02 0.
      2.63157897e-02 0. 0. 0. 0. 0. 0. 0. 5.26315793e-02 0. 0. 0. 0. 0.
      0. 0. 0. 0. 0. 0. 0. 0. 0. 0. 0. 0. 0. 0. 0. 0. 0. 0. 0. 0. 0. 0.
      0. 0. 0. 0. 0. 0. 0. 0. 0. 0. 0. 2.63157897e-02 0. 2.63157897e-02
      0. 0. 0. 0. 0. 0. 0. 0. 0. 0. 0. 0. 0. 0. 0. 0. 0. 0. 0. 0. 0. 0.
      0. 0. 0. 0. 0. 2.63157897e-02 0. 0. 0. 0. 0. 0. 0. 0. 0. 0. 0.
      2.63157897e-02 0. 0. 0. 0. 0. 0. 0. 0. 0.</_>
    <_>
      0. 0. 0. 0. 0. 1.85185187e-02 0. 0. 0. 0. 0. 0. 0. 0. 0. 0. 0. 0.
      0. 0. 0. 0. 0. 0. 1.85185187e-02 0. 0. 0. 1.85185187e-02 0. 0. 0.
      0. 0. 0. 0. 0. 0. 0. 1.85185187e-02 0. 0. 0. 0. 0. 0. 0. 0. 0. 0.
      0. 0. 1.85185187e-02 0. 0. 0. 0. 0. 0. 0. 0. 0. 0. 1.85185187e-02
      0. 0. 0. 0. 0. 0. 0. 0. 0. 1.85185187e-02 0. 0. 0. 0. 0. 0. 0. 0.
      0. 0. 0. 1.85185187e-02 1.85185187e-02 0. 0. 0. 0. 0. 0. 0. 0. 0.
      0. 0. 0. 0. 0. 0. 0. 0. 0. 0. 0. 0. 0. 0. 0. 0. 0. 1.85185187e-02
      0. 1.85185187e-02 0. 1.85185187e-02 0. 0. 0. 0. 0. 0. 0. 0. 0. 0.
      0. 0. 0. 0. 0. 0. 0. 1.85185187e-02 0. 0. 0. 0. 0. 0. 0. 0.
      1.85185187e-02 0. 0. 0. 0. 0. 0. 0. 0. 0. 3.70370373e-02 0. 0. 0.
      0. 0. 0. 0. 0. 1.85185187e-02 0. 0. 0. 0. 0. 0. 0. 0. 0. 0. 0. 0.
      0. 5.55555560e-02 0. 0. 0. 0. 0. 0. 0. 0. 0. 0. 0. 0. 0. 0. 0. 0.
      0. 0. 0. 0. 0. 0. 0. 0. 0. 0. 0. 0. 0. 0. 0. 0. 0. 0. 0. 0. 0. 0.
      1.85185187e-02 0. 0. 0. 0. 0. 0. 0. 0. 0. 1.85185187e-02 0. 0. 0.
      0. 0. 1.85185187e-02 0. 0. 0. 0. 0. 1.85185187e-02 0. 0. 0. 0. 0.
      0. 0. 1.85185187e-02 0. 1.85185187e-02 0. 0. 0. 0. 0. 0. 0. 0. 0.
      1.85185187e-02 0. 0. 0. 0. 0. 0. 0. 0. 0. 3.70370373e-02 0. 0. 0.
      0. 0. 0. 0. 0. 0. 0. 0. 0. 0. 0. 1.85185187e-02 0. 0. 0. 0. 0.
      1.85185187e-02 0. 0. 0. 0. 0. 0. 0. 1.85185187e-02 0. 0. 0. 0. 0.
      0. 0. 0. 0. 0. 0. 0. 0. 0. 0. 0. 0. 0. 1.85185187e-02 0. 0. 0. 0.
      0. 0. 0. 0. 0. 0. 0. 0. 3.70370373e-02 0. 0. 0. 0. 0. 0. 0. 0. 0.
      0. 0. 0. 0. 0. 0. 1.85185187e-02 0. 1.85185187e-02 0.
      1.85185187e-02 0. 0. 0. 0. 0. 0. 0. 0. 0. 0. 0. 0. 1.85185187e-02
      1.85185187e-02 0. 0. 0. 0. 0. 3.70370373e-02 0. 0. 0.
      1.85185187e-02 0. 0. 0. 0. 0. 0. 0. 0. 0. 0. 0. 0. 0. 0. 0. 0. 0.
      0. 0. 0. 0. 0. 0. 0. 0. 0. 0. 0. 0. 1.85185187e-02 0. 0. 0. 0.
      3.70370373e-02 0. 0. 0. 0. 0. 0. 0. 0. 0. 0. 0. 0. 0. 0. 0. 0.
      1.85185187e-02 1.85185187e-02 0. 0. 0. 0. 0. 0. 0. 0.
      1.85185187e-02 0. 0. 0. 0. 0. 0. 0. 0. 0. 0. 1.85185187e-02 0. 0.
      0. 0. 0. 0. 0. 0. 0. 0. 1.85185187e-02 0. 0. 0. 0. 0. 0. 0. 0. 0.
      0. 0. 0. 0. 0. 0. 0. 0. 0. 0. 0. 0. 0. 1.85185187e-02 0. 0. 0. 0.
      0. 0. 0. 0. 0. 0. 0. 0. 0. 0. 0. 0. 0. 0. 0. 0. 0. 1.85185187e-02
      0. 0. 0. 0. 0. 0. 1.85185187e-02 0. 0.</_>
    <_>
      0. 0. 0. 0. 0. 0. 0. 0. 0. 2.08333340e-02 2.08333340e-02
      4.16666679e-02 0. 0. 0. 0. 0. 0. 0. 0. 0. 0. 0. 0. 0. 0. 0.
      2.08333340e-02 0. 0. 0. 0. 0. 0. 0. 0. 0. 2.08333340e-02 0. 0. 0.
      0. 0. 0. 0. 0. 0. 0. 2.08333340e-02 0. 0. 0. 0. 0. 0. 0. 0. 0. 0.
      0. 0. 0. 0. 0. 0. 0. 0. 0. 0. 0. 0. 0. 0. 0. 6.25000000e-02 0. 0.
      0. 0. 0. 0. 0. 0. 0. 0. 0. 0. 0. 2.08333340e-02 0. 0. 0.
      2.08333340e-02 0. 0. 0. 2.08333340e-02 0. 0. 0. 0. 0. 0. 0. 0. 0.
      0. 0. 0. 0. 0. 0. 0. 0. 0. 0. 0. 0. 0. 2.08333340e-02 0. 0. 0. 0.
      0. 0. 0. 0. 0. 0. 0. 2.08333340e-02 0. 0. 0. 2.08333340e-02 0. 0.
      0. 2.08333340e-02 0. 0. 0. 0. 2.08333340e-02 2.08333340e-02 0. 0.
      0. 0. 0. 0. 0. 0. 0. 0. 0. 0. 0. 0. 0. 0. 0. 0. 0. 0. 0. 0. 0. 0.
      0. 0. 0. 0. 0. 0. 0. 0. 0. 0. 0. 0. 0. 0. 0. 0. 0. 0. 0. 0. 0. 0.
      0. 2.08333340e-02 0. 0. 0. 0. 0. 0. 0. 0. 0. 0. 0. 0. 0. 0. 0. 0.
      0. 0. 0. 0. 0. 0. 0. 2.08333340e-02 0. 0. 2.08333340e-02 0. 0. 0.
      0. 0. 0. 0. 0. 0. 0. 0. 0. 0. 0. 0. 0. 0. 0. 0. 0. 0. 0. 0.
      2.08333340e-02 0. 0. 0. 0. 4.16666679e-02 0. 0. 2.08333340e-02 0.
      0. 0. 0. 0. 0. 0. 0. 0. 0. 0. 0. 0. 0. 0. 0. 0. 0. 0. 0.
      2.08333340e-02 0. 0. 0. 0. 0. 0. 0. 0. 0. 0. 0. 0. 0. 0. 0. 0. 0.
      0. 0. 0. 0. 0. 2.08333340e-02 0. 0. 0. 0. 0. 0. 0. 0. 0. 0. 0. 0.
      0. 0. 0. 0. 0. 0. 0. 0. 0. 0. 0. 0. 2.08333340e-02 0. 0. 0. 0. 0.
      0. 0. 0. 2.08333340e-02 0. 0. 2.08333340e-02 0. 0. 0. 0.
      2.08333340e-02 0. 0. 0. 0. 0. 0. 0. 0. 0. 0. 0. 0. 0.
      2.08333340e-02 2.08333340e-02 0. 0. 0. 0. 0. 0. 0. 0. 0. 0. 0. 0.
      0. 0. 0. 0. 0. 0. 0. 0. 0. 0. 0. 0. 0. 0. 0. 0. 0. 0. 0. 0. 0. 0.
      0. 0. 0. 0. 0. 0. 0. 0. 0. 0. 0. 0. 0. 2.08333340e-02 0. 0. 0. 0.
      0. 0. 0. 0. 0. 2.08333340e-02 0. 0. 0. 0. 0. 0. 0. 0. 0. 0. 0. 0.
      0. 0. 8.33333358e-02 0. 0. 0. 0. 0. 2.08333340e-02 0. 0. 0. 0. 0.
      0. 0. 0. 0. 2.08333340e-02 0. 0. 0. 0. 0. 0. 0. 0. 0. 0. 0. 0. 0.
      0. 0. 0. 2.08333340e-02 0. 0. 0. 0. 0. 0. 0. 0. 0. 2.08333340e-02
      0. 0. 0. 0. 0. 0. 0. 0. 0. 0. 0. 2.08333340e-02 0. 0. 0. 0. 0. 0.
      0. 0. 2.08333340e-02 0. 0. 0. 0. 0. 0. 0. 0. 2.08333340e-02 0. 0.
      0. 0. 0. 0. 2.08333340e-02 0. 0. 0. 0. 0.</_>
    <_>
      0. 0. 0. 0. 0. 0. 0. 0. 0. 0. 0. 0. 0. 3.03030312e-02 0.
      3.03030312e-02 0. 0. 0. 0. 0. 0. 0. 0. 0. 0. 0. 0. 0. 0. 0. 0. 0.
      0. 0. 0. 0. 0. 0. 3.03030312e-02 0. 3.03030312e-02 0. 0. 0. 0. 0.
      0. 0. 0. 0. 0. 0. 0. 0. 0. 0. 0. 0. 0. 0. 0. 0. 0. 0. 0. 0. 0. 0.
      0. 0. 0. 0. 0. 0. 0. 0. 0. 0. 0. 0. 0. 3.03030312e-02 0. 0. 0. 0.
      0. 0. 3.03030312e-02 0. 0. 0. 0. 0. 0. 0. 0. 0. 0. 0. 0. 0. 0. 0.
      0. 0. 0. 0. 0. 0. 0. 0. 0. 0. 0. 0. 0. 0. 3.03030312e-02 0. 0. 0.
      0. 0. 0. 0. 0. 0. 0. 0. 0. 0. 0. 0. 0. 0. 0. 0. 0. 0. 0. 0. 0.
      3.03030312e-02 0. 0. 0. 0. 0. 0. 0. 0. 0. 0. 0. 0. 0. 0. 0. 0. 0.
      0. 0. 3.03030312e-02 3.03030312e-02 0. 0. 0. 0. 0. 0. 0. 0. 0. 0.
      0. 0. 0. 0. 0. 0. 0. 0. 0. 0. 0. 0. 0. 0. 0. 0. 0. 0. 0. 0. 0.
      3.03030312e-02 0. 0. 0. 0. 0. 0. 0. 0. 0. 0. 0. 0. 0. 0. 0. 0. 0.
      0. 0. 0. 0. 0. 0. 0. 0. 0. 0. 3.03030312e-02 0. 0. 0. 0. 0. 0. 0.
      0. 0. 0. 0. 0. 0. 3.03030312e-02 0. 0. 0. 0. 0. 0. 3.03030312e-02
      0. 0. 0. 0. 0. 0. 0. 0. 0. 0. 0. 0. 0. 0. 0. 0. 0. 0. 0. 0. 0. 0.
      0. 0. 3.03030312e-02 0. 0. 0. 0. 0. 0. 0. 0. 0. 0. 0. 0. 0. 0. 0.
      0. 0. 0. 0. 0. 0. 0. 0. 0. 0. 0. 0. 3.03030312e-02 0. 0. 0. 0. 0.
      0. 0. 0. 0. 0. 0. 0. 0. 0. 0. 0. 0. 0. 0. 0. 0. 0. 0. 0. 0. 0. 0.
      0. 0. 0. 0. 0. 3.03030312e-02 0. 0. 0. 0. 0. 0. 0. 0. 0.
      9.09090936e-02 0. 0. 0. 0. 0. 0. 0. 0. 0. 0. 0. 0. 0. 0. 0. 0. 0.
      0. 0. 0. 0. 3.03030312e-02 0. 0. 0. 0. 0. 0. 0. 0. 0. 0. 0. 0. 0.
      0. 0. 0. 0. 0. 0. 0. 0. 3.03030312e-02 0. 0. 0. 0. 0. 0. 0. 0. 0.
      0. 0. 0. 3.03030312e-02 0. 0. 0. 0. 0. 0. 0. 0. 0. 0. 0. 0. 0.
      6.06060624e-02 0. 0. 0. 0. 0. 0. 0. 0. 0. 0. 0. 0. 0. 0. 0. 0. 0.
      0. 0. 0. 0. 0. 0. 0. 0. 0. 0. 3.03030312e-02 0. 0. 0. 0. 0. 0. 0.
      0. 0. 0. 0. 0. 0. 0. 3.03030312e-02 0. 0. 0. 3.03030312e-02 0. 0.
      0. 0. 0. 0. 0. 0. 3.03030312e-02 0. 3.03030312e-02 0. 0. 0. 0. 0.
      0. 0. 0. 0. 0. 0. 0. 0. 0. 0. 0. 3.03030312e-02 0. 3.03030312e-02
      0. 0. 0. 0. 0. 0. 0. 3.03030312e-02 0. 0. 0. 0. 0. 0. 0. 0. 0. 0.
      0. 0. 0.</_>
    <_>
      0. 0. 0. 0. 0. 0. 0. 0. 0. 0. 0. 0. 0. 0. 2.85714287e-02 0. 0. 0.
      0. 0. 0. 0. 0. 0. 0. 0. 0. 0. 0. 0. 0. 0. 0. 2.85714287e-02 0. 0.
      0. 0. 0. 0. 0. 2.85714287e-02 0. 0. 0. 0. 0. 0. 0. 0. 0. 0. 0. 0.
      2.85714287e-02 0. 0. 0. 0. 0. 0. 0. 0. 0. 2.85714287e-02 0. 0. 0.
      0. 0. 0. 0. 0. 0. 2.85714287e-02 0. 0. 0. 0. 0. 0. 0. 0. 0. 0. 0.
      0. 0. 0. 0. 0. 0. 0. 0. 0. 0. 0. 2.85714287e-02 0. 0. 0. 0. 0. 0.
      0. 0. 0. 0. 0. 0. 0. 0. 0. 2.85714287e-02 0. 0. 0. 0. 0. 0. 0. 0.
      0. 0. 0. 0. 0. 0. 0. 0. 0. 0. 0. 0. 0. 0. 0. 0. 0. 0. 0. 0. 0. 0.
      0. 0. 0. 0. 0. 0. 0. 0. 0. 0. 0. 0. 0. 0. 0. 0. 0. 0. 0. 0. 0.
      2.85714287e-02 2.85714287e-02 0. 0. 0. 2.85714287e-02 0. 0. 0. 0.
      0. 0. 0. 0. 0. 0. 0. 0. 0. 0. 0. 0. 0. 0. 0. 0. 0. 0. 0. 0. 0. 0.
      0. 0. 0. 0. 0. 0. 0. 2.85714287e-02 0. 0. 0. 0. 0. 0. 0. 0. 0. 0.
      0. 0. 0. 0. 0. 0. 0. 0. 0. 0. 0. 0. 0. 0. 0. 5.71428575e-02 0. 0.
      0. 0. 0. 0. 0. 0. 0. 0. 0. 0. 0. 0. 0. 0. 0. 0. 0. 0. 0. 0. 0. 0.
      0. 0. 0. 0. 0. 0. 0. 0. 0. 0. 0. 0. 0. 0. 0. 2.85714287e-02 0. 0.
      0. 0. 0. 0. 0. 0. 2.85714287e-02 0. 0. 0. 0. 0. 0. 0. 0. 0. 0. 0.
      0. 0. 0. 0. 0. 0. 0. 0. 2.85714287e-02 0. 0. 2.85714287e-02 0. 0.
      0. 0. 2.85714287e-02 0. 0. 0. 0. 0. 0. 0. 0. 0. 0. 0. 0. 0. 0. 0.
      0. 0. 0. 0. 2.85714287e-02 0. 0. 0. 0. 0. 0. 0. 2.85714287e-02 0.
      0. 0. 0. 0. 0. 0. 0. 8.57142881e-02 0. 0. 0. 0. 0. 0. 0. 0. 0. 0.
      0. 2.85714287e-02 0. 2.85714287e-02 0. 0. 0. 0. 0. 0. 0.
      2.85714287e-02 0. 0. 0. 0. 0. 0. 0. 0. 0. 0. 0. 0. 0. 0. 0. 0. 0.
      0. 0. 0. 0. 0. 0. 0. 0. 0. 0. 0. 0. 0. 0. 0. 0. 0. 0.
      2.85714287e-02 0. 0. 0. 0. 0. 0. 0. 0. 0. 0. 2.85714287e-02 0. 0.
      0. 0. 0. 0. 0. 0. 0. 0. 0. 0. 0. 0. 0. 0. 0. 0. 0. 0. 0. 0. 0. 0.
      0. 0. 0. 0. 0. 0. 0. 0. 0. 0. 0. 0. 0. 0. 0. 2.85714287e-02 0. 0.
      0. 0. 0. 0. 0. 0. 0. 0. 0. 0. 0. 5.71428575e-02 0. 0. 0. 0. 0. 0.
      0. 0. 0. 0. 0. 0. 0. 0. 0. 0. 0. 0. 0. 0. 0. 0. 0. 0. 0. 0.
      2.85714287e-02 0. 0. 0. 0. 0. 0. 0. 0. 0. 0. 2.85714287e-02 0.
      2.85714287e-02 0. 0. 0. 0.</_>
    <_>
      0. 0. 0. 0. 0. 0. 0. 0. 0. 0. 0. 0. 0. 0. 0. 0. 0. 2.22222228e-02
      0. 0. 0. 0. 0. 0. 0. 0. 0. 0. 2.22222228e-02 0. 0. 0. 0.
      4.44444455e-02 0. 0. 0. 0. 0. 2.22222228e-02 0. 0. 0. 0. 0. 0. 0.
      0. 0. 0. 0. 0. 0. 0. 0. 0. 2.22222228e-02 0. 0. 0. 0. 0. 0. 0. 0.
      0. 0. 0. 2.22222228e-02 0. 0. 0. 0. 0. 0. 0. 2.22222228e-02 0. 0.
      0. 0. 0. 0. 0. 0. 0. 0. 0. 0. 0. 0. 4.44444455e-02 0. 0. 0. 0. 0.
      0. 2.22222228e-02 0. 0. 0. 0. 0. 0. 0. 0. 0. 0. 0. 2.22222228e-02
      0. 0. 0. 0. 0. 0. 0. 0. 0. 0. 0. 0. 0. 0. 0. 0. 0. 0. 0. 0. 0. 0.
      2.22222228e-02 0. 0. 0. 0. 0. 0. 0. 2.22222228e-02 0. 0.
      2.22222228e-02 0. 0. 0. 0. 0. 0. 0. 0. 0. 2.22222228e-02 0. 0. 0.
      0. 0. 0. 0. 2.22222228e-02 0. 0. 4.44444455e-02 0. 0. 0. 0. 0. 0.
      0. 0. 0. 0. 0. 0. 0. 0. 0. 0. 0. 0. 0. 0. 0. 0. 0. 0. 0. 0.
      2.22222228e-02 0. 0. 0. 0. 0. 0. 0. 0. 0. 0. 0. 0. 0. 0. 0. 0. 0.
      0. 0. 0. 0. 0. 0. 0. 0. 0. 0. 0. 0. 0. 0. 0. 0. 0. 0. 0. 0.
      2.22222228e-02 0. 0. 0. 0. 0. 0. 0. 0. 0. 0. 0. 0. 0. 0. 0. 0. 0.
      0. 0. 0. 0. 0. 0. 0. 0. 0. 0. 0. 0. 0. 0. 0. 0. 0. 0. 0. 0. 0. 0.
      2.22222228e-02 0. 0. 2.22222228e-02 0. 0. 0. 0. 0. 0. 0.
      2.22222228e-02 0. 0. 0. 0. 0. 0. 0. 0. 0. 0. 0. 0. 2.22222228e-02
      0. 0. 0. 0. 2.22222228e-02 0. 0. 0. 2.22222228e-02 0. 0. 0. 0. 0.
      0. 0. 0. 0. 0. 0. 0. 0. 0. 0. 0. 0. 0. 0. 0. 0. 0. 0.
      2.22222228e-02 0. 0. 0. 0. 0. 0. 0. 0. 0. 0. 0. 0. 0. 0. 0. 0.
      4.44444455e-02 0. 0. 0. 0. 0. 0. 0. 0. 0. 2.22222228e-02 0. 0. 0.
      0. 0. 0. 0. 0. 0. 0. 0. 0. 0. 0. 2.22222228e-02 0. 0. 0. 0. 0. 0.
      0. 0. 0. 2.22222228e-02 0. 0. 0. 0. 0. 0. 0. 0. 0. 0. 0. 0. 0. 0.
      0. 0. 2.22222228e-02 0. 0. 0. 0. 0. 0. 0. 0. 0. 0. 0. 0. 0. 0. 0.
      0. 0. 0. 0. 0. 0. 2.22222228e-02 0. 0. 0. 0. 0. 0. 2.22222228e-02
      2.22222228e-02 0. 0. 0. 2.22222228e-02 0. 0. 2.22222228e-02 0. 0.
      0. 0. 0. 0. 0. 0. 0. 0. 0. 0. 2.22222228e-02 0. 0. 0. 0. 0. 0. 0.
      2.22222228e-02 0. 0. 0. 0. 0. 0. 0. 0. 0. 0. 0. 0. 4.44444455e-02
      0. 0. 0. 0. 2.22222228e-02 0. 0. 0. 0. 0. 0. 0. 0. 0. 0. 0. 0. 0.
      0. 0. 0. 0. 0. 0. 0. 0. 0. 0. 0. 0. 0. 0. 0. 0. 0. 0. 0.
      2.22222228e-02 0. 0. 0. 0. 0. 0.</_>
    <_>
      0. 0. 2.04081628e-02 0. 0. 0. 0. 0. 0. 0. 0. 0. 0. 0. 0. 0. 0. 0.
      0. 0. 4.08163257e-02 0. 0. 0. 0. 0. 0. 0. 0. 0. 0. 0. 0. 0. 0. 0.
      0. 0. 2.04081628e-02 0. 0. 2.04081628e-02 0. 0. 0. 0. 0. 0. 0. 0.
      0. 2.04081628e-02 0. 0. 0. 0. 0. 0. 0. 0. 0. 0. 0. 0. 0. 0. 0.
      2.04081628e-02 0. 0. 0. 0. 0. 0. 4.08163257e-02 2.04081628e-02 0.
      0. 0. 0. 0. 0. 0. 0. 0. 0. 0. 2.04081628e-02 0. 0. 0. 0. 0. 0. 0.
      0. 0. 0. 2.04081628e-02 0. 0. 0. 0. 0. 0. 0. 0. 0. 0. 0. 0. 0. 0.
      0. 0. 0. 0. 2.04081628e-02 0. 0. 0. 0. 0. 0. 0. 0. 0. 0. 0. 0. 0.
      0. 0. 0. 0. 0. 0. 0. 0. 0. 0. 0. 0. 0. 0. 0. 0. 0. 0. 0. 0. 0. 0.
      0. 0. 0. 0. 0. 0. 0. 0. 0. 0. 0. 0. 0. 0. 0. 0. 0. 0. 0.
      2.04081628e-02 0. 0. 0. 0. 0. 0. 0. 0. 0. 0. 0. 0. 0. 0. 0. 0. 0.
      0. 0. 0. 0. 0. 0. 0. 0. 0. 0. 0. 0. 0. 2.04081628e-02 0. 0. 0. 0.
      0. 0. 0. 0. 0. 2.04081628e-02 0. 0. 0. 2.04081628e-02 0. 0. 0. 0.
      0. 0. 0. 0. 0. 0. 0. 0. 0. 0. 0. 0. 0. 0. 0. 0. 0. 0.
      2.04081628e-02 0. 0. 0. 0. 0. 0. 0. 0. 0. 0. 0. 0. 0. 0. 0. 0. 0.
      0. 2.04081628e-02 0. 0. 0. 0. 0. 0. 0. 0. 0. 0. 0. 0. 0. 0. 0. 0.
      0. 0. 0. 0. 0. 0. 0. 0. 0. 0. 0. 0. 0. 0. 0. 0. 0. 0. 0. 0. 0. 0.
      0. 0. 0. 2.04081628e-02 0. 2.04081628e-02 0. 0. 0. 2.04081628e-02
      0. 0. 2.04081628e-02 2.04081628e-02 0. 0. 0. 0. 0. 0. 0. 0. 0.
      2.04081628e-02 0. 0. 0. 0. 0. 0. 0. 0. 0. 0. 0. 0. 0. 0.
      2.04081628e-02 0. 0. 0. 0. 0. 0. 0. 0. 0. 0. 0. 0. 0. 0. 0. 0. 0.
      0. 0. 0. 2.04081628e-02 0. 0. 2.04081628e-02 0. 2.04081628e-02 0.
      2.04081628e-02 0. 2.04081628e-02 0. 0. 0. 0. 0. 2.04081628e-02 0.
      2.04081628e-02 0. 0. 0. 2.04081628e-02 0. 0. 0. 0. 0. 0. 0. 0. 0.
      0. 0. 0. 0. 0. 0. 0. 0. 0. 0. 2.04081628e-02 0. 2.04081628e-02 0.
      0. 0. 0. 0. 0. 0. 0. 0. 0. 0. 0. 0. 0. 0. 0. 0. 0. 0. 0. 0. 0. 0.
      0. 0. 8.16326514e-02 0. 0. 0. 0. 0. 0. 0. 0. 0. 0. 0.
      2.04081628e-02 0. 0. 0. 0. 2.04081628e-02 0. 2.04081628e-02 0. 0.
      0. 0. 0. 0. 0. 0. 0. 0. 0. 0. 0. 0. 2.04081628e-02 0. 0. 0. 0. 0.
      0. 0. 0. 0. 0. 0. 0. 2.04081628e-02 0. 0. 0. 0. 0. 0. 0. 0. 0.
      4.08163257e-02 0. 0. 0. 0. 0. 0. 0. 2.04081628e-02 0. 0. 0. 0.
      2.04081628e-02 0. 0. 0. 0. 0. 0. 0. 0. 0. 0. 0. 0. 0. 0. 0.</_>
    <_>
      0. 0. 0. 0. 0. 0. 0. 0. 0. 0. 0. 1.92307699e-02 0. 0. 0.
      1.92307699e-02 0. 0. 0. 0. 3.84615399e-02 0. 0. 0. 0. 0.
      1.92307699e-02 1.92307699e-02 0. 0. 0. 0. 0. 0. 0. 0. 0. 0. 0. 0.
      0. 0. 0. 0. 0. 0. 0. 0. 0. 0. 0. 0. 0. 0. 0. 0. 0. 0. 0. 0. 0.
      1.92307699e-02 0. 0. 0. 0. 0. 0. 0. 0. 1.92307699e-02 0. 0. 0.
      1.92307699e-02 1.92307699e-02 0. 0. 0. 0. 0. 0. 0. 0. 0. 0. 0. 0.
      0. 0. 0. 0. 0. 0. 0. 0. 0. 0. 0. 0. 0. 0. 0. 0. 0. 1.92307699e-02
      0. 0. 0. 0. 0. 0. 0. 0. 0. 0. 1.92307699e-02 3.84615399e-02 0. 0.
      0. 3.84615399e-02 0. 0. 0. 0. 0. 0. 0. 1.92307699e-02 0. 0. 0. 0.
      0. 0. 0. 0. 0. 0. 0. 0. 0. 1.92307699e-02 0. 0. 0. 1.92307699e-02
      0. 0. 0. 0. 0. 0. 1.92307699e-02 0. 0. 0. 0. 0. 0. 1.92307699e-02
      0. 0. 0. 0. 0. 0. 1.92307699e-02 0. 0. 0. 0. 0. 0. 0. 0. 0. 0.
      1.92307699e-02 0. 0. 0. 0. 0. 0. 0. 1.92307699e-02 1.92307699e-02
      0. 0. 0. 0. 0. 0. 0. 0. 1.92307699e-02 0. 0. 0. 0. 0. 0. 0. 0. 0.
      0. 1.92307699e-02 0. 1.92307699e-02 0. 0. 0. 1.92307699e-02
      1.92307699e-02 0. 0. 0. 0. 0. 0. 1.92307699e-02 0. 0. 0. 0. 0. 0.
      0. 0. 0. 0. 0. 0. 0. 0. 0. 0. 0. 0. 0. 0. 0. 0. 0. 0. 0. 0. 0. 0.
      0. 0. 0. 0. 0. 0. 0. 0. 0. 0. 1.92307699e-02 0. 0. 0. 0. 0. 0. 0.
      0. 0. 0. 0. 0. 0. 0. 0. 1.92307699e-02 1.92307699e-02 0. 0. 0. 0.
      0. 0. 0. 0. 0. 0. 1.92307699e-02 0. 0. 1.92307699e-02 0. 0. 0. 0.
      0. 0. 0. 1.92307699e-02 0. 0. 0. 0. 0. 0. 0. 0. 0. 0. 0. 0. 0. 0.
      1.92307699e-02 0. 0. 0. 0. 0. 0. 0. 0. 0. 0. 0. 1.92307699e-02 0.
      0. 0. 0. 0. 0. 0. 0. 0. 0. 0. 0. 0. 0. 0. 0. 0. 0. 0. 0. 0. 0. 0.
      0. 0. 0. 0. 0. 0. 0. 0. 0. 0. 0. 0. 0. 0. 0. 0. 0. 0. 0. 0. 0. 0.
      0. 0. 0. 0. 1.92307699e-02 0. 0. 0. 0. 0. 0. 0. 1.92307699e-02 0.
      0. 1.92307699e-02 0. 0. 0. 0. 0. 0. 0. 1.92307699e-02
      1.92307699e-02 0. 0. 0. 1.92307699e-02 0. 1.92307699e-02 0. 0. 0.
      0. 0. 0. 0. 0. 0. 0. 1.92307699e-02 0. 0. 0. 0. 0. 0. 0. 0. 0.
      1.92307699e-02 0. 0. 0. 0. 0. 0. 0. 0. 0. 0. 0. 0. 0. 0. 0. 0. 0.
      0. 0. 0. 0. 0. 0. 0. 0. 0. 0. 0. 0. 1.92307699e-02 0. 0. 0. 0. 0.
      0. 0. 0. 0. 0. 0. 0. 0. 0. 1.92307699e-02 0. 0. 0. 0. 0. 0. 0. 0.
      0. 0. 0. 0. 0. 0. 1.92307699e-02 0. 0. 0. 0. 0. 0. 0. 0. 0. 0. 0.
      0. 1.92307699e-02 0. 0. 0. 0. 0. 0. 0. 0. 0. 0. 0. 0. 0. 0.</_>
    <_>
      2.77777780e-02 2.77777780e-02 0. 2.77777780e-02 0. 0. 0. 0. 0. 0.
      2.77777780e-02 0. 0. 0. 0. 0. 0. 0. 0. 0. 0. 0. 0. 0. 0. 0. 0. 0.
      0. 0. 0. 0. 0. 0. 2.77777780e-02 0. 0. 0. 0. 0. 2.77777780e-02 0.
      0. 0. 0. 2.77777780e-02 0. 0. 0. 0. 0. 0. 0. 0. 0. 0. 0. 0. 0. 0.
      0. 0. 0. 0. 0. 0. 2.77777780e-02 0. 0. 0. 2.77777780e-02 0. 0. 0.
      0. 2.77777780e-02 0. 0. 0. 0. 0. 0. 0. 0. 0. 0. 0. 0. 0. 0. 0. 0.
      0. 0. 0. 0. 0. 0. 0. 0. 0. 0. 0. 0. 0. 0. 0. 0. 0. 0. 0. 0. 0. 0.
      0. 0. 0. 0. 0. 0. 0. 0. 0. 0. 0. 0. 0. 0. 0. 0. 0. 0. 0. 0. 0. 0.
      0. 0. 0. 0. 0. 0. 0. 0. 0. 0. 0. 0. 0. 0. 0. 0. 0. 2.77777780e-02
      0. 0. 0. 0. 0. 2.77777780e-02 0. 0. 0. 0. 0. 0. 0. 0. 0. 0. 0. 0.
      0. 0. 0. 0. 0. 5.55555560e-02 0. 0. 0. 0. 0. 0. 0. 0. 0. 0. 0.
      2.77777780e-02 0. 0. 0. 0. 0. 0. 0. 0. 0. 0. 0. 0. 0. 0. 0. 0. 0.
      0. 0. 0. 0. 0. 0. 0. 0. 0. 0. 0. 0. 0. 0. 0. 0. 0. 0. 0. 0. 0. 0.
      0. 0. 0. 0. 2.77777780e-02 0. 0. 0. 0. 0. 0. 0. 0. 0. 0. 0. 0. 0.
      0. 0. 0. 2.77777780e-02 0. 2.77777780e-02 0. 0. 0. 0. 0. 0. 0. 0.
      0. 0. 0. 0. 0. 0. 0. 0. 0. 0. 0. 0. 0. 0. 0. 0. 2.77777780e-02 0.
      2.77777780e-02 0. 0. 0. 0. 0. 0. 2.77777780e-02 0. 0. 0. 0. 0. 0.
      0. 0. 0. 0. 0. 0. 0. 0. 0. 0. 0. 0. 0. 0. 0. 0. 0. 0. 0. 0. 0. 0.
      0. 0. 0. 0. 0. 0. 0. 0. 0. 0. 0. 0. 0. 0. 0. 0. 0. 0. 0. 0. 0.
      2.77777780e-02 0. 0. 0. 0. 0. 0. 2.77777780e-02 0. 0. 0. 0. 0. 0.
      0. 0. 0. 0. 0. 0. 0. 0. 0. 2.77777780e-02 0. 0. 0. 2.77777780e-02
      0. 0. 0. 0. 0. 0. 0. 0. 0. 0. 0. 0. 0. 0. 0. 0. 2.77777780e-02 0.
      0. 0. 0. 0. 0. 0. 0. 0. 0. 0. 0. 2.77777780e-02 0. 0. 0. 0. 0. 0.
      2.77777780e-02 0. 0. 0. 2.77777780e-02 2.77777780e-02 0. 0. 0. 0.
      0. 0. 0. 0. 0. 0. 0. 0. 2.77777780e-02 0. 0. 0. 0. 0. 0. 0. 0. 0.
      0. 0. 0. 0. 0. 0. 0. 0. 0. 0. 0. 0. 0. 0. 0. 0. 0. 0. 0. 0. 0. 0.
      0. 0. 0. 0. 0. 0. 0. 0. 0. 0. 2.77777780e-02 0. 0. 0. 0. 0. 0. 0.
      0. 0. 0. 0. 0. 0. 0. 0. 0. 2.77777780e-02 0. 0. 0. 0. 0. 0. 0. 0.
      0. 0. 2.77777780e-02 0. 0. 0. 0. 0. 0. 0. 0. 0. 0. 0. 0. 0. 0. 0.
      0. 0. 0. 0. 0. 2.77777780e-02 0. 2.77777780e-02</_>
    <_>
      0. 0. 0. 0. 0. 0. 0. 0. 0. 0. 0. 0. 0. 2.27272734e-02 0. 0. 0. 0.
      0. 0. 0. 0. 0. 0. 0. 0. 0. 0. 0. 0. 0. 0. 0. 0. 0. 0. 0. 0. 0. 0.
      0. 9.09090936e-02 0. 0. 0. 0. 0. 0. 0. 0. 0. 0. 0. 0. 0. 0. 0. 0.
      0. 0. 0. 0. 0. 0. 0. 0. 0. 0. 0. 0. 0. 0. 0. 0. 4.54545468e-02 0.
      0. 0. 0. 0. 0. 0. 0. 0. 0. 0. 0. 0. 0. 0. 0. 0. 0. 0. 0. 0. 0. 0.
      0. 0. 0. 0. 0. 2.27272734e-02 0. 0. 0. 0. 0. 0. 0. 2.27272734e-02
      0. 2.27272734e-02 2.27272734e-02 0. 0. 0. 0. 0. 0. 0. 0.
      2.27272734e-02 0. 0. 0. 0. 0. 0. 0. 2.27272734e-02 0. 0. 0. 0. 0.
      2.27272734e-02 0. 0. 0. 0. 0. 2.27272734e-02 0. 0. 0. 0. 0. 0. 0.
      0. 0. 0. 0. 0. 0. 0. 0. 0. 0. 0. 0. 2.27272734e-02 0. 0. 0. 0. 0.
      0. 0. 2.27272734e-02 0. 0. 0. 0. 0. 0. 0. 2.27272734e-02 0. 0. 0.
      0. 0. 0. 2.27272734e-02 0. 0. 0. 0. 0. 0. 0. 0. 0. 0. 0. 0. 0. 0.
      0. 0. 0. 0. 0. 0. 0. 0. 2.27272734e-02 0. 0. 0. 0. 0. 0. 0. 0. 0.
      0. 0. 0. 0. 0. 0. 0. 0. 0. 0. 0. 0. 0. 0. 0. 0. 0. 0. 0. 0. 0. 0.
      0. 0. 0. 0. 0. 0. 2.27272734e-02 2.27272734e-02 0. 0. 0. 0. 0. 0.
      0. 0. 0. 0. 0. 0. 0. 0. 2.27272734e-02 0. 0. 0. 0. 0.
      2.27272734e-02 0. 0. 0. 0. 0. 0. 0. 0. 0. 0. 0. 0. 0. 0. 0. 0. 0.
      0. 2.27272734e-02 0. 0. 0. 0. 0. 0. 0. 0. 0. 0. 0. 0. 0. 0. 0. 0.
      0. 0. 0. 0. 0. 0. 0. 0. 0. 0. 2.27272734e-02 2.27272734e-02 0. 0.
      0. 2.27272734e-02 0. 0. 0. 0. 0. 0. 0. 0. 2.27272734e-02 0. 0. 0.
      0. 0. 0. 0. 0. 0. 0. 0. 0. 0. 0. 0. 2.27272734e-02 0. 0. 0.
      2.27272734e-02 0. 0. 0. 0. 0. 0. 0. 0. 0. 0. 0. 0. 0. 0.
      2.27272734e-02 0. 0. 0. 0. 0. 0. 0. 0. 0. 2.27272734e-02
      2.27272734e-02 0. 0. 0. 0. 2.27272734e-02 0. 0. 0. 0.
      2.27272734e-02 0. 0. 0. 0. 0. 0. 0. 0. 0. 0. 0. 0. 0. 0. 0. 0. 0.
      0. 0. 0. 0. 0. 0. 0. 2.27272734e-02 0. 2.27272734e-02 0. 0. 0. 0.
      0. 0. 0. 0. 0. 0. 0. 0. 0. 0. 0. 0. 0. 0. 0. 0. 0. 0. 0. 0. 0. 0.
      0. 0. 0. 0. 2.27272734e-02 0. 0. 0. 0. 0. 0. 0. 2.27272734e-02 0.
      0. 0. 0. 0. 0. 0. 0. 0. 0. 0. 0. 0. 0. 0. 0. 0. 0. 0.
      2.27272734e-02 0. 0. 0. 0. 0. 2.27272734e-02 0. 0. 0. 0. 0.
      2.27272734e-02 0. 0. 0. 0. 0. 0. 0. 0. 0. 0. 0. 0. 0. 0. 0.
      2.27272734e-02 0. 0. 0. 0. 0. 0. 0. 0. 0. 0. 0. 0.</_>
    <_>
