<?xml version="1.0"?>
<opencv_storage>
<opencv_ml_svm>
  <format>3</format>
  <svmType>C_SVC</svmType>
  <kernel>
    <type>RBF</type>
    <gamma>3.3750000000000002e-02</gamma></kernel>
  <C>2.5000000000000000e+00</C>
  <term_criteria><epsilon>9.9999999999999995e-07</epsilon>
    <iterations>500</iterations></term_criteria>
  <var_count>3780</var_count>
  <class_count>2</class_count>
  <class_labels type_id="opencv-matrix">
    <rows>2</rows>
    <cols>1</cols>
    <dt>i</dt>
    <data>
      0 1</data></class_labels>
  <sv_total>1000</sv_total>
  <support_vectors>
    <_>
      1.14651561e-01 6.87578171e-02 1.01593412e-01 1.86087951e-01
      2.31017306e-01 2.18858033e-01 1.43883333e-01 2.16914415e-01
      1.48920000e-01 3.73015702e-02 4.52635698e-02 9.82806832e-02
      1.48872674e-01 2.38433599e-01 1.72630489e-01 1.49650782e-01
      1.74199089e-01 9.49610025e-02 1.08816028e-01 1.03399903e-01
      1.88398927e-01 2.37251803e-01 2.38433599e-01 2.15935856e-01
      2.38433599e-01 1.93603814e-01 1.16318919e-01 1.03364654e-01
      7.60817155e-02 1.53110147e-01 1.44718364e-01 2.38433599e-01
      2.20036566e-01 1.88037738e-01 1.01885147e-01 1.49670944e-01
      1.45685347e-02 5.97426929e-02 8.35654140e-02 1.64483041e-01
      2.79705018e-01 1.83624014e-01 1.64634839e-01 7.81290159e-02
      4.35788184e-02 6.46466017e-02 5.17235994e-02 9.35844928e-02
      2.51818985e-01 2.79705018e-01 2.69309282e-01 1.28974646e-01
      8.57727677e-02 6.30398169e-02 5.84030114e-02 9.78925899e-02
      1.30660802e-01 1.40037313e-01 2.79705018e-01 2.66965359e-01
      1.73155993e-01 6.54098764e-02 8.77264291e-02 8.45682025e-02
      1.08870879e-01 1.38692617e-01 2.37510175e-01 2.79705018e-01
      2.79705018e-01 2.06698820e-01 1.09503128e-01 8.71542320e-02
      9.93117616e-02 5.42474389e-02 7.23613426e-02 2.54606694e-01
      2.54606694e-01 1.74976364e-01 1.11181490e-01 1.07029296e-01
      7.76636899e-02 8.78271312e-02 9.36480165e-02 5.50794527e-02
      2.14733124e-01 2.54606694e-01 2.42606342e-01 1.59700543e-01
      1.33671135e-01 1.37673348e-01 1.06022753e-01 9.55189839e-02
      7.73953050e-02 2.54606694e-01 2.54606694e-01 2.54606694e-01
      1.46147639e-01 1.42088011e-01 9.93888378e-02 1.10921852e-01
      1.12971775e-01 7.29371086e-02 2.54606694e-01 2.54606694e-01
      2.54606694e-01 1.34112865e-01 1.24618337e-01 8.38633701e-02
      7.33996704e-02 1.69089153e-01 9.08208340e-02 1.42153993e-01
      2.32496664e-01 2.33711630e-01 2.32378185e-01 1.30291626e-01
      1.59128815e-01 1.55420601e-01 2.33711630e-01 1.81353539e-01
      1.43940285e-01 1.00855842e-01 2.33711630e-01 2.22528577e-01
      1.69443384e-01 2.33711630e-01 6.16921112e-02 1.20741643e-01
      9.87017453e-02 1.95310861e-01 2.33711630e-01 2.33711630e-01
      1.54060155e-01 9.00335833e-02 5.85729964e-02 6.49175644e-02
      1.63365886e-01 1.95015565e-01 1.97410807e-01 1.75805852e-01
      1.52859256e-01 1.20404378e-01 7.63854608e-02 8.32491666e-02
      3.59365076e-01 1.76677957e-01 1.48485601e-01 7.52442926e-02
      4.67865728e-02 1.48937613e-01 1.33204415e-01 1.62600666e-01
      3.59365076e-01 3.59365076e-01 1.40958190e-01 3.90394852e-02
      2.41232384e-02 5.63260615e-02 2.69729346e-02 4.15387824e-02
      7.21292570e-02 3.59365076e-01 9.25138369e-02 1.47103295e-01
      2.18369916e-01 1.56655580e-01 1.12192117e-01 1.11596480e-01
      1.01715721e-01 1.18024588e-01 1.53223678e-01 1.68396398e-01
      1.24228604e-01 9.34373289e-02 8.32806900e-02 1.23568982e-01
      5.15838899e-02 7.74056390e-02 1.27057046e-01 2.11693153e-01
      3.93971056e-01 1.18843853e-01 5.92897041e-03 1.52664287e-02
      6.24143481e-02 1.98096018e-02 1.46457907e-02 6.16770349e-02
      3.93971056e-01 3.93971056e-01 6.19348735e-02 2.65450240e-03
      2.55369134e-02 7.71954954e-02 4.62446921e-02 4.07730974e-02
      1.25017926e-01 3.93971056e-01 1.99481145e-01 7.93419704e-02
      2.41821259e-02 5.00197411e-02 6.91565126e-02 2.93607879e-02
      4.79165390e-02 1.02857247e-01 2.08138481e-01 2.77895570e-01
      5.01493290e-02 1.63064152e-02 6.66087568e-02 6.85911328e-02
      9.59937647e-02 7.79600218e-02 1.38842002e-01 2.96468377e-01
      3.24831009e-01 5.92044182e-02 3.12113836e-02 5.71215078e-02
      7.86065161e-02 4.09278795e-02 5.01855128e-02 1.48286819e-01
      3.24831009e-01 3.24831009e-01 1.01045303e-01 9.01131108e-02
      7.80911222e-02 8.69786069e-02 5.74266277e-02 8.21271688e-02
      1.27483770e-01 3.24831009e-01 2.17321306e-01 8.24599713e-02
      6.64168745e-02 1.00655325e-01 9.40837264e-02 1.11670598e-01
      1.16963744e-01 1.25629872e-01 1.85043171e-01 2.94065475e-01
      1.83762401e-01 1.71264380e-01 2.09483460e-01 1.36840716e-01
      1.28647909e-01 1.75033316e-01 1.52580753e-01 2.00131297e-01
      3.09306920e-01 6.42852932e-02 5.69799021e-02 3.63593362e-02
      3.36261354e-02 4.45049219e-02 1.09506004e-01 1.48912087e-01
      3.09306920e-01 3.09306920e-01 1.23050675e-01 8.36953446e-02
      3.36451009e-02 9.90269054e-03 3.44500765e-02 8.82270411e-02
      2.90062994e-01 3.09306920e-01 1.88411549e-01 6.87277094e-02
      7.92931169e-02 9.66619030e-02 6.92736804e-02 9.54775661e-02
      1.58284917e-01 1.91289097e-01 2.22193003e-01 2.15069979e-01
      8.35810602e-02 9.03416127e-02 9.75429937e-02 4.11811359e-02
      6.71614707e-02 1.11517638e-01 2.92830169e-01 3.09306920e-01
      2.54610300e-01 1.16958842e-01 1.02608889e-01 5.74385189e-02
      1.14745451e-02 2.96117440e-02 2.85011530e-02 1.36004537e-01
      2.54610300e-01 2.54610300e-01 2.09133118e-01 1.90433636e-01
      1.56078115e-01 1.70218125e-02 5.07089347e-02 1.02399535e-01
      1.35810360e-01 2.54610300e-01 1.91876128e-01 1.03406139e-01
      1.47648320e-01 1.18752375e-01 2.88706776e-02 6.89567775e-02
      4.98880409e-02 1.45169184e-01 2.10508481e-01 2.54610300e-01
      2.22929522e-01 2.54610300e-01 2.54610300e-01 5.96892498e-02
      1.42439559e-01 1.26734734e-01 2.42897272e-01 2.32820079e-01
      2.33811304e-01 1.37080461e-01 1.31400317e-01 9.38863382e-02
      1.79729071e-02 9.96406078e-02 1.58515409e-01 1.24640070e-01
      2.33811304e-01 2.33811304e-01 6.50335923e-02 1.27788648e-01
      1.08584628e-01 6.17979988e-02 1.15552984e-01 1.13368765e-01
      1.32721215e-01 2.33811304e-01 1.69072479e-01 1.46920323e-01
      2.20298439e-01 1.76403865e-01 6.61838055e-02 1.95511654e-01
      1.56285435e-01 2.10807562e-01 2.33811304e-01 2.08099663e-01
      1.10646933e-01 2.27452323e-01 2.29366690e-01 1.27556324e-01
      1.79526418e-01 1.25353351e-01 1.68778732e-01 2.33811304e-01
      2.30642915e-01 1.05580740e-01 1.53593123e-01 1.25669718e-01
      1.03798486e-01 8.17895532e-02 7.04395697e-02 1.21161252e-01
      2.30642915e-01 1.98163986e-01 1.53371677e-01 1.11166388e-01
      1.58547565e-01 1.29128993e-01 9.93157178e-02 9.13367942e-02
      1.40496209e-01 1.65683955e-01 2.03472823e-01 1.80876613e-01
      1.95511460e-01 2.30642915e-01 2.30642915e-01 1.38201535e-01
      1.08815759e-01 1.46101370e-01 1.70537114e-01 1.83908656e-01
      2.30642915e-01 1.38156444e-01 2.30642915e-01 2.30642915e-01
      2.05675587e-01 1.52461678e-01 1.54797643e-01 1.38553992e-01
      1.75578371e-01 1.57058686e-01 1.32006824e-01 1.88441411e-01
      1.20008908e-01 1.67150706e-01 1.00604087e-01 7.54048005e-02
      1.92855120e-01 1.29544705e-01 1.24370500e-01 1.39185086e-01
      1.38679534e-01 9.83464494e-02 1.47490755e-01 1.25942335e-01
      7.87243173e-02 1.61667272e-01 1.78872555e-01 1.88429102e-01
      1.83934063e-01 2.40250781e-01 2.40250781e-01 2.40250781e-01
      1.79111958e-01 7.27009624e-02 1.25293225e-01 1.37898982e-01
      1.04706675e-01 1.54743612e-01 2.40250781e-01 2.40250781e-01
      2.40250781e-01 2.20330998e-01 9.46606249e-02 1.76632836e-01
      1.95321515e-01 1.32517874e-01 1.34136736e-01 9.20531228e-02
      4.93534543e-02 5.89999408e-02 1.00769334e-01 1.00825027e-01
      2.27673322e-01 2.74784982e-01 1.59821272e-01 9.28901285e-02
      9.72074196e-02 4.07894254e-02 1.49655612e-02 4.73959260e-02
      1.63582265e-01 2.21604362e-01 2.81728715e-01 1.26837000e-01
      1.21339090e-01 1.64470196e-01 1.69936433e-01 1.33742064e-01
      1.91077575e-01 2.32614353e-01 2.81835914e-01 2.81835914e-01
      1.54468745e-01 9.55569670e-02 6.77101910e-02 7.71572441e-02
      4.81506512e-02 9.85877886e-02 2.63295770e-01 2.81835914e-01
      2.31987745e-01 1.35602981e-01 1.02385335e-01 1.53305456e-01
      9.25393552e-02 5.40502779e-02 4.98215035e-02 1.57764554e-01
      1.04694128e-01 2.61573732e-01 1.68086246e-01 1.10831492e-01
      1.00317143e-01 1.21003047e-01 9.34615210e-02 5.74650280e-02
      1.85565293e-01 1.24204487e-01 2.64169008e-01 1.73811212e-01
      1.80567533e-01 1.02110662e-01 9.60806310e-02 1.03783950e-01
      1.24831446e-01 2.34607577e-01 2.64169008e-01 2.64169008e-01
      2.09844023e-01 1.94040775e-01 1.08153291e-01 8.94900709e-02
      7.93286338e-02 1.59092247e-01 2.64169008e-01 2.64169008e-01
      2.17576623e-01 1.45045176e-01 7.13901222e-02 3.63878421e-02
      1.08830616e-01 8.03964362e-02 5.93117774e-02 1.68367863e-01
      1.99580565e-01 2.10591286e-01 1.25745609e-01 4.94879559e-02
      3.79660986e-02 1.00792117e-01 8.57352540e-02 1.08844854e-01
      1.66954741e-01 2.02408731e-01 3.16892743e-01 1.74965173e-01
      1.06449217e-01 5.56812845e-02 5.65783344e-02 2.84363721e-02
      1.10051602e-01 3.16892743e-01 3.16892743e-01 3.16892743e-01
      1.62021235e-01 3.96744423e-02 7.79140182e-03 1.67835206e-02
      2.12259758e-02 9.60128158e-02 2.62052029e-01 3.16892743e-01
      1.17971003e-01 8.92553851e-02 1.75332561e-01 2.10023358e-01
      2.20458880e-01 1.41067713e-01 2.24619150e-01 1.84617251e-01
      8.41885954e-02 1.10888369e-01 9.95446742e-02 1.42875865e-01
      1.28234148e-01 2.24619150e-01 1.70602337e-01 1.66292593e-01
      6.31387234e-02 7.18813464e-02 1.44444302e-01 2.24619150e-01
      2.24619150e-01 2.24619150e-01 2.24619150e-01 1.14614233e-01
      1.89619943e-01 1.37107313e-01 1.51930645e-01 1.12826206e-01
      2.23869443e-01 1.74492717e-01 2.03446820e-01 2.24619150e-01
      1.49473533e-01 1.74622625e-01 6.04995191e-02 1.00879870e-01
      7.08604530e-02 8.86632502e-02 1.35315374e-01 1.42195731e-01
      2.51178116e-01 2.16158062e-01 1.24427646e-01 4.32326272e-02
      7.65068755e-02 6.31301329e-02 7.91180506e-02 1.38178229e-01
      2.39814416e-01 2.51178116e-01 2.51178116e-01 2.51178116e-01
      1.48264110e-01 8.05844143e-02 9.64770690e-02 1.20610557e-01
      9.43984613e-02 1.62159666e-01 2.51178116e-01 1.84038267e-01
      1.31938115e-01 8.64766836e-02 9.53359678e-02 1.04834907e-01
      8.62043574e-02 1.03694633e-01 1.63209498e-01 2.51178116e-01
      2.51178116e-01 2.51178116e-01 2.51178116e-01 1.01445876e-01
      5.39934039e-02 6.83326870e-02 8.36034864e-02 2.14230597e-01
      2.42044285e-01 2.42044285e-01 1.73504427e-01 1.88114271e-01
      8.09557885e-02 6.66831955e-02 6.81250840e-02 6.01681694e-02
      1.86711922e-01 2.42044285e-01 2.42044285e-01 9.45776775e-02
      1.21426433e-01 7.92164803e-02 9.68013108e-02 8.65579396e-02
      1.34132192e-01 1.54785469e-01 2.42044285e-01 2.42044285e-01
      2.42044285e-01 2.42044285e-01 1.13875054e-01 7.50981942e-02
      8.63054246e-02 1.11620791e-01 1.77046761e-01 2.42044285e-01
      2.42044285e-01 1.60747081e-01 1.75545201e-01 1.27867639e-01
      5.33698276e-02 3.88234593e-02 9.59672034e-02 2.03711614e-01
      2.48762757e-01 2.04828560e-01 1.01204820e-01 4.18262444e-02
      6.42837882e-02 1.14649341e-01 1.14597090e-01 1.97495222e-01
      2.48762757e-01 2.48762757e-01 9.66742560e-02 7.57233128e-02
      5.61613254e-02 1.29474521e-01 4.65114936e-02 1.02541514e-01
      1.39505863e-01 2.48762757e-01 2.33404353e-01 2.25089878e-01
      1.44909680e-01 1.24981500e-01 7.50513673e-02 1.85796112e-01
      2.48762757e-01 2.48762757e-01 2.48762757e-01 2.48762757e-01
      1.59780279e-01 7.73825869e-02 1.43687755e-01 1.51029468e-01
      1.34135783e-01 1.75927594e-01 1.55716121e-01 1.59850746e-01
      1.71149418e-01 4.38190438e-02 4.15369123e-02 9.97512639e-02
      1.15027256e-01 1.52005613e-01 1.16392478e-01 6.87544942e-02
      7.17231780e-02 1.17259666e-01 3.90087254e-02 3.64036188e-02
      1.00558184e-01 1.41197577e-01 3.10946316e-01 3.10946316e-01
      2.57448822e-01 2.13796556e-01 2.62977600e-01 1.14400275e-01
      2.22589225e-02 1.37251377e-01 2.12694943e-01 3.10946316e-01
      2.04839468e-01 9.33198035e-02 7.55258277e-02 1.09068923e-01
      4.67787161e-02 1.38521427e-02 1.80712506e-01 3.10946316e-01
      1.63118035e-01 7.21146315e-02 4.47341688e-02 5.82726970e-02
      4.78877351e-02 2.42212005e-02 3.02551296e-02 6.60857931e-02
      1.93004534e-01 1.81668386e-01 6.20381571e-02 4.75734659e-02
      7.21036717e-02 2.63525955e-02 4.33244333e-02 4.30975370e-02
      5.68866394e-02 2.12135404e-01 4.41908836e-01 8.12195688e-02
      4.50074412e-02 3.27152908e-02 1.88663714e-02 1.31592993e-02
      7.91635364e-03 1.07372403e-01 4.41908836e-01 4.41908836e-01
      9.82814357e-02 3.96058187e-02 2.88604200e-02 3.89905740e-03
      5.93836606e-03 1.40824188e-02 2.70275846e-02 4.41908836e-01
      1.35990575e-01 8.51734504e-02 6.01642132e-02 8.31085443e-02
      5.49478196e-02 7.91737586e-02 1.17903292e-01 1.15305685e-01
      1.45444512e-01 1.71468914e-01 1.70035481e-01 1.04318358e-01
      1.37934744e-01 8.96430686e-02 1.25383288e-01 2.29934201e-01
      1.89470619e-01 1.56913728e-01 3.62888187e-01 1.33182436e-01
      3.12884413e-02 5.07704355e-02 3.05568371e-02 3.81541252e-02
      6.55510128e-02 1.08634084e-01 3.62888187e-01 3.62888187e-01
      1.53213829e-01 3.89130116e-02 6.99644983e-02 5.77304326e-02
      1.07699215e-01 1.82335943e-01 1.80267498e-01 3.62888187e-01
      1.47865325e-01 1.14131711e-01 9.37927067e-02 1.13681749e-01
      9.04399008e-02 1.14010274e-01 1.78998858e-01 1.40479788e-01
      1.69947624e-01 1.53247878e-01 1.21281043e-01 1.05022751e-01
      1.53068528e-01 7.63252005e-02 6.94544092e-02 9.76594239e-02
      1.32533520e-01 2.49446481e-01 3.65610361e-01 1.39740437e-01
      6.37769327e-02 6.23643920e-02 3.94371860e-02 7.98582882e-02
      1.45221069e-01 1.18191883e-01 3.65610361e-01 3.65610361e-01
      1.19231910e-01 8.99377167e-02 7.26229474e-02 2.73473505e-02
      3.76558639e-02 6.13525733e-02 1.63107604e-01 3.65610361e-01
      1.20338142e-01 1.44237772e-01 1.39032632e-01 1.27635345e-01
      3.67388502e-02 7.43737593e-02 9.25303325e-02 1.37944996e-01
      1.80028483e-01 1.39286444e-01 1.74272284e-01 1.82072625e-01
      1.64057627e-01 6.16736002e-02 1.24598362e-01 1.28480405e-01
      2.95687467e-01 2.32173592e-01 3.49160105e-01 1.04308806e-01
      7.90067241e-02 3.43612395e-02 1.45546319e-02 3.74577455e-02
      6.84616566e-02 1.41844273e-01 3.49160105e-01 3.49160105e-01
      8.47196952e-02 6.22649603e-02 1.16526540e-02 1.44680254e-02
      3.18488479e-02 7.35450387e-02 1.46683410e-01 3.49160105e-01
      1.83664873e-01 1.01033680e-01 1.33847520e-01 9.71616507e-02
      5.97709529e-02 1.40784994e-01 8.69277120e-02 2.40224853e-01
      2.60956854e-01 3.11866015e-01 1.76612779e-01 1.59975529e-01
      1.40187263e-01 8.61956328e-02 1.38762474e-01 9.33631659e-02
      2.04109088e-01 3.11866015e-01 3.11866015e-01 5.24978079e-02
      1.96679328e-02 3.11648613e-03 3.58062214e-03 7.86677655e-03
      2.84974203e-02 8.53658617e-02 3.11866015e-01 3.11866015e-01
      9.08562765e-02 1.89093668e-02 1.37242153e-02 1.46172782e-02
      2.07215380e-02 3.20625342e-02 9.98616964e-02 3.11866015e-01
      2.52314895e-01 2.12759420e-01 1.19713292e-01 1.51998594e-01
      1.53629616e-01 1.10975176e-01 9.05709639e-02 1.40443549e-01
      1.91535234e-01 2.51242697e-01 2.11140335e-01 1.24049783e-01
      1.77967772e-01 2.52263248e-01 1.95388034e-01 1.40969172e-01
      1.70317084e-01 2.63745159e-01 2.74004102e-01 1.09957151e-01
      3.90810519e-02 1.96722224e-02 1.73212085e-02 2.33890358e-02
      2.13304721e-02 7.30042756e-02 2.74004102e-01 2.74004102e-01
      1.48955941e-01 6.98388368e-02 6.13384023e-02 6.16694354e-02
      6.30425811e-02 3.57113555e-02 1.20490372e-01 2.74004102e-01
      1.85197115e-01 1.29887402e-01 1.45455271e-01 1.83486611e-01
      1.97392181e-01 1.96704268e-01 1.02050200e-01 1.19798847e-01
      1.74225509e-01 1.91115990e-01 1.45095304e-01 1.42676428e-01
      2.01427206e-01 2.36200407e-01 2.36200407e-01 1.48746401e-01
      1.29611567e-01 1.53062597e-01 2.36200407e-01 1.66326657e-01
      8.26971978e-02 1.67911708e-01 1.18383668e-01 7.14005902e-02
      3.23688760e-02 1.10290624e-01 2.36200407e-01 2.36200407e-01
      2.03290969e-01 1.05489843e-01 1.97131664e-01 2.00447246e-01
      1.50220826e-01 9.05531421e-02 1.12756483e-01 1.70464307e-01
      2.59665579e-01 1.37375638e-01 6.67984709e-02 1.01927206e-01
      2.15998277e-01 1.57182336e-01 1.38984218e-01 1.83387935e-01
      2.59665579e-01 2.59665579e-01 1.24310561e-01 5.32823391e-02
      5.36801629e-02 1.33208930e-01 8.08861479e-02 1.05435394e-01
      1.93320274e-01 2.59665579e-01 2.01538339e-01 1.56792343e-01
      8.84997770e-02 9.36486199e-02 2.17667565e-01 1.77174345e-01
      1.38907686e-01 1.35593683e-01 1.59833670e-01 2.20239416e-01
      1.25809133e-01 8.34620148e-02 1.09795205e-01 1.75997823e-01
      1.13703713e-01 1.23033792e-01 2.05168769e-01 2.59665579e-01
      2.55179137e-01 1.73997074e-01 1.16909795e-01 6.84204102e-02
      9.32244509e-02 1.08489722e-01 9.61666554e-02 1.64296627e-01
      2.35467374e-01 2.55179137e-01 1.88381612e-01 1.42826557e-01
      9.92175043e-02 1.06440127e-01 1.38269246e-01 1.70481354e-01
      2.55179137e-01 2.55179137e-01 1.37450650e-01 1.20069861e-01
      9.51221362e-02 1.23182721e-01 2.38232777e-01 1.41445324e-01
      6.02386817e-02 1.01786591e-01 1.05093226e-01 1.35204032e-01
      1.27109021e-01 1.16413735e-01 2.36388102e-01 2.55179137e-01
      2.55179137e-01 1.41408056e-01 1.71246022e-01 9.06658098e-02
      2.16222167e-01 9.55134630e-02 6.67948201e-02 6.36923835e-02
      5.78062981e-02 5.04568070e-02 8.91976282e-02 2.72104919e-01
      2.72104919e-01 2.72104919e-01 6.94837347e-02 4.82782982e-02
      3.26966979e-02 8.47757608e-02 5.39627299e-02 1.14486562e-02
      1.06361337e-01 2.72104919e-01 1.14318460e-01 9.91151482e-02
      9.05153900e-02 2.64037848e-01 2.72104919e-01 1.69211879e-01
      9.20622870e-02 1.80673376e-01 2.38937438e-01 2.11393505e-01
      8.00864995e-02 1.16260320e-01 1.83276787e-01 2.72104919e-01
      1.94666833e-01 5.71812391e-02 6.30037859e-02 2.72104919e-01
      1.73635244e-01 2.30066165e-01 2.13654697e-01 1.83798477e-01
      1.52911916e-01 1.06649384e-01 1.63484797e-01 1.11573316e-01
      1.63624659e-01 1.36390895e-01 2.30066165e-01 1.32928804e-01
      1.51179239e-01 1.83062017e-01 1.06767736e-01 1.30498782e-01
      6.23594709e-02 1.30059540e-01 2.30066165e-01 2.30066165e-01
      1.36998862e-01 1.91532806e-01 1.34913683e-01 1.06253013e-01
      2.30066165e-01 1.92770779e-01 1.40988052e-01 2.30066165e-01
      1.77477002e-01 1.51937410e-01 1.69850960e-01 1.39792025e-01
      1.06484771e-01 1.88232034e-01 1.21566594e-01 1.46473840e-01
      1.25248060e-01 1.02167010e-01 6.28576204e-02 9.94206816e-02
      2.36804321e-01 1.21353596e-01 1.15782663e-01 1.11271583e-01
      1.48130119e-01 1.51315466e-01 8.19905028e-02 1.02246039e-01
      1.28687993e-01 2.49897763e-01 2.49897763e-01 2.49897763e-01
      2.49897763e-01 1.93679318e-01 1.34926841e-01 7.26552382e-02
      9.43613425e-02 8.58617350e-02 1.51761964e-01 1.61333486e-01
      1.51846930e-01 1.34060323e-01 1.49042889e-01 1.41643092e-01
      1.18080720e-01 1.38625205e-01 1.27460778e-01 2.24750832e-01
      2.49897763e-01 2.49897763e-01 2.49897763e-01 1.88880429e-01
      1.17715135e-01 8.67909417e-02 9.97261479e-02 1.18696459e-01
      2.36800462e-01 2.36800462e-01 1.74815983e-01 1.99996725e-01
      1.51290372e-01 1.07971221e-01 1.13820642e-01 7.47648254e-02
      1.18552081e-01 2.36800462e-01 2.36800462e-01 1.73065498e-01
      1.25236303e-01 1.42877236e-01 1.20388322e-01 7.97893852e-02
      7.54247159e-02 1.23148195e-01 2.00537339e-01 2.36800462e-01
      1.86952084e-01 2.36800462e-01 1.77580729e-01 1.07653148e-01
      6.61510751e-02 3.83385196e-02 1.06659532e-01 2.36800462e-01
      2.36800462e-01 1.94753885e-01 2.11503789e-01 1.99923620e-01
      7.85198361e-02 1.56239197e-01 1.13864556e-01 2.30000079e-01
      1.70438915e-01 1.64381534e-01 1.47063628e-01 1.79519460e-01
      8.16486552e-02 1.41001165e-01 2.37349659e-01 2.37349659e-01
      2.12926045e-01 2.13941306e-01 1.54723197e-01 1.21659033e-01
      2.37349659e-01 1.38826817e-01 9.89931822e-02 1.03929505e-01
      6.05660044e-02 9.00092423e-02 1.62598401e-01 1.66891590e-01
      1.99918941e-01 1.59555554e-01 1.40752077e-01 1.04102857e-01
      1.39548525e-01 1.37482166e-01 1.09955318e-01 1.59702748e-01
      1.37391120e-01 2.37349659e-01 2.37349659e-01 2.37349659e-01
      2.82844037e-01 1.93671972e-01 1.43755138e-01 9.50165763e-02
      1.62648976e-01 1.13098323e-01 5.90619966e-02 1.42930061e-01
      1.81751475e-01 2.82844037e-01 1.08957879e-01 6.57354593e-02
      3.80199477e-02 4.74206656e-02 3.77338566e-02 1.62017345e-02
      1.20736420e-01 2.82844037e-01 2.72001863e-01 1.53069541e-01
      1.05396405e-01 1.21584021e-01 1.19872063e-01 9.50912610e-02
      1.96522519e-01 2.07885921e-01 2.63606131e-01 2.82844037e-01
      2.38179415e-01 6.05107248e-02 7.41977692e-02 4.47029918e-02
      3.79709527e-02 4.66560498e-02 1.67518571e-01 2.82844037e-01
      3.26059312e-01 8.09102878e-02 2.67917179e-02 1.68427825e-02
      3.46274558e-03 4.32608463e-03 4.59486432e-03 8.80589709e-02
      3.26059312e-01 3.26059312e-01 6.17539138e-02 1.76995564e-02
      7.13783223e-03 6.59421959e-04 5.67212421e-03 2.31604613e-02
      8.89471769e-02 3.26059312e-01 3.26059312e-01 1.69376284e-01
      1.91791654e-02 2.27909051e-02 1.07523864e-02 3.84614873e-03
      3.33415391e-03 1.77832827e-01 3.26059312e-01 3.26059312e-01
      7.81113580e-02 2.48349272e-02 2.02542730e-02 6.06113300e-03
      5.59158297e-03 2.58939825e-02 2.21367314e-01 3.26059312e-01
      3.21347475e-01 8.04029182e-02 2.72092260e-02 1.66496988e-02
      9.33912490e-03 1.53290238e-02 3.58751006e-02 9.79081765e-02
      3.21347475e-01 3.21347475e-01 9.37873125e-02 2.88601257e-02
      4.07509170e-02 2.60189623e-02 3.18300277e-02 3.49553823e-02
      1.14345901e-01 3.21347475e-01 3.21347475e-01 7.38893077e-02
      4.58264127e-02 1.51313432e-02 4.84326622e-03 9.51865874e-03
      3.67039144e-02 2.22901344e-01 3.21347475e-01 2.93674052e-01
      6.17501698e-02 3.21335569e-02 2.10529659e-02 9.34540946e-03
      1.04270019e-02 4.03842665e-02 2.75119215e-01 3.21347475e-01
      2.99476951e-01 1.15257949e-01 3.59628089e-02 3.40326801e-02
      1.26876347e-02 2.71871109e-02 4.25100885e-02 1.03997819e-01
      2.99476951e-01 2.99476951e-01 1.40397653e-01 4.35814857e-02
      1.12261809e-02 1.96361868e-03 1.26040736e-02 7.09053874e-02
      1.54405102e-01 2.99476951e-01 2.99476951e-01 1.52483359e-01
      3.62467244e-02 2.77088266e-02 7.41308788e-03 1.29811177e-02
      6.01937957e-02 1.64523810e-01 2.99476951e-01 2.99476951e-01
      2.67121315e-01 4.34294418e-02 1.28638055e-02 9.22181702e-04
      7.04126991e-03 1.41741350e-01 2.22923711e-01 2.99476951e-01
      3.10919672e-01 8.74984935e-02 4.02888805e-02 7.57144811e-03
      2.88128713e-03 7.44658988e-03 5.23127951e-02 1.12397864e-01
      3.10919672e-01 3.10919672e-01 8.00368562e-02 5.12200110e-02
      1.73801556e-02 1.05713718e-02 2.08375528e-02 3.12232673e-02
      7.93573186e-02 3.10919672e-01 3.10919672e-01 1.32402048e-01
      2.64320355e-02 5.93587244e-03 3.18826846e-04 3.73929576e-03
      1.08270593e-01 2.65722126e-01 3.10919672e-01 3.10919672e-01
      1.11913547e-01 3.01389936e-02 1.21604586e-02 3.83239565e-03
      2.14018505e-02 5.33201508e-02 2.53177911e-01 3.10919672e-01
      3.20267379e-01 9.37407240e-02 3.69451120e-02 1.39812008e-02
      8.28586146e-03 2.46756282e-02 3.05901226e-02 1.02640525e-01
      3.20267379e-01 3.20267379e-01 1.16469659e-01 2.03628335e-02
      1.18895946e-02 1.23585947e-02 4.17886376e-02 4.86762486e-02
      1.08749792e-01 3.20267379e-01 3.20267379e-01 1.30776465e-01
      3.96662280e-02 1.90159827e-02 6.14131009e-03 3.05725224e-02
      6.66982979e-02 2.04824448e-01 2.97970504e-01 3.20267379e-01
      1.45930052e-01 6.38898909e-02 2.71538477e-02 9.50643793e-03
      3.78718711e-02 9.84123349e-02 1.83212623e-01 3.20267379e-01
      3.06933224e-01 1.08949505e-01 2.63374280e-02 1.44033665e-02
      6.83443993e-03 2.23748162e-02 3.28987874e-02 9.64391381e-02
      3.06933224e-01 3.06933224e-01 1.65685847e-01 5.06732836e-02
      3.36167812e-02 1.50851225e-02 2.13673674e-02 3.22641730e-02
      1.53425932e-01 3.06933224e-01 2.45755285e-01 1.80150509e-01
      4.84300256e-02 2.21463274e-02 3.30001162e-03 1.35569805e-02
      7.04235360e-02 1.68616906e-01 3.06933224e-01 3.06933224e-01
      2.71643668e-01 6.53804466e-02 1.31807830e-02 2.00130511e-03
      2.47162487e-02 7.45664835e-02 2.08988771e-01 3.06933224e-01
      2.61147141e-01 1.44980699e-01 4.46267873e-02 7.67643824e-02
      4.88485321e-02 3.58099043e-02 3.03272959e-02 1.07619643e-01
      2.61147141e-01 2.61147141e-01 1.37842074e-01 7.29975253e-02
      1.61085114e-01 1.43849745e-01 1.63213372e-01 1.24276340e-01
      1.21295549e-01 2.60907888e-01 2.43001297e-01 1.16949379e-01
      4.29336838e-02 2.79725604e-02 6.39501680e-03 3.82816270e-02
      6.26581088e-02 1.94746971e-01 2.61147141e-01 2.01367870e-01
      6.09815791e-02 9.40310881e-02 2.48988241e-01 2.61147141e-01
      2.22776294e-01 1.67541593e-01 1.89141944e-01 2.61147141e-01
      1.40370458e-01 1.22926705e-01 1.12122305e-01 1.32661104e-01
      1.87848911e-01 1.96329236e-01 1.70529440e-01 1.44404292e-01
      2.01483086e-01 1.70859769e-01 1.26361400e-01 1.16374746e-01
      1.31863147e-01 1.59163684e-01 1.27703577e-01 1.50470883e-01
      2.01403916e-01 2.15684429e-01 1.20383896e-01 6.84752613e-02
      1.04556389e-01 2.57123917e-01 2.57123917e-01 2.57123917e-01
      1.65838107e-01 1.09975554e-01 1.92523122e-01 1.37496427e-01
      6.64811581e-02 8.35904554e-02 2.31126040e-01 2.57123917e-01
      1.45363078e-01 1.70991808e-01 9.46378261e-02 1.62310362e-01
      1.09126642e-01 7.98723102e-02 6.47789985e-02 1.53033108e-01
      3.13240230e-01 1.68511584e-01 5.35960719e-02 6.22537620e-02
      7.19035566e-02 3.96439023e-02 4.85076495e-02 3.95344310e-02
      3.29493374e-01 3.29493374e-01 3.29493374e-01 6.67069778e-02
      4.37122807e-02 1.13636525e-02 9.18308124e-02 5.88295124e-02
      5.87841086e-02 2.13456973e-01 2.50580341e-01 1.55639693e-01
      9.36053991e-02 4.78323810e-02 7.81275854e-02 3.52875479e-02
      4.12929580e-02 7.53885806e-02 3.29493374e-01 3.29493374e-01
      2.54605711e-01 1.20972514e-01 5.66886440e-02 3.43010239e-02
      2.38666441e-02 5.09615429e-02 5.46891466e-02 3.16029251e-01
      3.16029251e-01 1.99602261e-01 6.02239333e-02 5.63839525e-02
      2.87111662e-02 4.42188010e-02 5.67106120e-02 1.10908233e-01
      2.50301063e-01 3.16029251e-01 2.09578618e-01 1.14972219e-01
      3.85949947e-02 6.41350001e-02 2.65901573e-02 3.64591628e-02
      7.52678588e-02 3.16029251e-01 3.16029251e-01 1.88088879e-01
      8.80535915e-02 6.44331798e-02 5.93010820e-02 8.44457299e-02
      6.66274875e-02 1.05622038e-01 2.93497562e-01 3.16029251e-01
      1.38717338e-01 8.16685185e-02 4.78797778e-02 7.43407309e-02
      1.56036243e-01 1.74649239e-01 7.48050660e-02 1.50850639e-01
      1.13637358e-01 9.72399265e-02 1.94277778e-01 1.08442903e-01
      1.05471544e-01 1.86965287e-01 2.17440650e-01 1.63476542e-01
      1.47723734e-01 1.04428664e-01 8.54559243e-02 1.42789051e-01
      7.90724382e-02 1.12475313e-01 2.25726873e-01 2.11791039e-01
      1.08447038e-01 1.55277610e-01 1.83032751e-01 2.25726873e-01
      2.25726873e-01 1.63617328e-01 2.05975249e-01 2.25726873e-01
      2.25726873e-01 1.43856004e-01 1.87689796e-01 1.92115083e-01
      1.50393143e-01 1.56405255e-01 1.41753569e-01 2.12295741e-01
      1.01373337e-01 1.21628501e-01 1.26926571e-01 9.56976563e-02
      9.15922523e-02 1.21835046e-01 1.42233580e-01 1.26672193e-01
      1.20960273e-01 1.03851318e-01 1.15270488e-01 6.69538155e-02
      1.09385580e-01 1.95366800e-01 2.38227531e-01 2.38227531e-01
      2.03466266e-01 1.44098267e-01 1.26301587e-01 1.45543307e-01
      1.28930688e-01 1.22971445e-01 1.38365269e-01 1.17389373e-01
      1.34678423e-01 1.85466334e-01 1.38967618e-01 2.38227531e-01
      2.38227531e-01 2.29637623e-01 2.26078868e-01 2.38227531e-01
      2.38227531e-01 2.15763405e-01 1.80606499e-01 1.87359750e-01
      9.18714255e-02 8.56495723e-02 5.77199198e-02 9.42572877e-02
      1.34622142e-01 2.37928942e-01 1.54849797e-01 1.90327093e-01
      1.36437401e-01 7.03096092e-02 4.94728498e-02 6.89136162e-02
      1.03721321e-01 1.43666878e-01 2.24874839e-01 1.09615080e-01
      1.90381825e-01 1.37328103e-01 1.87566534e-01 2.37928942e-01
      2.37928942e-01 2.31742665e-01 2.37928942e-01 2.12491348e-01
      1.35541394e-01 9.60635841e-02 1.54608950e-01 9.63095054e-02
      2.37928942e-01 2.37928942e-01 2.03262329e-01 2.29352087e-01
      2.12626383e-01 1.02510825e-01 1.03079237e-01 1.29311442e-01
      7.86935091e-02 7.91234747e-02 9.89570394e-02 9.87490043e-02
      1.38768226e-01 1.55206129e-01 1.46583825e-01 1.31699696e-01
      1.20126054e-01 1.26173258e-01 1.76031649e-01 1.35905355e-01
      1.14080235e-01 9.61115137e-02 1.21628843e-01 2.32767329e-01
      2.09444001e-01 2.32767329e-01 1.26195505e-01 1.66765481e-01
      2.32767329e-01 1.68976754e-01 1.93110108e-01 1.98043928e-01
      1.38270020e-01 1.18803293e-01 1.36880979e-01 2.32767329e-01
      2.32767329e-01 1.97160736e-01 2.09749877e-01 1.02493957e-01
      1.94267467e-01 2.25431994e-01 1.22446753e-01 2.32767329e-01
      2.69955844e-01 2.69955844e-01 1.69610813e-01 1.32465199e-01
      9.20636430e-02 7.59545565e-02 1.63457215e-01 1.77334055e-01
      2.44199589e-01 2.69955844e-01 2.69955844e-01 1.44135192e-01
      9.85421985e-02 7.79583603e-02 3.93901244e-02 3.65298912e-02
      9.54716280e-02 2.28625178e-01 2.69955844e-01 2.69955844e-01
      1.78278551e-01 1.21783242e-01 7.16372579e-02 6.19460754e-02
      7.87899569e-02 7.28712231e-02 2.31679797e-01 2.04542488e-01
      2.69955844e-01 1.38240024e-01 4.78090532e-02 7.53293112e-02
      2.93862987e-02 1.68050211e-02 4.16381620e-02 1.24145538e-01
      3.08085442e-01 2.99596012e-01 5.78280799e-02 4.97077592e-02
      4.10152785e-02 6.42802613e-03 1.93721689e-02 1.56490549e-01
      3.08085442e-01 3.08085442e-01 1.31099731e-01 3.22526656e-02
      5.08952066e-02 3.63681056e-02 3.55036370e-02 5.23664728e-02
      2.26724669e-01 3.08085442e-01 2.55117983e-01 2.52574265e-01
      6.82091713e-02 4.02135998e-02 4.21311967e-02 1.49837444e-02
      3.31511199e-02 9.06168148e-02 1.81804851e-01 3.08085442e-01
      1.73446685e-01 3.96408588e-02 2.88175382e-02 3.88764851e-02
      4.65474315e-02 7.97497630e-02 1.24606922e-01 2.91664660e-01
      3.12100977e-01 1.16682202e-01 2.72512585e-02 2.60487404e-02
      2.31622998e-02 3.73695791e-02 3.92031893e-02 2.16317192e-01
      3.12100977e-01 3.12100977e-01 7.57401809e-02 2.10700426e-02
      9.34287440e-03 4.45205392e-03 1.20106386e-02 3.40756811e-02
      2.79969066e-01 3.12100977e-01 2.85308450e-01 1.96925014e-01
      3.41807157e-02 2.39945315e-02 3.21851745e-02 4.49026376e-02
      4.43132333e-02 1.00715727e-01 2.63967454e-01 3.12100977e-01
      1.37325555e-01 3.42105143e-02 2.90272422e-02 1.38913477e-02
      2.27297843e-02 2.72277836e-02 1.79108262e-01 3.12100977e-01
      3.07720929e-01 8.92599896e-02 1.31113352e-02 8.33280105e-03
      3.17350053e-03 9.58459917e-03 3.41234654e-02 1.69995055e-01
      3.07720929e-01 3.07720929e-01 2.03766540e-01 2.37870105e-02
      1.98108032e-02 7.29003875e-03 2.36235987e-02 7.32618868e-02
      1.99658588e-01 3.07720929e-01 3.07720929e-01 9.19478312e-02
      2.09651310e-02 1.52625637e-02 1.22109940e-02 2.08147950e-02
      3.52390371e-02 1.95928872e-01 3.07720929e-01 3.04357231e-01
      1.31342813e-01 1.79768037e-02 2.81925295e-02 1.87400281e-02
      4.92814630e-02 4.87038493e-02 2.04675436e-01 3.07720929e-01
      3.01282138e-01 1.19597673e-01 1.97260808e-02 2.54503489e-02
      1.62512169e-03 1.46633824e-02 6.88132569e-02 2.33154044e-01
      3.01282138e-01 3.01282138e-01 8.65942687e-02 1.06916688e-02
      1.06049431e-02 0. 9.28762555e-03 7.26311281e-02 3.01282138e-01
      3.01282138e-01 2.99318671e-01 8.15325603e-02 2.12291963e-02
      4.36858684e-02 4.06458555e-03 2.72013731e-02 3.32932658e-02
      1.35867417e-01 3.01282138e-01 3.01282138e-01 8.71585086e-02
      1.83766354e-02 1.87431090e-02 0. 6.50099572e-03 6.74791336e-02
      2.26443186e-01 3.01282138e-01 3.28215092e-01 8.90344307e-02
      1.51299592e-02 5.09359222e-03 1.25023269e-03 5.55238361e-03
      5.32897264e-02 1.88769624e-01 3.28215092e-01 3.28215092e-01
      1.26914516e-01 3.21566202e-02 1.13194985e-02 3.28478054e-03
      5.55580389e-03 3.73626016e-02 1.34006545e-01 3.28215092e-01
      3.28215092e-01 8.85131806e-02 2.10922044e-02 3.70920240e-03
      7.28447631e-05 3.26758903e-03 4.74137254e-02 1.37565300e-01
      3.28215092e-01 3.28215092e-01 1.13869242e-01 2.32138112e-02
      1.33225191e-02 3.10041639e-03 3.45773622e-03 1.53015610e-02
      9.02885050e-02 3.28215092e-01 3.20393801e-01 1.49611503e-01
      2.88726408e-02 1.32603273e-02 1.68153585e-03 8.28086212e-03
      2.92418506e-02 1.31228447e-01 3.20393801e-01 3.20393801e-01
      1.93851694e-01 4.59868722e-02 1.49481753e-02 1.44442695e-03
      2.62778141e-02 3.55894268e-02 1.51066750e-01 3.20393801e-01
      3.20393801e-01 1.13916196e-01 4.16407250e-02 2.88047567e-02
      4.23019426e-03 1.59689542e-02 9.24956053e-03 8.81961286e-02
      3.20393801e-01 3.20393801e-01 1.25560805e-01 6.61147088e-02
      4.26526442e-02 5.08883502e-03 3.61213386e-02 1.91446841e-02
      1.48367763e-01 3.20393801e-01 2.67316252e-01 1.02625854e-01
      6.66531920e-02 4.11901027e-02 6.11570571e-03 2.15208381e-02
      3.91562954e-02 1.60300419e-01 2.67316252e-01 2.04022676e-01
      9.57124755e-02 1.57823995e-01 2.67316252e-01 2.67316252e-01
      1.21010132e-01 9.46186781e-02 1.55343398e-01 2.67316252e-01
      2.67316252e-01 9.24985409e-02 6.56638294e-02 4.92124222e-02
      1.21810921e-02 2.53236592e-02 1.97807644e-02 1.54864922e-01
      2.67316252e-01 2.67316252e-01 1.66639462e-01 1.30387932e-01
      1.87655181e-01 1.64058611e-01 9.30472091e-02 3.84942740e-02
      1.76587641e-01 2.62992799e-01 8.44572484e-02 6.57101795e-02
      9.15500447e-02 2.78960198e-01 2.78960198e-01 1.61686450e-01
      7.10243583e-02 7.07053542e-02 9.18384418e-02 7.30862767e-02
      5.89033850e-02 5.64138703e-02 2.25924268e-01 2.78960198e-01
      1.28214404e-01 8.39495733e-02 3.87127027e-02 1.03956461e-01
      2.68379033e-01 1.31461665e-01 9.33267176e-02 1.73877984e-01
      2.78960198e-01 1.21058866e-01 2.78329533e-02 1.44921958e-01
      2.24413544e-01 2.03924388e-01 1.09656289e-01 8.31657723e-02
      1.19219318e-01 2.78960198e-01 2.26979241e-01 8.64688754e-02
      1.41684100e-01 2.75646806e-01 4.02709395e-02 5.24359010e-02
      5.78416660e-02 1.55270353e-01 1.97511643e-01 1.26328066e-01
      9.14966166e-02 6.17281422e-02 9.14398804e-02 1.64493937e-02
      3.91420238e-02 9.94063616e-02 2.78430670e-01 2.78430670e-01
      2.03524530e-01 1.50488317e-01 8.15298781e-02 7.71996975e-02
      6.52182326e-02 7.75736794e-02 6.70397729e-02 1.62606001e-01
      2.78430670e-01 2.78430670e-01 1.41402140e-01 1.78435326e-01
      1.94246173e-01 7.16121495e-02 5.15612476e-02 1.92496717e-01
      2.78430670e-01 2.78430670e-01 2.78430670e-01 1.92654118e-01
      1.55015901e-01 1.48642287e-01 4.71547581e-02 2.48293858e-02
      8.75049010e-02 2.57568359e-01 2.57568359e-01 1.71756506e-01
      9.53604579e-02 7.32315928e-02 1.00334667e-01 1.49529174e-01
      6.70246482e-02 7.62744099e-02 2.04158545e-01 2.57568359e-01
      1.05612166e-01 6.38148189e-02 5.70550449e-02 1.09233849e-01
      1.55627266e-01 6.91558719e-02 2.18552679e-01 2.57568359e-01
      2.57568359e-01 1.66271687e-01 1.27208143e-01 9.29195136e-02
      2.46937230e-01 2.42342129e-01 9.46324319e-02 8.76006782e-02
      1.30594254e-01 2.57568359e-01 2.09972337e-01 1.61196306e-01
      1.08425789e-01 2.56207973e-01 2.25091502e-01 1.60382375e-01
      9.60336626e-02 1.09625727e-01 1.80989310e-01 2.25091502e-01
      2.25091502e-01 1.53708786e-01 1.19089358e-01 2.16334909e-01
      1.46704003e-01 1.00585669e-01 1.47190347e-01 1.80943847e-01
      1.11871734e-01 1.48712486e-01 1.93575382e-01 1.19880244e-01
      2.25091502e-01 2.25091502e-01 1.03260279e-01 1.10963322e-01
      1.78175986e-01 2.25091502e-01 2.21102610e-01 1.16267979e-01
      1.41716227e-01 2.11642727e-01 2.22644940e-01 1.29175752e-01
      1.27887279e-01 1.56899452e-01 1.15143932e-01 1.39451638e-01
      1.33644015e-01 1.30794227e-01 1.22928970e-01 1.00252964e-01
      1.11256868e-01 1.28153205e-01 1.09803967e-01 8.08381811e-02
      6.63805827e-02 1.30785868e-01 9.67542976e-02 2.51486868e-01
      2.30020195e-01 2.59692341e-01 2.59692341e-01 1.57299310e-01
      1.61405429e-01 1.10892959e-01 9.37792808e-02 1.49274215e-01
      1.89401686e-01 1.55989900e-01 1.90294400e-01 1.92893609e-01
      1.53913394e-01 8.62420723e-02 7.96582848e-02 8.48524794e-02
      1.37946546e-01 2.17902407e-01 2.59692341e-01 2.59692341e-01
      2.59692341e-01 1.86266914e-01 9.85249206e-02 9.94980857e-02
      1.02436535e-01 1.91956729e-01 1.39203966e-01 2.55672067e-01
      2.55672067e-01 2.55672067e-01 1.45907164e-01 1.02964051e-01
      8.59444961e-02 6.34001642e-02 8.17818865e-02 4.40946184e-02
      2.55672067e-01 2.55672067e-01 1.78114295e-01 1.91548273e-01
      1.24023780e-01 7.34238699e-02 5.66546321e-02 7.39511102e-02
      1.23761013e-01 2.55672067e-01 2.55672067e-01 2.55672067e-01
      1.61418051e-01 6.20859042e-02 5.63299395e-02 9.66776535e-02
      8.19667876e-02 1.04649998e-01 2.28261679e-01 2.55672067e-01
      2.13139713e-01 1.80997923e-01 1.19478188e-01 6.16857596e-02
      7.12950528e-02 1.05285466e-01 6.02447949e-02 1.77141204e-01
      2.48528227e-01 1.30568743e-01 1.42545089e-01 1.21239081e-01
      8.29632804e-02 6.91573098e-02 8.75414610e-02 1.35949761e-01
      1.53697774e-01 1.68232396e-01 1.46276832e-01 1.03021726e-01
      1.55529901e-01 1.54138714e-01 8.46628994e-02 1.57847092e-01
      7.99216479e-02 2.48528227e-01 2.48528227e-01 2.13033825e-01
      2.05798075e-01 1.77774683e-01 6.87702969e-02 4.92199995e-02
      1.09021261e-01 1.70728013e-01 2.48528227e-01 2.48528227e-01
      2.17955425e-01 2.14268312e-01 2.26678178e-01 1.63026839e-01
      1.22977681e-01 1.98541090e-01 1.93858162e-01 1.38626546e-01
      7.41604343e-02 7.71341920e-02 6.11861311e-02 9.02626887e-02
      9.21142623e-02 9.39716324e-02 1.83709562e-01 2.22891033e-01
      1.60250589e-01 3.79554108e-02 1.06811374e-02 2.54402403e-02
      2.31798161e-02 3.32741551e-02 8.08071122e-02 2.11071447e-01
      2.79977649e-01 1.71191886e-01 1.60323381e-01 9.16611850e-02
      1.21952631e-01 1.57153428e-01 1.78728893e-01 2.79977649e-01
      2.79977649e-01 2.79977649e-01 2.35243991e-01 1.42311931e-01
      1.89219356e-01 9.04431492e-02 3.93913984e-02 9.66013595e-02
      2.79977649e-01 2.79977649e-01 2.03324392e-01 9.82446596e-02
      3.46664190e-02 1.63954999e-02 1.80737823e-02 1.10216830e-02
      4.49965112e-02 5.97226657e-02 2.20386788e-01 1.97754055e-01
      8.46452415e-02 4.39826064e-02 3.85782458e-02 4.66204993e-02
      1.35018481e-02 4.76530157e-02 6.35452196e-02 2.35357836e-01
      2.55789191e-01 1.67820334e-01 1.81047037e-01 1.65864974e-01
      1.67476848e-01 8.65732729e-02 2.26215363e-01 2.55789191e-01
      2.55789191e-01 2.37679094e-01 1.58950374e-01 1.61549017e-01
      2.10200772e-01 2.55789191e-01 1.31381497e-01 1.98946521e-01
      2.55789191e-01 2.55789191e-01 1.58516183e-01 1.53617457e-01
      4.35477570e-02 4.50310707e-02 3.81791778e-02 2.16163769e-02
      4.94009405e-02 6.61736503e-02 1.58968821e-01 2.88650483e-01
      1.30400479e-01 3.65369022e-02 2.98788510e-02 1.61211118e-02
      2.78305300e-02 4.16250154e-02 9.27863568e-02 2.13147417e-01
      2.45927051e-01 2.88650483e-01 1.42356738e-01 2.03918114e-01
      1.71575785e-01 7.36991689e-02 1.59204409e-01 2.10110381e-01
      2.88650483e-01 2.88650483e-01 2.88650483e-01 9.41948816e-02
      1.30112141e-01 4.48314622e-02 6.29401281e-02 1.46023095e-01
      2.33900025e-01 2.88650483e-01 3.24186057e-01 9.36776325e-02
      3.46839763e-02 1.80463511e-02 2.26444453e-02 2.22741142e-02
      4.53382172e-02 9.44963396e-02 2.23096296e-01 2.98928261e-01
      1.04843542e-01 2.73932740e-02 1.88497882e-02 1.50908548e-02
      4.29459326e-02 5.61398268e-02 1.38190791e-01 2.03255370e-01
      3.24186057e-01 1.98952019e-01 9.65903774e-02 1.29582524e-01
      1.39153689e-01 7.60108232e-02 6.95030838e-02 1.57276243e-01
      3.24186057e-01 3.24186057e-01 1.50029480e-01 6.39105886e-02
      5.80000579e-02 1.09325059e-01 8.50454122e-02 1.19358264e-01
      2.19815642e-01 3.24186057e-01 2.45134294e-01 8.54513645e-02
      1.98733453e-02 2.11836752e-02 2.44970503e-03 2.63409875e-02
      5.26049957e-02 1.48201153e-01 2.15067327e-01 3.20782632e-01
      1.22323975e-01 3.53201292e-02 1.14799924e-02 0. 3.92783061e-03
      5.66285178e-02 1.67012975e-01 3.20782632e-01 3.20782632e-01
      1.23203054e-01 1.56602655e-02 9.53704026e-03 1.29248491e-02
      2.86099669e-02 1.03533946e-01 2.52575040e-01 3.20782632e-01
      3.20782632e-01 2.21993983e-01 3.05033326e-02 9.11580957e-03
      9.92485136e-03 1.06703602e-02 4.47309278e-02 2.20191807e-01
      3.20782632e-01 3.23744982e-01 8.48083943e-02 3.87646519e-02
      3.59755033e-03 4.56200156e-04 6.20556530e-03 3.26178893e-02
      7.91141540e-02 2.80073732e-01 3.23744982e-01 8.20201412e-02
      3.86785977e-02 1.44242281e-02 1.24704689e-02 1.49925733e-02
      3.53131555e-02 6.71613291e-02 3.23744982e-01 3.23744982e-01
      1.78398937e-01 4.15242165e-02 8.38300120e-03 2.44565178e-02
      1.72726661e-02 2.99882703e-02 1.26526088e-01 3.23744982e-01
      3.23744982e-01 1.68345824e-01 6.43739104e-02 4.26218882e-02
      5.73199280e-02 4.88523915e-02 1.17710695e-01 2.20804915e-01
      3.23744982e-01 2.23431468e-01 7.44813457e-02 3.48349698e-02
      2.10239161e-02 1.02504585e-02 1.43793784e-02 1.98012944e-02
      6.59261197e-02 2.88885057e-01 2.13843569e-01 1.03322156e-01
      3.72702442e-02 2.66751852e-02 6.48166472e-03 1.81637537e-02
      3.08100376e-02 1.39333367e-01 2.88885057e-01 2.85343140e-01
      1.96826592e-01 1.18170649e-01 8.62480327e-02 7.62093514e-02
      3.96248139e-02 7.52620026e-02 1.98511615e-01 2.88885057e-01
      2.88885057e-01 2.88885057e-01 2.01831311e-01 1.31124005e-01
      8.17038119e-02 4.40911576e-02 1.04659915e-01 2.88885057e-01
      2.88885057e-01 1.78508863e-01 6.61858246e-02 2.08448730e-02
      1.85354576e-02 7.90594425e-03 1.84405409e-02 3.50020640e-02
      1.73215196e-01 3.01209778e-01 2.78390735e-01 8.81762952e-02
      3.56898680e-02 2.23493148e-02 2.47370750e-02 3.97914611e-02
      3.62377614e-02 1.42606884e-01 2.57650077e-01 3.01209778e-01
      1.91116065e-01 1.17400378e-01 7.27023780e-02 3.45623195e-02
      5.15254587e-02 1.06237002e-01 3.01209778e-01 3.01209778e-01
      3.01209778e-01 1.65875077e-01 5.73300421e-02 4.87526171e-02
      2.65665408e-02 7.96014667e-02 7.08185062e-02 3.01209778e-01
      3.01209778e-01 2.49605253e-01 8.22396651e-02 4.39321846e-02
      2.75937747e-02 4.51198369e-02 3.88824195e-02 2.14537401e-02
      1.14002660e-01 2.28774309e-01 1.94761932e-01 8.35260153e-02
      7.00659603e-02 8.99271145e-02 2.87740499e-01 2.42511451e-01
      8.33856091e-02 1.18758343e-01 2.60570079e-01 2.87740499e-01
      1.11402422e-01 4.47137393e-02 4.21131290e-02 2.52013225e-02
      3.61505374e-02 3.26576829e-02 1.25907883e-01 2.87740499e-01
      2.87740499e-01 1.42631531e-01 1.20841838e-01 1.32542998e-01
      2.87740499e-01 2.12578580e-01 6.40473962e-02 1.29370391e-01
      2.87740499e-01 4.81383353e-02 3.97810601e-02 7.29352608e-02
      1.62907571e-01 2.59655565e-01 2.59655565e-01 1.19171873e-01
      9.72768590e-02 1.02639191e-01 6.85203969e-02 4.72498685e-02
      1.12544276e-01 2.59655565e-01 2.59655565e-01 2.59655565e-01
      1.53805807e-01 9.68398899e-02 5.91358207e-02 9.14297700e-02
      8.61421824e-02 1.37150824e-01 2.19352096e-01 2.59655565e-01
      2.59655565e-01 9.19453204e-02 1.23598769e-01 1.69149041e-01
      8.86595994e-02 7.20635131e-02 1.20048210e-01 2.59655565e-01
      2.59655565e-01 2.59655565e-01 1.44062310e-01 1.01079397e-01
      6.02370948e-02 9.92884561e-02 7.66851678e-02 1.18490987e-01
      2.47383639e-01 2.75184959e-01 2.13315696e-01 1.09389015e-01
      7.45020509e-02 1.29833922e-01 9.33386832e-02 8.02206621e-02
      9.27511752e-02 1.52595520e-01 2.75184959e-01 2.50971198e-01
      1.36850759e-01 7.73300156e-02 1.27000540e-01 6.61575943e-02
      5.49487211e-02 8.15142617e-02 2.75184959e-01 2.75184959e-01
      2.75184959e-01 1.06614217e-01 6.74498677e-02 3.92592698e-02
      3.30239236e-02 6.17810190e-02 1.60409242e-01 2.69268930e-01
      2.75184959e-01 2.75184959e-01 8.66554752e-02 4.49205413e-02
      3.57682779e-02 2.07469702e-01 2.30282024e-01 1.64743274e-01
      1.67373478e-01 1.66908115e-01 1.44849211e-01 1.25725880e-01
      9.91756618e-02 1.34394884e-01 1.81353167e-01 2.30282024e-01
      1.78580523e-01 1.26294091e-01 1.61320761e-01 1.32600605e-01
      5.64675815e-02 6.14082031e-02 1.11608759e-01 2.30282024e-01
      2.15363070e-01 1.58352926e-01 1.94241762e-01 2.30282024e-01
      1.34890288e-01 7.57925510e-02 9.62711573e-02 1.32103369e-01
      1.96006447e-01 2.30282024e-01 2.30282024e-01 1.56583294e-01
      2.30282024e-01 1.63843751e-01 1.25377595e-01 1.18064307e-01
      1.12727627e-01 1.34967595e-01 1.99279815e-01 2.36831263e-01
      1.21416301e-01 1.02248013e-01 7.32705221e-02 6.33687899e-02
      5.72492965e-02 8.68746936e-02 1.33675605e-01 2.75168866e-01
      2.75168866e-01 2.05673531e-01 1.54689252e-01 8.68651792e-02
      1.02291189e-01 6.26168847e-02 8.88591111e-02 1.24034338e-01
      2.75168866e-01 2.75168866e-01 1.91002488e-01 1.28345177e-01
      1.15766972e-01 7.78761879e-02 9.23301280e-02 8.94160494e-02
      1.31818101e-01 2.75168866e-01 2.75168866e-01 2.57174730e-01
      1.48727804e-01 1.96956903e-01 1.06694952e-01 6.87980279e-02
      6.87367842e-02 1.26929983e-01 2.44904205e-01 2.44904205e-01
      2.03094915e-01 1.63068116e-01 7.89643079e-02 7.70041496e-02
      6.26548156e-02 5.87607250e-02 1.19023003e-01 2.08337888e-01
      2.44904205e-01 2.01630831e-01 1.63721606e-01 1.09976329e-01
      7.06298873e-02 9.59895477e-02 8.02745596e-02 1.21315621e-01
      2.44904205e-01 2.44904205e-01 2.13003978e-01 1.13740280e-01
      1.72872186e-01 1.52039215e-01 7.09461793e-02 7.73297101e-02
      1.28676876e-01 2.44904205e-01 2.44904205e-01 2.44904205e-01
      1.48294851e-01 1.52507529e-01 1.61042109e-01 1.57500297e-01
      8.29127282e-02 7.67912194e-02 2.07663327e-01 2.38557532e-01
      1.74592420e-01 1.39763772e-01 9.72595215e-02 7.14000687e-02
      6.52564764e-02 6.82353526e-02 2.38557532e-01 1.86411321e-01
      2.37530738e-01 1.48127034e-01 1.19649328e-01 1.27687007e-01
      1.23237915e-01 1.49992943e-01 1.93636239e-01 1.23515353e-01
      2.38557532e-01 2.38557532e-01 2.38557532e-01 1.30978420e-01
      8.70728493e-02 1.39561892e-01 1.12892739e-01 1.04864188e-01
      2.38557532e-01 1.80821851e-01 1.22508049e-01 1.24587975e-01
      8.26041624e-02 6.61261380e-02 2.32018620e-01 2.15311736e-01
      2.38557532e-01 2.73994863e-01 1.00805722e-01 6.94746077e-02
      6.32496700e-02 5.29243946e-02 6.40362278e-02 7.11428821e-02
      1.62437394e-01 2.73994863e-01 2.73994863e-01 1.52779534e-01
      1.47311255e-01 2.02101573e-01 9.56810862e-02 2.00211462e-02
      4.28917967e-02 1.19146951e-01 2.73994863e-01 2.73994863e-01
      1.33445546e-01 7.32942596e-02 6.89895749e-02 5.98015934e-02
      3.83448899e-02 1.07917339e-01 2.23835826e-01 2.73994863e-01
      2.73994863e-01 1.35551825e-01 1.58243954e-01 1.62144020e-01
      1.46864787e-01 4.28356044e-02 9.59753469e-02 1.75510079e-01
      2.73994863e-01 2.21360087e-01 1.49419874e-01 1.44674838e-01
      1.97787821e-01 1.56505421e-01 7.49952272e-02 1.18485607e-01
      1.67182475e-01 1.91172764e-01 1.79127291e-01 1.61320925e-01
      1.33029193e-01 2.18267366e-01 1.91098332e-01 1.07678622e-01
      9.74044427e-02 1.81993440e-01 1.47889391e-01 2.10716367e-01
      1.34141877e-01 1.32895038e-01 1.74877152e-01 1.50515288e-01
      7.99794272e-02 1.34428114e-01 1.58993617e-01 2.21360087e-01
      1.72112197e-01 1.68316305e-01 1.63881972e-01 2.21360087e-01
      1.82074115e-01 2.01007560e-01 1.72070578e-01 1.24152929e-01
      1.93095282e-01 1.58863813e-01 2.24713579e-01 1.76463678e-01
      1.81666538e-01 8.18648711e-02 3.76320854e-02 6.26912042e-02
      1.01987600e-01 1.80737823e-01 2.33200580e-01 1.81959361e-01
      1.05395064e-01 1.27764016e-01 5.71233556e-02 4.95771617e-02
      9.05280858e-02 2.08915368e-01 2.33200580e-01 1.46195889e-01
      2.20936850e-01 1.76657721e-01 2.33200580e-01 1.68918625e-01
      1.77240506e-01 1.95595130e-01 1.10394843e-01 1.69842675e-01
      2.32279077e-01 1.76387176e-01 1.24358565e-01 1.65865496e-01
      1.27880290e-01 1.09752111e-01 1.74640983e-01 1.98672548e-01
      2.33200580e-01 2.60372162e-01 1.13816530e-01 6.38182685e-02
      8.04930776e-02 8.71993303e-02 7.78001621e-02 5.83882518e-02
      1.72712520e-01 2.65112877e-01 2.65112877e-01 1.09457463e-01
      6.34113774e-02 3.82441916e-02 6.18722551e-02 6.07351139e-02
      9.23765600e-02 1.63808674e-01 2.65112877e-01 2.43018389e-01
      1.35153025e-01 8.14380348e-02 1.05056725e-01 9.90894735e-02
      1.04878925e-01 1.32553756e-01 2.17613786e-01 2.65112877e-01
      2.65112877e-01 1.19055346e-01 1.04316689e-01 1.31969690e-01
      1.26122028e-01 1.27213508e-01 2.34268621e-01 2.58682042e-01
      2.65112877e-01 2.97290832e-01 7.09647313e-02 3.81492339e-02
      1.71387978e-02 2.74464637e-02 2.84407716e-02 7.94093162e-02
      1.59640014e-01 2.97290832e-01 2.97290832e-01 5.98272197e-02
      1.39174396e-02 1.76760498e-02 3.76533233e-02 4.07296866e-02
      2.42484976e-02 1.81677535e-01 2.97290832e-01 2.83040702e-01
      7.60078281e-02 9.77621973e-02 8.43501166e-02 1.04178965e-01
      9.07075405e-02 2.03473613e-01 2.18710780e-01 2.97290832e-01
      2.44820565e-01 1.12919420e-01 6.77285790e-02 6.91572726e-02
      1.09134987e-01 1.25676110e-01 1.45642772e-01 2.09738329e-01
      2.97290832e-01 2.45467588e-01 1.12160452e-01 2.41713561e-02
      4.17762250e-02 5.80176935e-02 3.62148285e-02 1.57435387e-02
      1.10173479e-01 2.45467588e-01 2.45467588e-01 2.18350112e-01
      6.33815974e-02 1.30572468e-01 1.18197724e-01 4.81281206e-02
      4.52739000e-02 1.21646494e-01 2.45467588e-01 2.02473044e-01
      1.93397969e-01 1.72061265e-01 1.41932115e-01 1.87193215e-01
      1.33268848e-01 1.60726517e-01 1.25715807e-01 2.45467588e-01
      1.61562011e-01 2.45467588e-01 2.45467588e-01 2.45467588e-01
      2.45467588e-01 1.83193743e-01 1.12377189e-01 7.62530193e-02
      1.43923789e-01 1.06029525e-01 2.28281230e-01 1.61033720e-01
      1.44003794e-01 8.58525485e-02 3.72425206e-02 6.04301952e-02
      9.75357816e-02 1.60223052e-01 1.85488373e-01 2.44192705e-01
      2.44192705e-01 1.92139372e-01 1.14086561e-01 6.18045293e-02
      1.15434326e-01 9.97656584e-02 2.20200330e-01 7.80835748e-02
      2.44192705e-01 2.26453260e-01 2.44192705e-01 2.44192705e-01
      1.13636523e-01 9.49874520e-02 5.59805147e-02 5.78459464e-02
      9.48400423e-02 2.44192705e-01 2.44192705e-01 2.44192705e-01
      2.44192705e-01 1.67789370e-01 1.30005956e-01 4.01030518e-02
      4.35204431e-02 1.84992895e-01 1.72022253e-01 1.53622717e-01
      1.61582202e-01 8.49514753e-02 6.72698393e-02 7.93536305e-02
      1.20743588e-01 2.48055562e-01 2.49648049e-01 1.19765647e-01
      5.72892874e-02 1.05626479e-01 3.53612192e-02 7.17077404e-02
      3.96848693e-02 1.70621425e-01 2.54789978e-01 1.10808767e-01
      1.89380482e-01 2.12935150e-01 2.54789978e-01 2.54789978e-01
      1.92160770e-01 5.52735589e-02 3.18645686e-02 7.33352527e-02
      2.54789978e-01 1.29896000e-01 1.22245088e-01 2.54789978e-01
      1.94054008e-01 1.14551939e-01 3.61151993e-02 2.19837233e-01
      2.54789978e-01 2.88630188e-01 8.27233493e-02 2.09540818e-02
      6.09022491e-02 1.96723416e-02 2.53605880e-02 2.53036823e-02
      1.20231092e-01 2.88630188e-01 2.88630188e-01 1.02758080e-01
      7.44593963e-02 6.19817600e-02 9.13402662e-02 5.00662141e-02
      4.97563519e-02 8.83594751e-02 2.88630188e-01 2.88630188e-01
      9.50517580e-02 5.20089827e-02 9.31509659e-02 5.32421805e-02
      4.11592163e-02 5.43115363e-02 2.88630188e-01 2.88630188e-01
      2.88630188e-01 1.49328530e-01 8.44458863e-02 7.91749284e-02
      1.00573592e-01 8.38268921e-02 1.22925222e-01 2.88630188e-01
      2.88630188e-01 1.68586522e-01 1.30022347e-01 1.51780024e-01
      1.52355716e-01 1.93625033e-01 1.95824057e-01 1.06396332e-01
      1.42231420e-01 2.28746533e-01 7.76538327e-02 8.00458342e-02
      1.23612851e-01 2.03629196e-01 2.11760774e-01 2.28746533e-01
      1.54534265e-01 1.18524753e-01 1.13288522e-01 2.06738263e-01
      1.40183866e-01 1.22689895e-01 1.28568649e-01 1.45536244e-01
      1.80655986e-01 2.20591307e-01 2.28746533e-01 2.14666665e-01
      4.09483500e-02 6.41143173e-02 9.56461132e-02 1.91910923e-01
      2.23663673e-01 2.07356721e-01 1.95450589e-01 1.74516916e-01
      1.44937515e-01 3.84938233e-02 2.23306548e-02 8.80064070e-02
      2.77134389e-01 2.77134389e-01 2.48124257e-01 9.78663266e-02
      4.23485525e-02 2.58965679e-02 2.36122869e-02 2.86891144e-02
      1.09879084e-01 2.67046869e-01 2.77134389e-01 2.77134389e-01
      7.90832788e-02 4.59539890e-02 2.25120801e-02 3.96872312e-02
      5.48560210e-02 9.90991518e-02 2.77134389e-01 2.77134389e-01
      2.28673264e-01 1.11958802e-01 4.88564409e-02 2.99652535e-02
      5.26356250e-02 9.71419290e-02 1.16954945e-01 2.77134389e-01
      2.77134389e-01 2.77134389e-01 1.08053245e-01 8.12424645e-02
      4.84597757e-02 1.72966868e-01 1.26285970e-01 7.95686543e-02
      8.48142281e-02 2.57210135e-01 9.24643278e-02 4.86661904e-02
      5.40700331e-02 1.32002577e-01 1.78979605e-01 2.60237277e-01
      2.60237277e-01 1.32738128e-01 2.60237277e-01 1.07895710e-01
      9.73334387e-02 8.14750716e-02 1.45368293e-01 1.71253368e-01
      1.23721272e-01 1.78399503e-01 9.11286771e-02 1.85800612e-01
      1.04360402e-01 7.53453746e-02 6.32027090e-02 1.23051442e-01
      2.60237277e-01 2.60237277e-01 2.60237277e-01 2.03896001e-01
      2.60237277e-01 1.44346699e-01 1.57738984e-01 9.00636688e-02
      1.32622704e-01 1.06521003e-01 2.68883407e-01 2.68883407e-01
      1.88401446e-01 1.56706080e-01 1.01834014e-01 4.93742377e-02
      4.84704524e-02 8.38121623e-02 1.44263774e-01 2.22876981e-01
      2.68883407e-01 2.56573915e-01 1.48114160e-01 1.35684684e-01
      4.37195338e-02 4.41256016e-02 5.96929304e-02 1.07771382e-01
      2.68883407e-01 2.68883407e-01 1.95308283e-01 2.30615154e-01
      1.11057445e-01 8.20997283e-02 4.29212786e-02 4.11934294e-02
      1.18228212e-01 1.36150867e-01 2.68883407e-01 2.68883407e-01
      1.95870429e-01 7.51448572e-02 6.09076694e-02 6.47361875e-02
      5.97854480e-02 1.54047459e-01 1.85139552e-01 2.29504585e-01
      2.29504585e-01 1.04674138e-01 1.31261811e-01 9.75384042e-02
      8.11717957e-02 1.22932263e-01 2.29504585e-01 2.29504585e-01
      2.29504585e-01 2.13284656e-01 7.48707280e-02 1.23423740e-01
      1.58578247e-01 1.47200391e-01 1.42469898e-01 1.78337038e-01
      1.15555324e-01 2.21372664e-01 2.17724025e-01 1.78023845e-01
      1.04596473e-01 6.74399585e-02 1.45174846e-01 1.87228933e-01
      2.29504585e-01 1.98859468e-01 1.66603416e-01 1.42877862e-01
      1.03297412e-01 1.41903296e-01 7.57980421e-02 1.32502511e-01
      2.10043773e-01 2.77109325e-01 2.46088937e-01 2.77109325e-01
      2.01247320e-01 8.54472294e-02 1.05039656e-01 1.39808893e-01
      1.07522301e-01 2.77109325e-01 2.77109325e-01 1.97708428e-01
      1.39340773e-01 9.86483321e-02 8.06706399e-02 8.80699754e-02
      2.14969426e-01 1.94182605e-01 2.77109325e-01 2.24992141e-01
      1.22053377e-01 1.02381155e-01 8.37263539e-02 4.23106775e-02
      7.28029013e-02 5.47904819e-02 4.74295355e-02 1.82494327e-01
      2.37854764e-01 1.14069708e-01 6.33943453e-02 2.23016236e-02
      2.57245414e-02 5.55595271e-02 5.21349944e-02 1.01714775e-01
      2.77109325e-01 2.57972807e-01 2.35801309e-01 1.84697956e-01
      1.16275646e-01 1.02143161e-01 6.44004792e-02 1.41802043e-01
      2.57972807e-01 2.57972807e-01 2.31788784e-01 2.38464072e-01
      2.56725609e-01 1.45984396e-01 1.44681826e-01 1.15670331e-01
      1.47154465e-01 2.57972807e-01 2.57972807e-01 1.35923728e-01
      1.65336221e-01 9.26452652e-02 4.01344784e-02 3.95599082e-02
      3.95538881e-02 3.83552425e-02 1.25522643e-01 2.57972807e-01
      1.51160806e-01 1.80106491e-01 1.11068562e-01 5.06688878e-02
      5.04813343e-02 8.15137774e-02 5.41713722e-02 1.42586082e-01
      1.65557355e-01 1.80996463e-01 2.01239049e-01 1.95662141e-01
      1.18994579e-01 1.07624277e-01 1.42337188e-01 2.33806938e-01
      2.45312244e-01 2.45312244e-01 1.66545302e-01 1.63088769e-01
      1.44308299e-01 2.08267763e-01 2.04481825e-01 2.45312244e-01
      2.45312244e-01 1.94725335e-01 2.45312244e-01 1.82342768e-01
      1.71139821e-01 8.87903571e-02 4.43708785e-02 5.56510612e-02
      8.97771716e-02 9.29911062e-02 1.41795367e-01 1.72031388e-01
      1.50199860e-01 1.01308979e-01 6.06117472e-02 5.69563247e-02
      7.24564642e-02 1.31962448e-01 1.87938303e-01 1.10158041e-01
      1.85543492e-01 1.60030231e-01 1.05299599e-01 5.56931980e-02
      1.32504553e-01 1.64596573e-01 2.46219352e-01 2.46219352e-01
      1.98856637e-01 1.89455628e-01 2.46219352e-01 2.22820908e-01
      8.47368240e-02 1.06570601e-01 8.85347426e-02 1.24381557e-01
      2.46219352e-01 2.39383921e-01 2.46219352e-01 1.47693574e-01
      4.91763875e-02 3.05161215e-02 2.51104422e-02 5.11748083e-02
      1.02885976e-01 2.36192241e-01 1.41336158e-01 1.70996338e-01
      2.31830180e-01 1.97344229e-01 6.18747808e-02 3.60707045e-02
      6.33274540e-02 7.36330822e-02 1.60710216e-01 2.19154701e-01
      2.46219352e-01 2.44450137e-01 1.47066087e-01 9.26371068e-02
      1.08127996e-01 3.98089550e-02 4.38286737e-02 1.07771225e-01
      2.12384671e-01 2.77595669e-01 2.77595669e-01 7.42687806e-02
      7.77940601e-02 1.40255928e-01 8.89990628e-02 6.80624396e-02
      2.27621734e-01 2.76760787e-01 2.77595669e-01 2.39380717e-01
      1.31737188e-01 8.16984102e-02 5.46543598e-02 3.73445228e-02
      3.10873035e-02 5.67010976e-02 1.90701425e-01 2.77595669e-01
      2.77595669e-01 7.52473846e-02 5.90916015e-02 6.06143698e-02
      6.11047931e-02 2.80203335e-02 9.70539823e-02 2.18528107e-01
      2.77595669e-01 2.82092810e-01 1.03971019e-01 4.20207717e-02
      6.33725002e-02 6.90842047e-02 5.10313213e-02 1.55331343e-01
      2.05926910e-01 2.90853530e-01 2.62552202e-01 1.78363249e-01
      1.05502911e-01 6.92940056e-02 7.59056285e-02 7.05616251e-02
      1.47452399e-01 1.95619777e-01 2.90853530e-01 2.90853530e-01
      1.33592039e-01 2.13733427e-02 2.73839049e-02 4.01780531e-02
      2.70538721e-02 6.00535050e-02 1.61279842e-01 2.90853530e-01
      2.90853530e-01 1.34579673e-01 9.11143646e-02 3.87650542e-02
      3.21119949e-02 3.02872472e-02 6.53204620e-02 2.16476247e-01
      2.90853530e-01 1.63689181e-01 2.27226838e-01 2.39610076e-01
      1.29286706e-01 2.20426932e-01 1.58652425e-01 2.07990959e-01
      1.10827364e-01 1.80070445e-01 8.26988518e-02 1.71684816e-01
      2.39610076e-01 1.96454138e-01 2.39610076e-01 2.39610076e-01
      1.95343032e-01 3.48378308e-02 4.54669483e-02 2.30160803e-01
      1.40937224e-01 2.02898115e-01 5.65776564e-02 1.10639460e-01
      8.56438279e-02 7.64673352e-02 1.12529717e-01 2.39610076e-01
      1.15275964e-01 1.05108194e-01 1.63931176e-01 8.89740363e-02
      2.39610076e-01 1.88381091e-01 1.42645180e-01 4.88438681e-02
      8.52724910e-02 1.01182550e-01 1.54941589e-01 1.63978681e-01
      1.69284835e-01 2.32039645e-01 1.64343372e-01 1.37558624e-01
      5.92400804e-02 6.71061426e-02 1.45906806e-01 2.37436295e-01
      2.37436295e-01 2.37436295e-01 2.37436295e-01 1.73837230e-01
      1.49265334e-01 1.13997735e-01 7.45744407e-02 2.23898143e-01
      1.15196407e-01 9.97206792e-02 7.54760057e-02 1.31437108e-01
      1.60463199e-01 1.55444115e-01 1.10277839e-01 1.80632323e-01
      2.37436295e-01 2.21334442e-01 1.46809950e-01 1.03895165e-01
      8.80819559e-02 9.99563113e-02 1.51555061e-01 2.37436295e-01
      2.37436295e-01 1.25601709e-01 1.22359388e-01 1.86123237e-01
      2.53167629e-01 2.53167629e-01 2.00523913e-01 5.76322265e-02
      7.90936947e-02 6.99038059e-02 2.53167629e-01 1.36899322e-01
      1.54804692e-01 1.87962323e-01 2.08812431e-01 1.45514652e-01
      8.16425160e-02 1.36500448e-01 2.53167629e-01 2.53167629e-01
      1.47761449e-01 9.77756158e-02 6.92107379e-02 9.61364210e-02
      1.00760117e-01 8.14494044e-02 1.92792282e-01 2.16203570e-01
      2.53167629e-01 1.81560501e-01 1.09343432e-01 2.88475342e-02
      6.39933422e-02 9.75223780e-02 1.77492842e-01 1.53792068e-01
      2.53167629e-01 2.66238570e-01 1.60524920e-01 9.43278447e-02
      5.74343503e-02 6.83165193e-02 4.75706421e-02 1.13773271e-01
      1.77056372e-01 2.66238570e-01 2.26794496e-01 2.15893567e-01
      4.38513272e-02 5.49663082e-02 1.01144046e-01 1.19056657e-01
      1.91962451e-01 2.66238570e-01 2.66238570e-01 2.66238570e-01
      1.72698408e-01 8.73147845e-02 1.51446443e-02 2.77783256e-02
      2.58102994e-02 1.60673201e-01 1.04458317e-01 2.66238570e-01
      2.45321944e-01 1.98273703e-01 5.13960458e-02 3.69551741e-02
      6.63527027e-02 6.40355870e-02 1.68809757e-01 1.77145287e-01
      2.66238570e-01 1.77311391e-01 1.62185192e-01 5.11846356e-02
      8.73228014e-02 1.91771537e-01 2.31560931e-01 2.31560931e-01
      2.31560931e-01 1.34630904e-01 7.10299388e-02 7.03146905e-02
      7.87098259e-02 1.65950105e-01 2.14017019e-01 2.19908744e-01
      1.82937369e-01 1.56372517e-01 9.17045325e-02 2.31560931e-01
      1.67228192e-01 7.95368552e-02 8.11775327e-02 2.07519814e-01
      2.31560931e-01 1.80036917e-01 1.37041241e-01 2.22022772e-01
      1.87887758e-01 8.78372937e-02 1.08329192e-01 1.13937788e-01
      2.31560931e-01 2.31560931e-01 1.41702026e-01 9.39451605e-02
      1.19012088e-01 6.06795475e-02 7.04432279e-02 1.08034469e-01
      2.52813101e-01 2.72741288e-01 1.77780226e-01 1.24647848e-01
      1.10439785e-01 4.77317572e-02 6.12893961e-02 8.90181437e-02
      1.05604574e-01 2.72741288e-01 2.72741288e-01 2.72741288e-01
      1.02581970e-01 8.57714638e-02 8.37219581e-02 8.96851197e-02
      5.10676652e-02 1.03940696e-01 1.72724649e-01 2.66245633e-01
      2.70854801e-01 1.49800882e-01 1.26435474e-01 8.05281624e-02
      3.92728113e-02 3.65574583e-02 7.00271949e-02 2.47260898e-01
      2.72741288e-01 2.72741288e-01 1.38084352e-01 1.45353258e-01
      8.83898437e-02</_>
    <_>
      1.82461023e-01 2.50408143e-01 2.50408143e-01 2.50408143e-01
      2.00204328e-01 2.12908298e-01 1.19747475e-01 4.97072972e-02
      2.50408143e-01 2.50408143e-01 2.41868511e-01 2.50408143e-01
      1.77820340e-01 2.35311061e-01 2.50408143e-01 1.40981182e-01
      7.50665814e-02 2.50408143e-01 1.30722418e-01 1.13737091e-01
      1.04148008e-01 9.31615904e-02 7.35697821e-02 6.33274093e-02
      4.51338328e-02 5.39911129e-02 2.11770386e-01 1.52876526e-01
      4.83367033e-02 3.84585187e-02 3.04889102e-02 7.02188537e-02
      7.83893764e-02 6.13171831e-02 4.32194434e-02 1.89091384e-01
      2.69436926e-01 1.06796816e-01 1.29458189e-01 1.26181066e-01
      2.69436926e-01 1.81323692e-01 6.32559136e-02 7.95185864e-02
      2.69436926e-01 2.69436926e-01 2.69436926e-01 2.57492781e-01
      1.06787331e-01 2.20745459e-01 1.07715741e-01 7.07736835e-02
      1.55655965e-01 2.69436926e-01 1.88186273e-01 4.77214903e-02
      5.70899695e-02 3.95722762e-02 1.27370730e-01 7.52402470e-02
      5.03721498e-02 5.44458441e-02 1.87697053e-01 2.00480193e-01
      1.57996655e-01 1.20032936e-01 8.28219950e-02 1.65518820e-01
      9.54423398e-02 7.33619183e-02 1.23518579e-01 2.41796315e-01
      2.03397617e-01 2.02391878e-01 2.04432607e-01 6.37608021e-02
      1.53576910e-01 8.15260857e-02 1.79726943e-01 2.30890200e-01
      2.30890200e-01 1.87731862e-01 8.83054882e-02 1.78176537e-01
      1.89409763e-01 2.30890200e-01 1.18216477e-01 2.30890200e-01
      2.30890200e-01 1.99153498e-01 2.30890200e-01 1.25400797e-01
      6.24022186e-02 6.31917864e-02 1.34546056e-01 5.42287864e-02
      1.02369361e-01 1.76708087e-01 2.27058470e-01 2.30890200e-01
      8.98713619e-02 5.90684973e-02 9.34444517e-02 9.68978927e-02
      3.59313302e-02 1.36515766e-01 2.25128710e-01 1.76859379e-01
      1.12975970e-01 9.34033170e-02 2.15298727e-01 1.86744958e-01
      2.10791588e-01 2.28430063e-01 2.28430063e-01 2.28430063e-01
      1.56470850e-01 7.87500218e-02 1.63753659e-01 2.28430063e-01
      1.37538210e-01 1.80912524e-01 2.28430063e-01 2.19028920e-01
      2.28430063e-01 1.79913506e-01 1.11290067e-01 7.21865669e-02
      6.45682663e-02 8.83897394e-02 5.37150875e-02 7.73229972e-02
      1.72367364e-01 2.18785644e-01 1.05988279e-01 1.12318911e-01
      1.25947446e-01 1.12951376e-01 1.44792095e-01 8.42299238e-02
      1.99444279e-01 1.74371213e-01 2.28430063e-01 1.70545727e-01
      9.86360535e-02 1.28965586e-01 8.67153332e-02 6.39677197e-02
      1.19284905e-01 1.31676704e-01 1.28916547e-01 2.22828999e-01
      2.12263465e-01 2.73218602e-01 1.46905303e-01 3.89225446e-02
      1.21239565e-01 1.49441451e-01 1.48510411e-01 1.37133345e-01
      2.25026056e-01 2.73218602e-01 1.93282172e-01 1.85071245e-01
      9.02488381e-02 9.61767286e-02 1.00586191e-01 1.51362181e-01
      8.99710506e-02 2.31697068e-01 2.73218602e-01 2.73218602e-01
      1.85988024e-01 6.55151010e-02 3.93632278e-02 6.64511621e-02
      5.31664118e-02 1.07140072e-01 2.20383182e-01 2.73218602e-01
      2.43422315e-01 1.01961501e-01 4.75278646e-02 1.90005630e-01
      1.89291477e-01 1.54908359e-01 1.38926134e-01 1.42255411e-01
      2.29034722e-01 1.80664942e-01 6.27600104e-02 9.54983011e-02
      1.98207200e-01 2.43422315e-01 1.68616533e-01 2.43422315e-01
      2.09503204e-01 1.52899250e-01 2.43422315e-01 1.33202776e-01
      3.51592749e-02 4.51966636e-02 5.73229454e-02 8.11011493e-02
      1.01267807e-01 9.14970487e-02 2.43422315e-01 2.43422315e-01
      8.27193558e-02 2.79796924e-02 7.27568939e-02 1.82276711e-01
      1.45272568e-01 2.43422315e-01 1.59709185e-01 2.43422315e-01
      1.23511992e-01 1.18479632e-01 1.18867256e-01 8.38894993e-02
      1.37448505e-01 1.05746873e-01 1.68902263e-01 1.60390973e-01
      1.16638355e-01 1.00791954e-01 2.37928867e-01 2.47628972e-01
      2.39916578e-01 2.47628972e-01 1.87987164e-01 1.48795128e-01
      1.38809964e-01 8.95805508e-02 2.47628972e-01 1.37185574e-01
      1.47575408e-01 6.92439452e-02 9.42870378e-02 6.77172318e-02
      2.00135335e-01 1.58687532e-01 2.47628972e-01 2.04579428e-01
      2.47628972e-01 2.47628972e-01 1.83111459e-01 1.19760126e-01
      6.48287907e-02 7.97692537e-02 1.22470468e-01 1.80878654e-01
      3.96254398e-02 1.34776145e-01 2.31512934e-01 2.31512934e-01
      2.31512934e-01 1.73366055e-01 1.24606438e-01 7.13203996e-02
      6.51308969e-02 5.37433438e-02 2.24934250e-01 2.31512934e-01
      2.31512934e-01 2.31512934e-01 1.91714033e-01 1.92765191e-01
      1.24415047e-01 7.82512352e-02 4.83490378e-02 1.53396815e-01
      2.26457059e-01 1.60672829e-01 1.57836467e-01 9.26348642e-02
      6.01820499e-02 7.25624636e-02 7.20179155e-02 1.30358920e-01
      2.31512934e-01 2.20068067e-01 2.31512934e-01 1.88994318e-01
      1.66708812e-01 1.34367391e-01 1.61565781e-01 1.47068501e-01
      5.17985970e-02 2.06009015e-01 2.33031705e-01 2.33031705e-01
      2.03318834e-01 1.16896287e-01 1.42675117e-01 5.76904640e-02
      4.33743894e-02 5.76624982e-02 1.29818276e-01 2.33031705e-01
      2.33031705e-01 2.33031705e-01 1.60825282e-01 1.15189329e-01
      2.24259980e-02 4.24301624e-02 1.53439909e-01 2.33031705e-01
      2.04236716e-01 2.33031705e-01 1.70062706e-01 1.05103619e-01
      9.74212885e-02 9.71258208e-02 9.42704603e-02 1.96839124e-01
      1.69757217e-01 1.91348374e-01 1.56654596e-01 2.33031705e-01
      2.14579880e-01 1.04162030e-01 9.50644091e-02 2.19657615e-01
      7.80212581e-02 8.17059577e-02 2.08329082e-01 2.42525980e-01
      2.60785937e-01 1.38069987e-01 6.74208701e-02 8.78791884e-02
      1.32831454e-01 2.60785937e-01 9.21171084e-02 7.78073445e-02
      1.26752019e-01 8.82049054e-02 4.75219674e-02 4.83432189e-02
      2.12707832e-01 2.60785937e-01 2.17513263e-01 1.01044193e-01
      1.40229270e-01 9.44132283e-02 1.95349202e-01 1.79097682e-01
      8.21139589e-02 1.72690853e-01 2.60785937e-01 2.60785937e-01
      1.19043276e-01 8.26705024e-02 1.65087923e-01 7.80490115e-02
      7.44079798e-02 1.27882570e-01 2.60785937e-01 2.60785937e-01
      2.85687059e-01 8.41388032e-02 7.05085918e-02 8.30667540e-02
      8.04931819e-02 8.12188312e-02 3.37971114e-02 1.75826594e-01
      2.85687059e-01 2.85687059e-01 8.71665180e-02 9.58233476e-02
      6.64271936e-02 6.93593770e-02 8.72780830e-02 3.59118916e-02
      1.42859682e-01 2.85687059e-01 2.85687059e-01 1.79092497e-01
      8.67020115e-02 1.15319103e-01 9.11909342e-02 7.88059235e-02
      9.25355703e-02 1.83693498e-01 2.85687059e-01 2.85687059e-01
      1.63258120e-01 1.29913747e-01 1.02246851e-01 1.04329079e-01
      6.40989617e-02 8.25024769e-02 1.98237255e-01 2.85687059e-01
      2.59803951e-01 8.94209668e-02 4.24495488e-02 6.98940828e-02
      6.78193122e-02 6.08846322e-02 7.34551549e-02 1.48238212e-01
      2.59803951e-01 2.05118105e-01 8.95130783e-02 1.01918824e-01
      2.18199030e-01 1.93786934e-01 1.22642100e-01 1.01069927e-01
      1.53156444e-01 2.11285114e-01 2.59803951e-01 1.21496022e-01
      8.37074146e-02 1.42100930e-01 1.77346542e-01 8.50757584e-02
      9.19582620e-02 1.91093057e-01 2.59803951e-01 1.61719292e-01
      1.40275344e-01 7.77218640e-02 2.59803951e-01 2.59803951e-01
      2.36277580e-01 9.28233489e-02 9.85116884e-02 2.26761416e-01
      1.64578125e-01 1.14882834e-01 1.75416484e-01 1.89969376e-01
      1.93284795e-01 1.59654126e-01 1.15040101e-01 1.11903988e-01
      8.84757191e-02 1.40375867e-01 9.72746164e-02 2.01307133e-01
      2.43966147e-01 2.23054558e-01 1.86398506e-01 1.08486108e-01
      9.40204263e-02 6.91548660e-02 9.04534385e-02 9.52399299e-02
      1.11349210e-01 2.29395077e-01 2.43966147e-01 2.43966147e-01
      1.24936521e-01 7.69751966e-02 8.64789411e-02 9.94895771e-02
      1.37439385e-01 2.13901043e-01 2.43966147e-01 2.41227657e-01
      2.43966147e-01 2.18902156e-01 1.33725002e-01 8.35912302e-02
      1.14815705e-01 7.66458884e-02 1.51591882e-01 2.34051973e-01
      1.95114151e-01 9.58737135e-02 3.89695801e-02 9.36920494e-02
      8.75891969e-02 2.34051973e-01 1.65620014e-01 1.43312976e-01
      1.92162305e-01 2.34051973e-01 8.80460069e-02 6.12057634e-02
      2.34051973e-01 2.34051973e-01 1.24269381e-01 1.19653732e-01
      1.48369148e-01 2.18104675e-01 1.47789314e-01 1.15151115e-01
      1.15706891e-01 1.17244780e-01 1.42057061e-01 2.34051973e-01
      1.33218020e-01 1.21026784e-01 1.79958075e-01 2.34051973e-01
      1.85909897e-01 1.40983790e-01 2.34051973e-01 2.34051973e-01
      1.44599974e-01 1.87062949e-01 1.26661167e-01 1.98875383e-01
      1.77733436e-01 1.32478252e-01 9.87204835e-02 1.46997765e-01
      1.97458372e-01 1.44964397e-01 1.19325437e-01 1.21656865e-01
      1.24113038e-01 8.27887580e-02 1.29471868e-01 1.44079536e-01
      2.25816131e-01 2.25816131e-01 1.45902410e-01 8.08682367e-02
      8.52288902e-02 1.30508468e-01 2.19470128e-01 2.25816131e-01
      2.09604740e-01 1.96307659e-01 2.25816131e-01 2.06276983e-01
      9.50884447e-02 1.64890364e-01 1.30398184e-01 1.18096292e-01
      2.07795009e-01 1.66737258e-01 1.96194589e-01 2.25816131e-01
      1.08777963e-01 7.11107925e-02 1.06482074e-01 6.22494854e-02
      8.61780420e-02 6.55335411e-02 8.10981542e-02 1.16973884e-01
      1.80194750e-01 1.19789422e-01 6.55315667e-02 5.13648987e-02
      4.70172614e-02 3.24312896e-02 8.06735754e-02 7.34874979e-02
      1.01063617e-01 1.61534697e-01 3.10913354e-01 1.42210126e-01
      1.09860711e-01 9.28538889e-02 7.03216493e-02 1.27819926e-01
      3.10913354e-01 2.80830115e-01 3.10913354e-01 3.10913354e-01
      1.77644417e-01 1.45229459e-01 1.20021231e-01 2.55918428e-02
      1.56934202e-01 2.11044237e-01 2.57492185e-01 3.10913354e-01
      1.19841032e-01 7.67923445e-02 4.64510880e-02 7.40609989e-02
      4.06382047e-02 5.42742610e-02 6.58945739e-02 5.82179949e-02
      1.20227106e-01 1.77464977e-01 7.91518465e-02 7.04759508e-02
      8.49836990e-02 8.66338015e-02 9.66099948e-02 9.00478736e-02
      6.08695894e-02 1.93742439e-01 2.72666782e-01 1.93664998e-01
      2.43549317e-01 1.93340704e-01 2.53677703e-02 1.51867077e-01
      1.96985140e-01 1.89254880e-01 2.72666782e-01 2.72666782e-01
      2.06768975e-01 2.18093768e-01 1.54210553e-01 7.12778941e-02
      2.49891877e-01 2.72666782e-01 2.01398984e-01 2.72666782e-01
      2.64535993e-01 1.19559236e-01 8.16670433e-02 6.61311373e-02
      9.29915309e-02 1.13841429e-01 1.11925893e-01 1.04707293e-01
      2.02784836e-01 2.32850492e-01 1.91137701e-01 1.04118466e-01
      7.00655654e-02 9.34359580e-02 7.58946538e-02 1.21119529e-01
      1.99432522e-01 1.74905092e-01 2.72500813e-01 2.44042188e-01
      9.86414179e-02 3.62087265e-02 8.12830552e-02 1.79439247e-01
      2.43557781e-01 1.49966270e-01 2.72500813e-01 2.72500813e-01
      2.59765953e-01 1.28546625e-01 6.29114509e-02 1.07747525e-01
      1.66153848e-01 1.44430518e-01 1.22777708e-01 1.80602103e-01
      1.64417788e-01 1.47510722e-01 9.72127095e-02 1.05785705e-01
      1.28215849e-01 1.01627968e-01 1.23462655e-01 2.12995782e-01
      1.43913135e-01 2.28710815e-01 1.44494325e-01 1.52090505e-01
      2.24490955e-01 1.55381396e-01 2.05280557e-01 1.03036433e-01
      1.63000152e-01 1.72128677e-01 2.79244930e-01 2.08640307e-01
      1.25532195e-01 1.08443186e-01 1.58327132e-01 1.73716873e-01
      1.57960519e-01 1.59761786e-01 1.38402373e-01 2.79244930e-01
      1.92244351e-01 1.14024945e-01 1.34413138e-01 1.36433989e-01
      1.31802395e-01 1.28467292e-01 1.75895423e-01 1.91152737e-01
      2.57732034e-01 1.75168604e-01 1.16397172e-01 1.40126735e-01
      1.18656926e-01 1.52858153e-01 8.26532617e-02 1.52946174e-01
      2.52026260e-01 2.94698238e-01 1.98704809e-01 1.48550436e-01
      7.25549683e-02 1.22098520e-01 8.42194930e-02 1.16875455e-01
      1.69309586e-01 2.94698238e-01 2.28875026e-01 1.13910846e-01
      8.79720449e-02 1.03519484e-01 7.63831139e-02 9.37667191e-02
      1.01151943e-01 1.42822564e-01 1.51578784e-01 2.94698238e-01
      1.63360775e-01 1.40141100e-01 1.17442727e-01 9.50696394e-02
      7.33242780e-02 8.86127427e-02 1.58956632e-01 2.90158063e-01
      2.95980155e-01 1.47719026e-01 8.68346319e-02 5.25149778e-02
      9.21185464e-02 1.19546644e-01 1.35394514e-01 1.42173976e-01
      2.95980155e-01 2.95980155e-01 1.51390448e-01 6.22173660e-02
      5.78356907e-02 1.84607089e-01 1.53759152e-01 2.95980155e-01
      1.99118465e-01 2.95980155e-01 2.16941878e-01 1.27180547e-01
      7.25003928e-02 7.06471950e-02 8.82712081e-02 6.72591999e-02
      1.10512659e-01 1.95083573e-01 2.14357793e-01 1.43825889e-01
      1.74498245e-01 6.66996092e-02 5.65985888e-02 1.57172889e-01
      7.64323324e-02 1.15516044e-01 1.86772540e-01 1.35986924e-01
      3.08487594e-01 1.76119104e-01 1.74441010e-01 7.42665827e-02
      1.10532925e-01 9.64032784e-02 2.09512353e-01 1.64219424e-01
      3.08487594e-01 3.08487594e-01 3.00389260e-01 3.08487594e-01
      1.24054708e-01 1.23547941e-01 1.58946425e-01 1.27388313e-01
      1.20055072e-01 3.05750191e-01 8.27540979e-02 1.27437726e-01
      1.07194789e-01 8.77386704e-02 1.49847791e-01 8.86409059e-02
      7.24441782e-02 8.53266716e-02 7.12227151e-02 1.00393713e-01
      7.52798095e-02 1.24358974e-01 1.23141013e-01 9.64393541e-02
      1.47756279e-01 8.82017091e-02 7.81158283e-02 7.11798519e-02
      1.46228790e-01 1.74096480e-01 2.06617892e-01 1.11137189e-01
      1.25359759e-01 1.46468356e-01 5.52469119e-02 9.30913538e-02
      1.34072602e-01 2.85308421e-01 2.85308421e-01 1.96862474e-01
      2.85308421e-01 2.36620352e-01 2.85308421e-01 8.42814147e-02
      2.85308421e-01 2.85308421e-01 9.06667635e-02 4.90242988e-02
      6.08078502e-02 6.03410378e-02 3.50642428e-02 9.17339548e-02
      4.63579334e-02 7.03541785e-02 8.29577148e-02 2.66441196e-01
      8.90932083e-02 5.43984696e-02 7.85402134e-02 6.46727011e-02
      1.48217380e-01 5.29960133e-02 1.32749677e-01 2.38900498e-01
      2.87398338e-01 2.87398338e-01 1.46611035e-01 2.38918275e-01
      1.74960732e-01 1.40445575e-01 5.24011590e-02 1.69460833e-01
      2.87398338e-01 2.87398338e-01 2.87398338e-01 1.29802257e-01
      9.75959748e-02 1.27945691e-01 1.35874420e-01 9.91366953e-02
      1.67070389e-01 2.87398338e-01 2.70708621e-01 1.10506266e-01
      4.32254337e-02 5.90196662e-02 5.15770800e-02 4.21292745e-02
      2.26583444e-02 5.45158088e-02 1.77690998e-01 2.70972282e-01
      1.23512097e-01 4.36808839e-02 5.96485026e-02 3.60397436e-02
      2.32731905e-02 2.72736400e-02 4.25925367e-02 1.15466289e-01
      3.37731093e-01 1.49828270e-01 9.58949327e-02 6.74232692e-02
      7.09940717e-02 1.27947792e-01 1.13114089e-01 2.97094733e-01
      3.37731093e-01 3.37731093e-01 1.97616979e-01 1.51447013e-01
      1.59535229e-01 5.13199940e-02 7.83722848e-02 1.80225030e-01
      3.37731093e-01 3.37731093e-01 2.04422086e-01 7.27549642e-02
      3.85663696e-02 4.32103500e-02 2.50702426e-02 2.87324898e-02
      3.47192325e-02 7.28935003e-02 1.18365943e-01 1.61454722e-01
      1.14499398e-01 6.84770644e-02 4.41991910e-02 2.37512495e-02
      3.16842608e-02 5.06763607e-02 7.69170821e-02 1.03263788e-01
      3.53421688e-01 2.49793097e-01 1.26385137e-01 9.47946832e-02
      3.84759530e-02 4.59487364e-02 9.88084003e-02 1.90600857e-01
      3.53421688e-01 3.53421688e-01 2.90980935e-01 1.53230652e-01
      8.07778239e-02 6.66649565e-02 5.16424775e-02 1.06149346e-01
      3.14340025e-01 3.53421688e-01 1.31491572e-01 8.07854235e-02
      6.91850558e-02 5.49486056e-02 3.90601568e-02 3.72826941e-02
      4.66506891e-02 4.24547344e-02 8.38702396e-02 1.53881907e-01
      1.07207321e-01 8.03136677e-02 5.06150462e-02 5.23592681e-02
      5.08814268e-02 8.21678489e-02 7.34014511e-02 1.43990606e-01
      2.85675555e-01 2.39637479e-01 9.45902541e-02 1.05025947e-01
      1.43310130e-01 6.88357800e-02 6.70349523e-02 2.34263852e-01
      2.85675555e-01 2.77784616e-01 2.68998981e-01 1.21614315e-01
      2.14835927e-01 2.85675555e-01 1.60343155e-01 4.48857918e-02
      1.11145578e-01 2.85675555e-01 1.44192740e-01 1.16338976e-01
      6.40450791e-02 6.46195859e-02 8.45161378e-02 6.54367432e-02
      6.89942092e-02 7.59715885e-02 1.41421586e-01 9.12589431e-02
      9.41004232e-02 9.49231535e-02 1.59165889e-01 2.03215390e-01
      1.49773329e-01 7.35947788e-02 1.46369115e-01 1.77330539e-01
      9.64928418e-02 1.47003874e-01 1.20979227e-01 1.63784385e-01
      2.31304064e-01 1.96389645e-01 9.23469216e-02 7.62478784e-02
      1.16532184e-01 9.52508897e-02 1.35872573e-01 1.90996006e-01
      2.60341376e-01 2.36493468e-01 2.60341376e-01 1.80742711e-01
      1.13047168e-01 5.90287149e-02 6.08622581e-02 7.10381940e-02
      8.88970047e-02 1.71779379e-01 2.60341376e-01 2.60341376e-01
      1.14895813e-01 1.00436881e-01 8.87680724e-02 9.27959010e-02
      8.37014243e-02 2.00971916e-01 2.60341376e-01 2.60341376e-01
      2.60341376e-01 1.45087987e-01 7.99378753e-02 3.04744300e-02
      1.07535370e-01 1.06404804e-01 1.55776262e-01 2.48907447e-01
      2.18497962e-01 1.84625536e-01 8.92326981e-02 6.96122274e-02
      8.57703015e-02 1.84080169e-01 1.32679224e-01 9.26399454e-02
      2.48907447e-01 2.48907447e-01 2.48907447e-01 1.29785374e-01
      2.10195422e-01 2.10086510e-01 5.76528572e-02 5.66948242e-02
      1.58330604e-01 2.48907447e-01 2.48907447e-01 2.32596800e-01
      7.14847073e-02 5.04766963e-02 1.82909314e-02 6.67385012e-02
      8.98014903e-02 7.60429502e-02 2.48907447e-01 2.48907447e-01
      2.24426612e-01 1.17777921e-01 9.95281562e-02 3.67122181e-02
      1.51438326e-01 7.85704553e-02 4.02671508e-02 1.40526131e-01
      1.89437494e-01 2.59379715e-01 2.18985066e-01 2.30403081e-01
      2.57437199e-01 2.59379715e-01 1.21326774e-01 7.36941993e-02
      1.27416208e-01 1.11193478e-01 1.98256120e-01 1.84694842e-01
      2.21057609e-01 2.59379715e-01 8.15153793e-02 6.73951581e-02
      2.24558171e-02 1.35450557e-01 2.59379715e-01 1.46393433e-01
      8.98934752e-02 9.57703069e-02 1.04045324e-01 2.38306373e-01
      1.02297589e-01 2.47100759e-02 9.25668329e-02 2.18248039e-01
      9.25097466e-02 8.21231157e-02 1.31880760e-01 2.59379715e-01
      2.37611011e-01 4.71456349e-02 3.62462513e-02 6.27763346e-02
      7.39591047e-02 1.66810915e-01 1.28835842e-01 1.76906615e-01
      2.37611011e-01 2.37611011e-01 1.16428673e-01 9.24482346e-02
      4.75255623e-02 2.45824922e-02 1.31021708e-01 1.24934189e-01
      1.85965657e-01 2.24900365e-01 2.37611011e-01 8.25266615e-02
      1.03017613e-01 8.79534483e-02 1.14281826e-01 2.33326614e-01
      9.26750749e-02 1.91038147e-01 2.37611011e-01 2.37611011e-01
      2.37611011e-01 2.26357594e-01 7.42824674e-02 1.06796905e-01
      1.90663442e-01 1.34505153e-01 2.32446581e-01 2.37611011e-01
      2.06656590e-01 1.70919403e-01 2.00166717e-01 9.75144878e-02
      2.46457737e-02 8.44143778e-02 1.30993500e-01 1.51685506e-01
      1.42025784e-01 1.79314420e-01 1.77571237e-01 1.75190672e-01
      8.69430378e-02 4.67053540e-02 1.65559113e-01 2.07136601e-01
      1.24019600e-01 1.80089921e-01 1.88878998e-01 2.34137937e-01
      2.34137937e-01 1.27131894e-01 1.15188904e-01 1.19666547e-01
      1.91661060e-01 1.83757901e-01 1.70885056e-01 1.52788579e-01
      2.34137937e-01 2.34137937e-01 2.10469723e-01 9.51822102e-02
      1.51725158e-01 2.26713270e-01 1.02339461e-01 1.60747945e-01
      1.84339300e-01 1.48619711e-01 8.74696970e-02 7.41162598e-02
      4.86910492e-02 1.00686118e-01 1.85033783e-01 7.23181218e-02
      1.83367983e-01 2.55729705e-01 1.42670229e-01 7.42660686e-02
      9.34944227e-02 4.77079116e-02 6.38372153e-02 8.46422538e-02
      7.54022002e-02 1.69757262e-01 2.25341275e-01 2.55729705e-01
      2.55729705e-01 2.55729705e-01 7.13750049e-02 8.94475430e-02
      1.74298361e-01 9.64431018e-02 2.26384461e-01 2.55729705e-01
      2.28347570e-01 2.55729705e-01 2.34644055e-01 6.78152144e-02
      6.94573447e-02 7.91397467e-02 1.56607881e-01 2.55729705e-01
      2.49894917e-01 1.53670877e-01 9.34367552e-02 7.40377307e-02
      5.36204278e-02 9.99672636e-02 8.59831423e-02 8.36416185e-02
      1.56533375e-01 2.57312030e-01 2.08263338e-01 1.14498690e-01
      6.88818395e-02 4.62743863e-02 8.98384973e-02 1.18097447e-01
      1.22699849e-01 1.49577275e-01 2.57312030e-01 2.20004246e-01
      2.18780473e-01 1.52295291e-01 7.57365152e-02 1.44152686e-01
      9.34235230e-02 1.27571642e-01 2.57312030e-01 2.57312030e-01
      2.57312030e-01 1.81261361e-01 1.15568243e-01 9.41735432e-02
      2.28787422e-01 1.74918056e-01 1.27755046e-01 2.57312030e-01
      2.01627597e-01 1.81890905e-01 6.69250935e-02 3.98680530e-02
      4.22633439e-02 5.99461608e-02 8.75907540e-02 1.28372312e-01
      1.63707227e-01 2.84860104e-01 1.20913617e-01 5.81184365e-02
      3.70095149e-02 3.61571386e-02 3.20163518e-02 5.90013005e-02
      1.73298478e-01 2.84860104e-01 2.84860104e-01 2.84860104e-01
      7.48618022e-02 5.54485656e-02 8.57026875e-02 1.43116951e-01
      1.50843576e-01 1.17867708e-01 2.84860104e-01 2.84860104e-01
      2.63858795e-01 4.34386320e-02 3.49815935e-02 5.87324165e-02
      7.85859674e-02 1.56726569e-01 2.40232974e-01 2.84860104e-01
      2.98266321e-01 6.71980157e-02 1.70434061e-02 1.93929654e-02
      3.97749208e-02 3.56993079e-02 8.71844143e-02 2.16670617e-01
      2.38358349e-01 2.07382843e-01 7.20147043e-02 2.44014487e-02
      1.95912421e-02 5.46196178e-02 2.69912034e-02 1.14931159e-01
      2.18974009e-01 1.51784629e-01 3.01109642e-01 1.26664311e-01
      1.32325217e-02 1.55582754e-02 3.23680900e-02 6.93960041e-02
      1.49486631e-01 3.01109642e-01 3.01109642e-01 3.01109642e-01
      1.49842843e-01 5.89277223e-02 4.72756103e-02 3.86212245e-02
      6.55108616e-02 1.70085862e-01 3.01109642e-01 3.01109642e-01
      1.67850465e-01 1.07864454e-01 7.38679022e-02 5.60370535e-02
      7.12691694e-02 2.65237503e-02 7.37778991e-02 1.26357958e-01
      1.33951709e-01 1.53303325e-01 9.25088301e-02 8.95035341e-02
      8.12672749e-02 6.80211708e-02 6.63507134e-02 6.59184977e-02
      1.15427963e-01 1.62124813e-01 2.90524334e-01 2.88037300e-01
      1.31241381e-01 8.53773132e-02 4.73150499e-02 4.43773270e-02
      1.03500225e-01 2.90524334e-01 2.90524334e-01 2.90524334e-01
      2.90524334e-01 1.39669850e-01 1.37334347e-01 1.27332225e-01
      1.30075172e-01 1.38445169e-01 2.90524334e-01 2.90524334e-01
      1.16549917e-01 7.07341731e-02 4.20420729e-02 3.13280858e-02
      2.95749214e-02 5.00643924e-02 4.70008180e-02 1.04222648e-01
      1.25462711e-01 1.51662156e-01 8.28815550e-02 6.38167486e-02
      2.11281348e-02 2.20700987e-02 3.35630178e-02 7.23667741e-02
      1.16110370e-01 1.53012827e-01 2.80070245e-01 2.80070245e-01
      1.42609000e-01 1.33111790e-01 1.79265171e-01 9.52968150e-02
      1.56855181e-01 2.60837942e-01 2.80070245e-01 2.80070245e-01
      2.57173061e-01 1.86818391e-01 1.02438003e-01 1.43983737e-01
      1.10833347e-01 2.80070245e-01 2.80070245e-01 2.80070245e-01
      1.40881360e-01 8.54120329e-02 5.98675497e-02 2.84281895e-02
      3.84964533e-02 1.85881518e-02 6.23658560e-02 8.15771818e-02
      1.34325936e-01 1.77496821e-01 8.95726830e-02 6.22878000e-02
      5.25733680e-02 3.57307345e-02 4.98374440e-02 4.93888780e-02
      7.07052723e-02 1.20345980e-01 3.29222411e-01 2.41998345e-01
      1.23258933e-01 4.29355875e-02 7.70460367e-02 9.64966044e-02
      2.46332720e-01 2.71283269e-01 3.29222411e-01 3.29222411e-01
      2.44257808e-01 6.71146214e-02 1.96479503e-02 3.93902473e-02
      9.78558511e-02 2.58197367e-01 2.48775557e-01 3.29222411e-01
      1.46412879e-01 5.91359474e-02 5.75854219e-02 5.22936322e-02
      3.38411443e-02 6.15619682e-02 5.37503771e-02 1.16051435e-01
      1.31086707e-01 1.02267317e-01 8.12186673e-02 5.08383065e-02
      3.22241187e-02 3.78633253e-02 3.80481370e-02 4.92849499e-02
      9.28154513e-02 9.04741213e-02 3.45963031e-01 2.31435686e-01
      5.15196361e-02 3.15225162e-02 3.73215713e-02 7.87498876e-02
      2.75640756e-01 3.08644086e-01 3.45963031e-01 3.45963031e-01
      3.00762713e-01 4.07953002e-02 3.45258117e-02 3.19059230e-02
      3.19782682e-02 1.24611102e-01 2.42086247e-01 3.45963031e-01
      9.82371643e-02 7.40788877e-02 8.20796788e-02 6.69766590e-02
      7.88659453e-02 6.12405688e-02 7.12879747e-02 6.56663999e-02
      5.69777824e-02 8.66745040e-02 8.87855813e-02 1.38866201e-01
      1.06845029e-01 1.43823802e-01 7.98440650e-02 1.09411322e-01
      1.04488455e-01 8.84500518e-02 3.21316570e-01 2.55745649e-01
      6.91939294e-02 5.55556007e-02 3.54057252e-02 3.65419872e-02
      1.76057130e-01 2.63254195e-01 3.07036966e-01 3.21316570e-01
      3.21316570e-01 1.17518477e-01 1.04118079e-01 9.97701287e-02
      7.67570809e-02 1.60263583e-01 3.07167500e-01 3.21316570e-01
      5.10157607e-02 7.50652999e-02 1.34793967e-01 1.37523040e-01
      1.50131956e-01 7.49385506e-02 9.37694013e-02 5.59940487e-02
      5.16671501e-02 5.11802658e-02 5.98631985e-02 1.81296051e-01
      2.60959148e-01 2.60959148e-01 1.78680897e-01 1.12652831e-01
      8.66251588e-02 7.27038607e-02 2.60959148e-01 2.34857708e-01
      1.04889445e-01 1.02344669e-01 1.12516478e-01 9.56637785e-02
      1.30998611e-01 1.61515027e-01 2.60959148e-01 2.32053518e-01
      2.35486254e-01 2.60959148e-01 2.48878554e-01 2.32370123e-01
      1.18803293e-01 1.01498328e-01 1.13553219e-01 2.60959148e-01
      5.43739907e-02 3.08053959e-02 7.90955126e-02 1.55163556e-01
      2.80608475e-01 1.88354716e-01 6.91699088e-02 3.82003412e-02
      2.56422106e-02 1.23012275e-01 5.90849929e-02 1.48802459e-01
      2.80608475e-01 2.80608475e-01 2.61656582e-01 9.13486555e-02
      4.51892838e-02 1.57406144e-02 1.58219904e-01 1.30112603e-01
      1.99710786e-01 2.65632719e-01 2.52307326e-01 8.20856243e-02
      4.71741669e-02 6.58228099e-02 7.18179718e-02 2.26416036e-01
      1.61124006e-01 1.89733148e-01 2.80608475e-01 2.80608475e-01
      2.35015988e-01 3.94203700e-02 3.78192589e-02 3.23894545e-02
      8.77595097e-02 6.75068349e-02 1.78945929e-01 3.23088139e-01
      3.23088139e-01 1.80441901e-01 8.32706541e-02 4.94844876e-02
      1.08845374e-02 9.85729173e-02 7.90297315e-02 8.36184621e-02
      2.17764691e-01 3.23088139e-01 1.34631768e-01 9.24245045e-02
      3.76265720e-02 1.05214231e-02 8.76235589e-02 8.05066600e-02
      1.64736435e-01 3.23088139e-01 3.23088139e-01 2.36225441e-01
      2.46749055e-02 3.04188766e-02 2.11502668e-02 8.74795914e-02
      4.04665768e-02 6.68424219e-02 2.03966990e-01 3.23088139e-01
      1.54409558e-01 5.65902852e-02 5.10218106e-02 3.81423868e-02
      4.44565900e-02 4.07653078e-02 2.96996702e-02 1.70068398e-01
      3.50155562e-01 1.63351968e-01 8.94861817e-02 4.33664024e-02
      2.79602520e-02 6.35277480e-02 9.28240865e-02 8.73464718e-02
      1.89579844e-01 3.50155562e-01 1.91246495e-01 6.35701716e-02
      4.47149538e-02 6.83969632e-02 1.03139579e-01 5.50774373e-02
      3.29175182e-02 2.19176069e-01 3.50155562e-01 1.32732585e-01
      8.22998956e-02 7.30350465e-02 6.58705011e-02 8.98744538e-02
      1.25305787e-01 2.29169279e-01 3.50155562e-01 3.50155562e-01
      1.60926774e-01 6.29246533e-02 4.71990593e-02 6.24823272e-02
      2.20916674e-01 8.63965824e-02 9.74400118e-02 5.62755726e-02
      3.98815982e-02 7.49659762e-02 7.70813599e-02 1.58861473e-01
      2.35607415e-01 2.35607415e-01 2.35607415e-01 2.35607415e-01
      1.27065703e-01 1.12872608e-01 8.71949121e-02 9.17462111e-02
      1.26400307e-01 1.84900790e-01 1.72186330e-01 8.30914155e-02
      1.54158145e-01 1.14245817e-01 7.25856572e-02 8.40899497e-02
      1.25849590e-01 2.17183739e-01 2.35607415e-01 2.35607415e-01
      2.00032949e-01 2.35607415e-01 2.35607415e-01 1.72161907e-01
      1.34450048e-01 1.78835869e-01 1.65012866e-01 2.35607415e-01
      1.85884520e-01 2.07463235e-01 2.20514223e-01 1.31843776e-01
      1.17513962e-01 8.72618258e-02 1.17393740e-01 8.85585323e-02
      1.18322618e-01 1.16531126e-01 2.25884199e-01 2.25884199e-01
      2.23545015e-01 1.02739878e-01 1.17214143e-01 1.20344952e-01
      6.01720288e-02 1.13462195e-01 2.25884199e-01 1.91935718e-01
      1.81774497e-01 2.25884199e-01 1.73309311e-01 1.40471041e-01
      1.08894251e-01 1.02976032e-01 1.84781581e-01 9.88791659e-02
      1.70076013e-01 1.19402945e-01 2.03685418e-01 2.25884199e-01
      2.25884199e-01 2.25884199e-01 1.77711725e-01 1.37172461e-01
      1.56821996e-01 2.43733451e-01 2.43733451e-01 2.10344672e-01
      1.26684040e-01 8.77650604e-02 7.23919421e-02 1.05121575e-01
      1.76114380e-01 1.66686311e-01 2.32391998e-01 2.43733451e-01
      1.51435494e-01 1.14213876e-01 8.51474255e-02 3.55063118e-02
      1.49555877e-01 2.43733451e-01 6.78742900e-02 2.32610002e-01
      1.48764208e-01 1.60306811e-01 2.43733451e-01 2.32326627e-01
      2.36447439e-01 1.71756104e-01 9.56772864e-02 6.19702823e-02
      1.44345060e-01 1.62320063e-01 1.36684462e-01 2.06213996e-01
      1.11541234e-01 9.31218490e-02 1.01510547e-01 1.15164526e-01
      1.52243465e-01 1.45331368e-01 1.93769157e-01 1.04891591e-01
      7.68805817e-02 1.22153915e-01 5.88391311e-02 1.24399282e-01
      2.46313378e-01 2.46313378e-01 2.46313378e-01 9.54268351e-02
      1.09425023e-01 1.67031750e-01 2.04460800e-01 1.03636079e-01
      1.54271826e-01 2.46313378e-01 7.41553381e-02 6.84390664e-02
      1.22628748e-01 1.18580401e-01 9.87772197e-02 8.60225782e-02
      5.94710298e-02 9.04248580e-02 1.15568645e-01 2.18022346e-01
      2.46313378e-01 1.13374859e-01 2.11590171e-01 2.46313378e-01
      2.46313378e-01 1.25220791e-01 2.27788880e-01 2.46313378e-01
      2.52672285e-01 2.52672285e-01 4.38041352e-02 9.68911722e-02
      1.61463603e-01 1.53946504e-01 1.28819019e-01 1.20594420e-01
      2.33105958e-01 2.52672285e-01 1.84669659e-01 2.87433900e-02
      5.28441966e-02 7.23946393e-02 7.90919140e-02 1.28854722e-01
      1.13712214e-01 2.52672285e-01 2.43034586e-01 2.52672285e-01
      9.68912616e-02 1.85808316e-01 2.52672285e-01 2.52672285e-01
      1.25393316e-01 2.32994646e-01 2.39990562e-01 1.83581337e-01
      9.31096971e-02 4.06051353e-02 6.19508550e-02 8.72127339e-02
      1.05954789e-01 7.92197734e-02 9.00182500e-02 1.16677046e-01
      2.63254583e-01 1.03277408e-01 1.62754245e-02 3.70831117e-02
      3.32440659e-02 9.05858874e-02 1.19027935e-01 1.60015702e-01
      2.44791135e-01 2.63254583e-01 1.47821456e-01 1.14557698e-01
      1.08077027e-01 1.11786373e-01 1.32446691e-01 1.81379199e-01
      2.63254583e-01 2.55577236e-01 1.82990834e-01 5.54510839e-02
      2.85789836e-02 5.64971864e-02 5.69893569e-02 1.01162076e-01
      8.22120383e-02 1.01246886e-01 1.15912460e-01 2.63254583e-01
      1.41399249e-01 1.74745619e-01 2.52505451e-01 2.63254583e-01
      1.67798087e-01 1.44653529e-01 2.63254583e-01 1.93549499e-01
      2.46413544e-01 1.85695782e-01 1.46741658e-01 7.96124190e-02
      6.61821887e-02 4.78775613e-02 6.49516284e-02 1.17410213e-01
      1.40772998e-01 2.19247609e-01 2.46413544e-01 2.20802486e-01
      1.43182024e-01 9.04624239e-02 6.86923563e-02 5.97936213e-02
      9.98671874e-02 1.71505719e-01 1.49057969e-01 1.92366898e-01
      2.46413544e-01 2.18003705e-01 2.46413544e-01 9.79238525e-02
      7.29589686e-02 1.49321750e-01 9.40444544e-02 1.84599400e-01
      2.46413544e-01 2.46413544e-01 2.46413544e-01 2.46413544e-01
      1.36582062e-01 7.21572563e-02 1.02444023e-01 1.02508999e-01
      1.66667804e-01 1.47110149e-01 1.59584984e-01 1.60305262e-01
      1.39096320e-01 6.11016490e-02 1.21066511e-01 9.10205022e-02
      1.88863471e-01 1.95927694e-01 1.17295042e-01 1.75460264e-01
      1.68392852e-01 1.44687802e-01 8.74978304e-02 1.67627871e-01
      1.00859977e-01 2.21174270e-01 1.69180423e-01 2.17340916e-01
      2.36669183e-01 2.36669183e-01 2.16987431e-01 1.39704183e-01
      1.13696769e-01 6.92836717e-02 1.34879038e-01 1.22095689e-01
      1.97857112e-01 2.36669183e-01 2.36669183e-01 2.36669183e-01
      1.77771315e-01 1.62059590e-01 5.25190756e-02 1.23162054e-01
      2.10240096e-01 1.38238326e-01 1.05263248e-01 7.65126050e-02
      8.21518227e-02 1.03582539e-01 1.21804625e-01 1.16097264e-01
      2.43428975e-01 2.43428975e-01 1.19610332e-01 3.07669397e-02
      8.65595322e-03 4.72998582e-02 9.91027653e-02 1.45580247e-01
      1.60386592e-01 2.43428975e-01 1.03341684e-01 2.25663334e-01
      2.43428975e-01 2.31011778e-01 2.06643283e-01 2.15005338e-01
      1.31780431e-01 1.29235759e-01 1.84754550e-01 2.43428975e-01
      1.26136184e-01 1.18089281e-01 8.59318450e-02 1.48471177e-01
      1.75853580e-01 1.41817331e-01 2.43428975e-01 2.43428975e-01
      2.84025729e-01 1.16446488e-01 2.25538872e-02 1.26581062e-02
      4.96964417e-02 5.67869470e-02 1.27136096e-01 1.51042655e-01
      2.84025729e-01 2.84025729e-01 1.77226439e-01 1.44807938e-02
      2.12312844e-02 1.72007699e-02 1.70083623e-02 8.77330378e-02
      1.23139739e-01 2.84025729e-01 2.84025729e-01 6.85975105e-02
      3.29123922e-02 4.80483808e-02 1.09241895e-01 7.09570199e-02
      1.23735733e-01 2.84025729e-01 2.84025729e-01 2.84025729e-01
      1.50879309e-01 3.11179832e-02 7.15851784e-02 4.29548062e-02
      1.72233712e-02 6.82926998e-02 2.84025729e-01 2.84025729e-01
      3.01711023e-01 1.57120988e-01 1.78237576e-02 2.51840297e-02
      7.47143384e-03 1.44691234e-02 1.22039109e-01 1.41844973e-01
      1.99729502e-01 3.01711023e-01 1.80991799e-01 1.58954635e-02
      2.44555250e-02 2.05904450e-02 2.10013967e-02 8.91337991e-02
      1.83077678e-01 3.01711023e-01 3.01711023e-01 1.45875320e-01
      4.21861410e-02 4.70844097e-02 1.93871427e-02 1.98059715e-02
      7.02525079e-02 2.63831586e-01 3.01711023e-01 3.01711023e-01
      1.58372745e-01 2.90948171e-02 2.79015303e-02 3.68194394e-02
      4.84745875e-02 9.43763852e-02 2.07669348e-01 3.01711023e-01
      2.46837571e-01 1.54635608e-01 1.79367699e-02 3.46165448e-02
      6.88936412e-02 7.05725402e-02 1.01898693e-01 1.70600086e-01
      2.46837571e-01 2.22221777e-01 2.37454131e-01 1.72894448e-01
      9.21055377e-02 1.49083123e-01 1.39289215e-01 7.86706060e-02
      1.35672852e-01 2.46837571e-01 2.46837571e-01 1.48902848e-01
      2.61401869e-02 7.80250281e-02 1.19099393e-01 9.84894410e-02
      1.21053398e-01 1.72689840e-01 2.46837571e-01 1.64231896e-01
      2.46837571e-01 2.08337337e-01 1.31109998e-01 2.46837571e-01
      2.12842360e-01 1.10433623e-01 1.39985204e-01 1.55096889e-01
      1.46905035e-01 1.83446869e-01 1.73032433e-01 1.71448752e-01
      1.70650840e-01 1.15359396e-01 5.94835505e-02 1.28555402e-01
      9.90860760e-02 1.32452995e-01 1.30156323e-01 1.33977458e-01
      2.56939471e-01 2.56939471e-01 2.41974846e-01 5.34942523e-02
      8.65719989e-02 3.32730822e-02 6.61593899e-02 2.26060912e-01
      2.18307883e-01 1.44031480e-01 2.51705766e-01 2.26276353e-01
      1.08915843e-01 1.22267850e-01 8.15245286e-02 4.86891195e-02
      1.29807800e-01 1.49957612e-01 2.56939471e-01 2.56939471e-01
      2.56939471e-01 1.15646929e-01 1.46939024e-01 9.71571952e-02
      3.95912752e-02 5.53976968e-02 8.69188532e-02 2.71306127e-01
      2.71306127e-01 2.22287372e-01 1.96395461e-02 5.32936007e-02
      3.47734503e-02 7.30445012e-02 4.94578406e-02 5.43900542e-02
      1.75373867e-01 2.71306127e-01 1.82863951e-01 3.62872146e-02
      7.46134818e-02 5.60052581e-02 6.79620802e-02 5.95480241e-02
      8.22595134e-02 2.34811753e-01 2.71306127e-01 2.61895299e-01
      8.62754360e-02 1.60950094e-01 1.38751850e-01 1.44940287e-01
      2.51292884e-01 1.60350293e-01 2.71306127e-01 2.71306127e-01
      2.02043310e-01 9.68029276e-02 1.50922209e-01 1.74807280e-01
      1.14363253e-01 7.05985799e-02 3.52489427e-02 1.38676375e-01
      2.92134821e-01 1.38611212e-01 2.99381427e-02 2.96476111e-02
      3.30637917e-02 7.34025389e-02 1.05498374e-01 1.40921205e-01
      1.92650065e-01 2.92134821e-01 1.50307834e-01 5.26036285e-02
      1.82125345e-02 2.38187220e-02 1.16656668e-01 2.62929827e-01
      1.44452065e-01 2.57767975e-01 2.92134821e-01 2.75193602e-01
      9.84063372e-02 9.97491181e-02 1.30196646e-01 5.24439402e-02
      1.74647391e-01 7.92929679e-02 1.45092547e-01 2.92134821e-01
      2.66700268e-01 1.58179209e-01 1.89952105e-01 1.41955853e-01
      1.51667580e-01 1.06989272e-01 1.87210351e-01 1.65923432e-01
      1.04873106e-01 1.24457978e-01 1.56546429e-01 2.14681983e-01
      2.34749436e-01 2.34749436e-01 2.10853130e-01 2.18041599e-01
      2.34749436e-01 2.09059879e-01 1.99081048e-01 2.07745731e-01
      2.10026324e-01 2.34749436e-01 1.48403451e-01 7.75479004e-02
      9.88912359e-02 7.70559460e-02 3.46417129e-02 7.94191733e-02
      1.17871985e-01 1.08524747e-01 1.50634259e-01 1.94459081e-01
      1.30807936e-01 1.30443677e-01 1.23540767e-01 7.26402774e-02
      1.06852032e-01 1.41087830e-01 2.04864889e-01 2.34749436e-01
      1.95633292e-01 1.82493299e-01 1.17818512e-01 2.07633212e-01
      2.23910034e-01 1.85012817e-01 1.32472456e-01 1.61998406e-01
      2.41432101e-01 8.35413784e-02 8.88442174e-02 5.81040680e-02
      1.09758273e-01 2.41432101e-01 2.41432101e-01 2.41432101e-01
      2.41432101e-01 1.86246678e-01 1.33194134e-01 9.75346416e-02
      7.00973347e-02 6.97229728e-02 1.38014331e-01 1.10181689e-01
      8.31470564e-02 1.74776152e-01 2.41432101e-01 1.30004823e-01
      6.66938052e-02 5.61661497e-02 4.62368988e-02 2.25578368e-01
      1.37239382e-01 1.46388054e-01 2.41432101e-01 2.10671544e-01
      6.89935982e-02 8.39896724e-02 6.09968677e-02 8.23136494e-02
      2.55224556e-01 2.55224556e-01 2.55224556e-01 2.55224556e-01
      1.06124125e-01 1.04792632e-01 8.08498934e-02 1.06738478e-01
